pre_test_note_1,,,,,
weight (g),10.0,,,,
position (cm),12.0,,,,
==================================================================
Time,Strain Ax,Strain Bx,Strain Ay,Strain By,Current Time
0.0,-0.42236328125,0.0030517578125,-2.073974609375,0.0146484375,16:46:10.692963
0.003992000000000218,-0.4217529296875,0.0018310546875,-2.071533203125,0.013427734375,16:46:10.693966
0.007979999999999876,-0.42236328125,0.0054931640625,-2.0721435546875,0.0146484375,16:46:10.693966
0.011972000000000094,-0.4205322265625,0.0018310546875,-2.071533203125,0.0140380859375,16:46:10.694990
0.015963999999999867,-0.419921875,0.0042724609375,-2.0721435546875,0.0140380859375,16:46:10.695958
0.019956000000000085,-0.4193115234375,0.0054931640625,-2.0703125,0.0128173828125,16:46:10.695958
0.02394799999999986,-0.4193115234375,0.006103515625,-2.0703125,0.015869140625,16:46:10.696954
0.027947999999999862,-0.4180908203125,0.0067138671875,-2.071533203125,0.01708984375,16:46:10.696954
0.03196399999999988,-0.418701171875,0.006103515625,-2.0721435546875,0.0146484375,16:46:10.696954
0.035984000000000016,-0.4193115234375,0.006103515625,-2.0703125,0.0164794921875,16:46:10.697951
0.040000000000000036,-0.4180908203125,0.006103515625,-2.0709228515625,0.0152587890625,16:46:10.697951
0.044016000000000055,-0.4193115234375,0.0030517578125,-2.0703125,0.0152587890625,16:46:10.698865
0.04800400000000016,-0.418701171875,0.0048828125,-2.071533203125,0.01708984375,16:46:10.698865
0.052000000000000046,-0.418701171875,0.003662109375,-2.069091796875,0.0164794921875,16:46:10.698865
0.055995999999999935,-0.4180908203125,0.0042724609375,-2.0709228515625,0.0140380859375,16:46:10.699864
0.05998800000000015,-0.4193115234375,0.0030517578125,-2.069091796875,0.0152587890625,16:46:10.699864
0.06397200000000014,-0.418701171875,0.0048828125,-2.0703125,0.0128173828125,16:46:10.700861
0.06796000000000024,-0.4180908203125,0.0054931640625,-2.0703125,0.0152587890625,16:46:10.700861
0.0719479999999999,-0.4180908203125,0.0054931640625,-2.0697021484375,0.01708984375,16:46:10.700861
0.07592800000000022,-0.418701171875,0.0054931640625,-2.0703125,0.018310546875,16:46:10.701858
0.0799120000000002,-0.418701171875,0.006103515625,-2.071533203125,0.0189208984375,16:46:10.701858
0.08392800000000022,-0.4193115234375,0.003662109375,-2.069091796875,0.0189208984375,16:46:10.701858
0.08791599999999988,-0.4180908203125,0.0054931640625,-2.0709228515625,0.0177001953125,16:46:10.702855
0.09191200000000022,-0.41748046875,0.0067138671875,-2.069091796875,0.0164794921875,16:46:10.702855
0.09591599999999989,-0.418701171875,0.006103515625,-2.0703125,0.01708984375,16:46:10.702855
0.09992400000000012,-0.4168701171875,0.006103515625,-2.0703125,0.0164794921875,16:46:10.703853
0.10394799999999993,-0.4168701171875,0.00732421875,-2.0697021484375,0.015869140625,16:46:10.703853
0.10796000000000028,-0.418701171875,0.0067138671875,-2.0697021484375,0.0177001953125,16:46:10.703853
0.11198400000000008,-0.41748046875,0.0054931640625,-2.0709228515625,0.0177001953125,16:46:10.704850
0.11596399999999996,-0.419921875,0.0054931640625,-2.069091796875,0.018310546875,16:46:10.704850
0.11995200000000006,-0.418701171875,0.0048828125,-2.0703125,0.0164794921875,16:46:10.705847
0.12393600000000005,-0.4180908203125,0.006103515625,-2.0697021484375,0.0164794921875,16:46:10.705847
0.12794799999999995,-0.41748046875,0.0042724609375,-2.0709228515625,0.0152587890625,16:46:10.706844
0.13193199999999994,-0.41748046875,0.0054931640625,-2.0697021484375,0.01708984375,16:46:10.706844
0.13592000000000004,-0.41748046875,0.0042724609375,-2.0697021484375,0.0146484375,16:46:10.706844
0.1398999999999999,-0.41748046875,0.003662109375,-2.069091796875,0.015869140625,16:46:10.707841
0.14389200000000013,-0.4168701171875,0.0048828125,-2.0703125,0.01708984375,16:46:10.707841
0.14788000000000023,-0.4168701171875,0.0042724609375,-2.0697021484375,0.015869140625,16:46:10.707841
0.1518679999999999,-0.41748046875,0.0030517578125,-2.0697021484375,0.0164794921875,16:46:10.708838
0.155856,-0.4168701171875,0.003662109375,-2.069091796875,0.015869140625,16:46:10.708838
0.1598440000000001,-0.4168701171875,0.003662109375,-2.069091796875,0.0128173828125,16:46:10.708838
0.1638320000000002,-0.4180908203125,0.0042724609375,-2.0697021484375,0.013427734375,16:46:10.709836
0.16781999999999986,-0.416259765625,0.0048828125,-2.069091796875,0.0140380859375,16:46:10.709836
0.1718160000000002,-0.41748046875,0.006103515625,-2.069091796875,0.0140380859375,16:46:10.709836
0.1758280000000001,-0.41748046875,0.003662109375,-2.069091796875,0.0164794921875,16:46:10.710832
0.17982399999999998,-0.41748046875,0.003662109375,-2.0697021484375,0.0164794921875,16:46:10.710832
0.18380799999999997,-0.416259765625,0.0048828125,-2.0703125,0.015869140625,16:46:10.710832
0.18779600000000007,-0.416259765625,0.0048828125,-2.0672607421875,0.0164794921875,16:46:10.711829
0.19178799999999985,-0.4168701171875,0.0048828125,-2.0703125,0.01708984375,16:46:10.712184
0.19577200000000028,-0.4168701171875,0.0042724609375,-2.0697021484375,0.01708984375,16:46:10.712184
0.19976400000000005,-0.41748046875,0.006103515625,-2.069091796875,0.01708984375,16:46:10.712184
0.20378000000000007,-0.4168701171875,0.006103515625,-2.069091796875,0.0146484375,16:46:10.713211
0.2077960000000001,-0.4180908203125,0.0042724609375,-2.0684814453125,0.01708984375,16:46:10.713211
0.2117840000000002,-0.4180908203125,0.006103515625,-2.0709228515625,0.015869140625,16:46:10.713211
0.2157960000000001,-0.4180908203125,0.006103515625,-2.0697021484375,0.0152587890625,16:46:10.714214
0.21980000000000022,-0.41748046875,0.0042724609375,-2.0697021484375,0.0164794921875,16:46:10.714214
0.223792,-0.4180908203125,0.003662109375,-2.069091796875,0.0177001953125,16:46:10.714214
0.2277800000000001,-0.4168701171875,0.003662109375,-2.0709228515625,0.0152587890625,16:46:10.714214
0.23177599999999998,-0.41748046875,0.003662109375,-2.0697021484375,0.01708984375,16:46:10.715208
0.23576400000000008,-0.4168701171875,0.0018310546875,-2.0697021484375,0.0146484375,16:46:10.715208
0.23975999999999997,-0.41748046875,0.0030517578125,-2.0697021484375,0.015869140625,16:46:10.715208
0.24374800000000008,-0.4168701171875,0.0042724609375,-2.0697021484375,0.0146484375,16:46:10.716205
0.24773600000000018,-0.4168701171875,0.003662109375,-2.0697021484375,0.0152587890625,16:46:10.716205
0.25171600000000005,-0.4156494140625,0.003662109375,-2.0697021484375,0.0152587890625,16:46:10.716205
0.25570800000000027,-0.416259765625,0.003662109375,-2.0697021484375,0.0140380859375,16:46:10.717204
0.2596959999999999,-0.416259765625,0.0054931640625,-2.0697021484375,0.0140380859375,16:46:10.717204
0.2636799999999999,-0.4156494140625,0.0054931640625,-2.0697021484375,0.0146484375,16:46:10.717204
0.2676639999999999,-0.4156494140625,0.0054931640625,-2.06787109375,0.015869140625,16:46:10.717204
0.2716479999999999,-0.4150390625,0.0042724609375,-2.0672607421875,0.0152587890625,16:46:10.718199
0.2756319999999999,-0.4150390625,0.006103515625,-2.06787109375,0.013427734375,16:46:10.718199
0.279652,-0.4144287109375,0.0042724609375,-2.0684814453125,0.013427734375,16:46:10.718199
0.283636,-0.4150390625,0.0054931640625,-2.06787109375,0.015869140625,16:46:10.719194
0.2876280000000002,-0.4144287109375,0.0042724609375,-2.0660400390625,0.01708984375,16:46:10.719194
0.2916240000000001,-0.413818359375,0.0030517578125,-2.0684814453125,0.0177001953125,16:46:10.719194
0.2956159999999999,-0.4150390625,0.0067138671875,-2.066650390625,0.0189208984375,16:46:10.720195
0.29962,-0.413818359375,0.006103515625,-2.06787109375,0.015869140625,16:46:10.720195
0.30364000000000013,-0.4144287109375,0.006103515625,-2.066650390625,0.01708984375,16:46:10.720195
0.30765600000000015,-0.4150390625,0.0054931640625,-2.0660400390625,0.0152587890625,16:46:10.721190
0.31165200000000004,-0.413818359375,0.003662109375,-2.0672607421875,0.015869140625,16:46:10.721190
0.315636,-0.4132080078125,0.003662109375,-2.0684814453125,0.0177001953125,16:46:10.722165
0.31962400000000013,-0.4132080078125,0.00244140625,-2.066650390625,0.0152587890625,16:46:10.722165
0.3236080000000001,-0.4144287109375,0.0030517578125,-2.0672607421875,0.015869140625,16:46:10.722165
0.3275960000000002,-0.413818359375,0.003662109375,-2.06787109375,0.0177001953125,16:46:10.723155
0.3315839999999999,-0.413818359375,0.0048828125,-2.0672607421875,0.018310546875,16:46:10.723155
0.3355760000000001,-0.4107666015625,0.003662109375,-2.0660400390625,0.0177001953125,16:46:10.724179
0.33956799999999987,-0.4132080078125,0.0048828125,-2.0654296875,0.018310546875,16:46:10.724179
0.34355199999999986,-0.4107666015625,0.0042724609375,-2.0660400390625,0.018310546875,16:46:10.724179
0.34753999999999996,-0.4095458984375,0.006103515625,-2.0660400390625,0.015869140625,16:46:10.725183
0.3515600000000001,-0.4083251953125,0.0067138671875,-2.0635986328125,0.0152587890625,16:46:10.725183
0.3555760000000001,-0.4083251953125,0.0042724609375,-2.0654296875,0.015869140625,16:46:10.725183
0.3595640000000002,-0.40771484375,0.0042724609375,-2.0635986328125,0.0146484375,16:46:10.726178
0.3635480000000002,-0.4071044921875,0.003662109375,-2.06298828125,0.0140380859375,16:46:10.726178
0.36753599999999986,-0.4071044921875,0.0030517578125,-2.060546875,0.0140380859375,16:46:10.726178
0.37152399999999997,-0.4046630859375,0.00244140625,-2.0611572265625,0.0140380859375,16:46:10.727178
0.3755160000000002,-0.4052734375,0.0030517578125,-2.060546875,0.0146484375,16:46:10.727178
0.37949600000000006,-0.404052734375,0.003662109375,-2.060546875,0.015869140625,16:46:10.727178
0.38348000000000004,-0.404052734375,0.0048828125,-2.0611572265625,0.013427734375,16:46:10.727178
0.38746800000000015,-0.4022216796875,0.0048828125,-2.0599365234375,0.015869140625,16:46:10.728173
0.391448,-0.40283203125,0.006103515625,-2.060546875,0.015869140625,16:46:10.728173
0.39547599999999994,-0.4034423828125,0.003662109375,-2.060546875,0.0177001953125,16:46:10.728173
0.39946400000000004,-0.401611328125,0.0030517578125,-2.059326171875,0.0177001953125,16:46:10.729167
0.40344400000000036,-0.4022216796875,0.00244140625,-2.0599365234375,0.0177001953125,16:46:10.729167
0.40744000000000025,-0.40283203125,0.00244140625,-2.0587158203125,0.0177001953125,16:46:10.729167
0.4114279999999999,-0.40283203125,0.003662109375,-2.059326171875,0.015869140625,16:46:10.730167
0.41540399999999966,-0.40283203125,0.0048828125,-2.0599365234375,0.0140380859375,16:46:10.730167
0.4194040000000001,-0.4022216796875,0.003662109375,-2.0574951171875,0.0146484375,16:46:10.730167
0.4233880000000001,-0.4022216796875,0.003662109375,-2.059326171875,0.0140380859375,16:46:10.731162
0.42737599999999976,-0.40283203125,0.003662109375,-2.059326171875,0.0146484375,16:46:10.731162
0.4313560000000001,-0.40283203125,0.0030517578125,-2.059326171875,0.0164794921875,16:46:10.731162
0.4353480000000003,-0.4010009765625,0.003662109375,-2.0574951171875,0.018310546875,16:46:10.731162
0.4393320000000003,-0.4022216796875,0.0042724609375,-2.059326171875,0.0164794921875,16:46:10.732160
0.44331999999999994,-0.4022216796875,0.0030517578125,-2.059326171875,0.0146484375,16:46:10.732160
0.4473080000000005,-0.401611328125,0.0030517578125,-2.059326171875,0.0140380859375,16:46:10.732160
0.45129600000000014,-0.4022216796875,0.0030517578125,-2.0599365234375,0.0146484375,16:46:10.733160
0.45528800000000036,-0.4022216796875,0.0030517578125,-2.05810546875,0.013427734375,16:46:10.733160
0.45928400000000025,-0.401611328125,0.0048828125,-2.05810546875,0.013427734375,16:46:10.733160
0.46326800000000024,-0.4022216796875,0.00244140625,-2.0599365234375,0.0146484375,16:46:10.734154
0.46726000000000045,-0.401611328125,0.00244140625,-2.056884765625,0.0164794921875,16:46:10.734154
0.47124400000000044,-0.401611328125,0.0030517578125,-2.0587158203125,0.01708984375,16:46:10.734154
0.47523599999999977,-0.401611328125,0.003662109375,-2.0587158203125,0.0164794921875,16:46:10.735121
0.4792240000000003,-0.4022216796875,0.00244140625,-2.0611572265625,0.015869140625,16:46:10.735121
0.48321599999999965,-0.4010009765625,0.0042724609375,-2.0587158203125,0.0177001953125,16:46:10.735121
0.4872040000000002,-0.4010009765625,0.003662109375,-2.056884765625,0.015869140625,16:46:10.736146
0.4911960000000004,-0.400390625,0.00244140625,-2.05810546875,0.01708984375,16:46:10.736146
0.49519599999999997,-0.400390625,0.0042724609375,-2.0599365234375,0.0177001953125,16:46:10.736146
0.4991880000000002,-0.400390625,0.0042724609375,-2.056884765625,0.015869140625,16:46:10.736146
0.5031759999999998,-0.399169921875,0.0067138671875,-2.0574951171875,0.0146484375,16:46:10.737145
0.5071960000000004,-0.399169921875,0.003662109375,-2.056884765625,0.015869140625,16:46:10.738130
0.5111800000000004,-0.3997802734375,0.0048828125,-2.0587158203125,0.0140380859375,16:46:10.738130
0.5151719999999997,-0.399169921875,0.001220703125,-2.0574951171875,0.0152587890625,16:46:10.739109
0.5191559999999997,-0.3997802734375,0.0,-2.056884765625,0.015869140625,16:46:10.739109
0.523148,-0.39794921875,0.00244140625,-2.056884765625,0.0177001953125,16:46:10.739109
0.5271360000000005,-0.3997802734375,0.0030517578125,-2.0562744140625,0.015869140625,16:46:10.740135
0.5311320000000004,-0.399169921875,0.003662109375,-2.0574951171875,0.01708984375,16:46:10.740135
0.5351319999999999,-0.399169921875,0.003662109375,-2.0562744140625,0.0152587890625,16:46:10.740135
0.5391200000000005,-0.399169921875,0.003662109375,-2.0556640625,0.0164794921875,16:46:10.741131
0.5431119999999998,-0.3985595703125,0.00732421875,-2.0574951171875,0.01708984375,16:46:10.741131
0.5471320000000004,-0.3985595703125,0.0042724609375,-2.059326171875,0.015869140625,16:46:10.741131
0.5511160000000004,-0.3973388671875,0.006103515625,-2.056884765625,0.0146484375,16:46:10.742130
0.5551399999999997,-0.3985595703125,0.0048828125,-2.0556640625,0.0177001953125,16:46:10.742130
0.5591280000000003,-0.3985595703125,0.0042724609375,-2.056884765625,0.0177001953125,16:46:10.742130
0.563116,-0.3985595703125,0.0030517578125,-2.0574951171875,0.0164794921875,16:46:10.743125
0.5670960000000003,-0.39794921875,0.0048828125,-2.0550537109375,0.018310546875,16:46:10.743125
0.5710880000000005,-0.3961181640625,0.0030517578125,-2.0550537109375,0.01708984375,16:46:10.743125
0.5750720000000005,-0.3973388671875,0.0048828125,-2.0556640625,0.0164794921875,16:46:10.744126
0.5790680000000004,-0.39794921875,0.0030517578125,-2.056884765625,0.0177001953125,16:46:10.744126
0.583056,-0.3973388671875,0.00244140625,-2.0556640625,0.0164794921875,16:46:10.744126
0.5870439999999997,-0.396728515625,0.003662109375,-2.0538330078125,0.0152587890625,16:46:10.744126
0.5910279999999997,-0.396728515625,0.003662109375,-2.054443359375,0.0164794921875,16:46:10.745123
0.5950160000000002,-0.396728515625,0.003662109375,-2.0556640625,0.015869140625,16:46:10.745123
0.5989959999999996,-0.3961181640625,0.003662109375,-2.0556640625,0.0164794921875,16:46:10.745123
0.6029799999999996,-0.396728515625,0.0030517578125,-2.054443359375,0.0164794921875,16:46:10.745123
0.6069760000000004,-0.396728515625,0.00244140625,-2.0556640625,0.015869140625,16:46:10.746121
0.6109559999999998,-0.396728515625,0.0030517578125,-2.0556640625,0.0152587890625,16:46:10.746121
0.6149440000000004,-0.3973388671875,0.0030517578125,-2.0556640625,0.0177001953125,16:46:10.746121
0.6189280000000004,-0.3948974609375,0.0030517578125,-2.054443359375,0.0164794921875,16:46:10.747116
0.6229199999999997,-0.396728515625,0.0042724609375,-2.05322265625,0.01708984375,16:46:10.747116
0.6269039999999997,-0.3955078125,0.0030517578125,-2.0556640625,0.018310546875,16:46:10.747116
0.6308959999999999,-0.394287109375,0.0018310546875,-2.05322265625,0.0177001953125,16:46:10.747116
0.6348799999999999,-0.3948974609375,0.0018310546875,-2.0550537109375,0.01708984375,16:46:10.748119
0.6388680000000004,-0.3948974609375,0.00244140625,-2.054443359375,0.015869140625,16:46:10.748119
0.6428599999999998,-0.3955078125,0.0042724609375,-2.0538330078125,0.0164794921875,16:46:10.748119
0.646852,-0.3955078125,0.0048828125,-2.05322265625,0.0164794921875,16:46:10.749111
0.6508440000000002,-0.3948974609375,0.0067138671875,-2.05322265625,0.0164794921875,16:46:10.749111
0.654852,-0.3955078125,0.00732421875,-2.0538330078125,0.015869140625,16:46:10.749111
0.6588640000000003,-0.3955078125,0.00732421875,-2.0538330078125,0.0164794921875,16:46:10.749111
0.662884,-0.394287109375,0.0048828125,-2.05322265625,0.0164794921875,16:46:10.750109
0.666868,-0.394287109375,0.0048828125,-2.0526123046875,0.0152587890625,16:46:10.750109
0.6708559999999997,-0.3948974609375,0.0048828125,-2.0526123046875,0.0140380859375,16:46:10.750109
0.6748440000000002,-0.394287109375,0.0030517578125,-2.054443359375,0.0177001953125,16:46:10.751107
0.6788319999999999,-0.394287109375,0.0030517578125,-2.0550537109375,0.0177001953125,16:46:10.751107
0.6828159999999999,-0.3955078125,0.0048828125,-2.0538330078125,0.01708984375,16:46:10.751107
0.6868080000000001,-0.394287109375,0.0030517578125,-2.054443359375,0.0189208984375,16:46:10.751107
0.6908000000000003,-0.3936767578125,0.0018310546875,-2.05322265625,0.018310546875,16:46:10.752104
0.6947919999999996,-0.3936767578125,0.0018310546875,-2.0550537109375,0.01708984375,16:46:10.752104
0.6987800000000002,-0.39306640625,0.00244140625,-2.05322265625,0.018310546875,16:46:10.752104
0.7027640000000002,-0.394287109375,0.0030517578125,-2.05322265625,0.0164794921875,16:46:10.753102
0.7067480000000002,-0.3936767578125,0.003662109375,-2.05322265625,0.01708984375,16:46:10.753102
0.7107359999999998,-0.3948974609375,0.0048828125,-2.0538330078125,0.0152587890625,16:46:10.753102
0.714728,-0.394287109375,0.00732421875,-2.0526123046875,0.0152587890625,16:46:10.754096
0.7187320000000001,-0.3936767578125,0.006103515625,-2.05322265625,0.0164794921875,16:46:10.754096
0.7227319999999997,-0.39306640625,0.006103515625,-2.05322265625,0.0152587890625,16:46:10.754096
0.7267359999999998,-0.39306640625,0.006103515625,-2.05322265625,0.0140380859375,16:46:10.755095
0.73074,-0.39306640625,0.006103515625,-2.052001953125,0.0146484375,16:46:10.755095
0.7347440000000001,-0.39306640625,0.0048828125,-2.0526123046875,0.0140380859375,16:46:10.755095
0.7387319999999997,-0.3936767578125,0.0048828125,-2.05322265625,0.0152587890625,16:46:10.755095
0.7427239999999999,-0.3924560546875,0.0042724609375,-2.05322265625,0.015869140625,16:46:10.756092
0.7467079999999999,-0.39306640625,0.0018310546875,-2.0526123046875,0.0152587890625,16:46:10.756092
0.7507039999999998,-0.3924560546875,0.003662109375,-2.05322265625,0.0140380859375,16:46:10.756092
0.7546879999999998,-0.3924560546875,0.0042724609375,-2.05078125,0.0146484375,16:46:10.757087
0.75868,-0.39306640625,0.003662109375,-2.0538330078125,0.0146484375,16:46:10.757087
0.7626679999999997,-0.3924560546875,0.0030517578125,-2.052001953125,0.0146484375,16:46:10.757087
0.7666599999999999,-0.390625,0.003662109375,-2.0513916015625,0.0140380859375,16:46:10.757087
0.7706520000000001,-0.3924560546875,0.006103515625,-2.0501708984375,0.0164794921875,16:46:10.758085
0.7746599999999999,-0.3912353515625,0.0054931640625,-2.052001953125,0.015869140625,16:46:10.758085
0.7786439999999999,-0.391845703125,0.0067138671875,-2.049560546875,0.01708984375,16:46:10.758085
0.7826640000000005,-0.390625,0.0054931640625,-2.0513916015625,0.015869140625,16:46:10.759080
0.7866520000000001,-0.3900146484375,0.00732421875,-2.05078125,0.0140380859375,16:46:10.759080
0.7906760000000004,-0.390625,0.006103515625,-2.0513916015625,0.0146484375,16:46:10.759080
0.7946759999999999,-0.3912353515625,0.0048828125,-2.05078125,0.0146484375,16:46:10.759080
0.7986639999999996,-0.3912353515625,0.0048828125,-2.0513916015625,0.015869140625,16:46:10.760078
0.8026520000000001,-0.390625,0.00244140625,-2.04833984375,0.013427734375,16:46:10.760078
0.8066440000000004,-0.3912353515625,0.0042724609375,-2.05078125,0.01708984375,16:46:10.760078
0.8106200000000001,-0.3912353515625,0.0067138671875,-2.0501708984375,0.015869140625,16:46:10.761081
0.8146240000000002,-0.3887939453125,0.0054931640625,-2.049560546875,0.015869140625,16:46:10.761081
0.8186119999999999,-0.389404296875,0.003662109375,-2.049560546875,0.0140380859375,16:46:10.761081
0.8226040000000001,-0.3887939453125,0.0030517578125,-2.05078125,0.01220703125,16:46:10.761081
0.8265919999999998,-0.38818359375,0.0048828125,-2.049560546875,0.010986328125,16:46:10.762072
0.8305800000000003,-0.389404296875,0.0030517578125,-2.05078125,0.013427734375,16:46:10.762072
0.8345640000000003,-0.38818359375,0.00244140625,-2.049560546875,0.0128173828125,16:46:10.762072
0.8385559999999996,-0.3887939453125,0.0030517578125,-2.0501708984375,0.0164794921875,16:46:10.763073
0.8425440000000002,-0.389404296875,0.0042724609375,-2.049560546875,0.015869140625,16:46:10.763073
0.8465360000000004,-0.3875732421875,0.0042724609375,-2.049560546875,0.0152587890625,16:46:10.763073
0.8505320000000003,-0.386962890625,0.0042724609375,-2.049560546875,0.015869140625,16:46:10.763073
0.8545119999999997,-0.38818359375,0.00244140625,-2.04833984375,0.0146484375,16:46:10.764066
0.8585039999999999,-0.3875732421875,0.0042724609375,-2.049560546875,0.013427734375,16:46:10.764066
0.8624879999999999,-0.3875732421875,0.0042724609375,-2.04833984375,0.015869140625,16:46:10.764066
0.8664719999999999,-0.38818359375,0.003662109375,-2.049560546875,0.0152587890625,16:46:10.765074
0.8704600000000005,-0.38818359375,0.0067138671875,-2.0477294921875,0.013427734375,16:46:10.765074
0.8744760000000005,-0.3875732421875,0.0054931640625,-2.049560546875,0.015869140625,16:46:10.765074
0.8784600000000005,-0.3875732421875,0.0054931640625,-2.0489501953125,0.0152587890625,16:46:10.765074
0.8824519999999998,-0.3863525390625,0.003662109375,-2.049560546875,0.0177001953125,16:46:10.766061
0.8864359999999998,-0.3863525390625,0.0030517578125,-2.047119140625,0.015869140625,16:46:10.766061
0.890428,-0.3851318359375,0.003662109375,-2.04833984375,0.0164794921875,16:46:10.766061
0.8944080000000003,-0.3851318359375,0.0042724609375,-2.0489501953125,0.0177001953125,16:46:10.767064
0.8984040000000002,-0.384521484375,0.0042724609375,-2.049560546875,0.0189208984375,16:46:10.767064
0.9023919999999999,-0.3851318359375,0.0042724609375,-2.0465087890625,0.018310546875,16:46:10.767064
0.9063840000000001,-0.384521484375,0.0042724609375,-2.04833984375,0.01708984375,16:46:10.767064
0.9103839999999996,-0.384521484375,0.003662109375,-2.0477294921875,0.01708984375,16:46:10.768057
0.9143720000000002,-0.3851318359375,0.0048828125,-2.04833984375,0.0164794921875,16:46:10.768057
0.9183519999999996,-0.38330078125,0.0042724609375,-2.047119140625,0.015869140625,16:46:10.768057
0.9223400000000002,-0.38330078125,0.003662109375,-2.047119140625,0.0152587890625,16:46:10.769056
0.9263320000000004,-0.3839111328125,0.0030517578125,-2.0465087890625,0.0140380859375,16:46:10.769056
0.9303160000000004,-0.384521484375,0.0054931640625,-2.0477294921875,0.0152587890625,16:46:10.769056
0.934304,-0.3851318359375,0.0048828125,-2.0465087890625,0.015869140625,16:46:10.769056
0.9382999999999999,-0.3826904296875,0.006103515625,-2.047119140625,0.0140380859375,16:46:10.770051
0.9423159999999999,-0.384521484375,0.006103515625,-2.047119140625,0.0152587890625,16:46:10.770051
0.9463400000000002,-0.384521484375,0.0054931640625,-2.047119140625,0.01708984375,16:46:10.770051
0.9503279999999998,-0.38330078125,0.0048828125,-2.0465087890625,0.0164794921875,16:46:10.771047
0.9543160000000004,-0.3826904296875,0.0030517578125,-2.0465087890625,0.015869140625,16:46:10.771047
0.9582920000000001,-0.38330078125,0.003662109375,-2.0477294921875,0.0146484375,16:46:10.771047
0.9622799999999998,-0.38330078125,0.0042724609375,-2.047119140625,0.0146484375,16:46:10.771047
0.966272,-0.3839111328125,0.006103515625,-2.0458984375,0.015869140625,16:46:10.772047
0.9702799999999998,-0.3826904296875,0.0048828125,-2.047119140625,0.0177001953125,16:46:10.772047
0.9742639999999998,-0.3826904296875,0.0048828125,-2.0465087890625,0.0164794921875,16:46:10.772047
0.9782640000000002,-0.3826904296875,0.0054931640625,-2.0465087890625,0.0152587890625,16:46:10.773045
0.9822519999999999,-0.3826904296875,0.0054931640625,-2.0458984375,0.015869140625,16:46:10.773045
0.9862479999999998,-0.382080078125,0.0054931640625,-2.0465087890625,0.015869140625,16:46:10.773045
0.9902360000000003,-0.382080078125,0.0048828125,-2.044677734375,0.0152587890625,16:46:10.773045
0.994224,-0.382080078125,0.0042724609375,-2.0458984375,0.0146484375,16:46:10.774044
0.9982119999999997,-0.380859375,0.0042724609375,-2.0458984375,0.0164794921875,16:46:10.774044
1.0022039999999999,-0.380859375,0.0048828125,-2.0440673828125,0.0146484375,16:46:10.774044
1.0061840000000002,-0.3814697265625,0.006103515625,-2.0458984375,0.015869140625,16:46:10.775038
1.0101880000000003,-0.3814697265625,0.0067138671875,-2.0452880859375,0.015869140625,16:46:10.775038
1.0142119999999997,-0.382080078125,0.0067138671875,-2.044677734375,0.0152587890625,16:46:10.775038
1.0182320000000002,-0.380859375,0.006103515625,-2.04345703125,0.01708984375,16:46:10.775038
1.0222280000000001,-0.3802490234375,0.006103515625,-2.04345703125,0.015869140625,16:46:10.776031
1.0262520000000004,-0.3814697265625,0.0054931640625,-2.0458984375,0.015869140625,16:46:10.776031
1.0302480000000003,-0.3814697265625,0.003662109375,-2.0452880859375,0.0152587890625,16:46:10.776031
1.0342399999999996,-0.380859375,0.0048828125,-2.04345703125,0.0146484375,16:46:10.777029
1.0382280000000002,-0.380859375,0.006103515625,-2.0440673828125,0.0140380859375,16:46:10.777029
1.0422320000000003,-0.3802490234375,0.003662109375,-2.0452880859375,0.0164794921875,16:46:10.777029
1.0462239999999996,-0.379638671875,0.00244140625,-2.0440673828125,0.01708984375,16:46:10.777029
1.0502120000000001,-0.379638671875,0.0042724609375,-2.0428466796875,0.0146484375,16:46:10.778031
1.0541920000000005,-0.3790283203125,0.0030517578125,-2.0440673828125,0.015869140625,16:46:10.778031
1.0581839999999998,-0.3790283203125,0.0030517578125,-2.04345703125,0.01708984375,16:46:10.778031
1.0621679999999998,-0.379638671875,0.00244140625,-2.04345703125,0.0146484375,16:46:10.778031
1.0661560000000003,-0.379638671875,0.0048828125,-2.04345703125,0.0146484375,16:46:10.779027
1.070144,-0.3790283203125,0.0030517578125,-2.0416259765625,0.0164794921875,16:46:10.779027
1.0741319999999996,-0.379638671875,0.0030517578125,-2.0428466796875,0.01708984375,16:46:10.779027
1.0781159999999996,-0.379638671875,0.003662109375,-2.0452880859375,0.015869140625,16:46:10.780025
1.0821079999999998,-0.379638671875,0.0067138671875,-2.04345703125,0.0152587890625,16:46:10.781543
1.0861080000000003,-0.3802490234375,0.006103515625,-2.04345703125,0.0164794921875,16:46:10.785641
1.0901199999999998,-0.379638671875,0.003662109375,-2.04345703125,0.015869140625,16:46:10.789757
1.0940960000000004,-0.3790283203125,0.003662109375,-2.0452880859375,0.0164794921875,16:46:10.793808
1.0980879999999997,-0.3790283203125,0.0042724609375,-2.0440673828125,0.0140380859375,16:46:10.793808
1.10208,-0.379638671875,0.003662109375,-2.04345703125,0.0128173828125,16:46:10.797906
1.1060679999999996,-0.3790283203125,0.0018310546875,-2.041015625,0.0140380859375,16:46:10.801546
1.1100560000000002,-0.3778076171875,0.0030517578125,-2.0440673828125,0.013427734375,16:46:10.805564
1.1140439999999998,-0.380859375,0.001220703125,-2.042236328125,0.0140380859375,16:46:10.810184
1.1180320000000004,-0.37841796875,0.0030517578125,-2.0428466796875,0.013427734375,16:46:10.814213
1.12202,-0.37841796875,0.00244140625,-2.042236328125,0.0146484375,16:46:10.818235
1.1260079999999997,-0.379638671875,0.0030517578125,-2.044677734375,0.015869140625,16:46:10.822192
1.1300040000000005,-0.3790283203125,0.00244140625,-2.0440673828125,0.0146484375,16:46:10.826549
1.1339839999999999,-0.3790283203125,0.0018310546875,-2.042236328125,0.0164794921875,16:46:10.830339
1.1379799999999998,-0.37841796875,0.0030517578125,-2.0428466796875,0.0152587890625,16:46:10.834326
1.1419680000000003,-0.37841796875,0.0042724609375,-2.0428466796875,0.0152587890625,16:46:10.838316
1.1459640000000002,-0.379638671875,0.006103515625,-2.0428466796875,0.0140380859375,16:46:10.842304
1.1499800000000002,-0.3778076171875,0.0067138671875,-2.04345703125,0.013427734375,16:46:10.847290
1.1539960000000002,-0.3778076171875,0.006103515625,-2.0416259765625,0.0140380859375,16:46:10.851278
1.1579959999999998,-0.3790283203125,0.0054931640625,-2.044677734375,0.0140380859375,16:46:10.855266
1.161988,-0.37841796875,0.006103515625,-2.042236328125,0.0140380859375,16:46:10.859255
1.1659879999999996,-0.37841796875,0.0054931640625,-2.0428466796875,0.015869140625,16:46:10.863244
1.1699760000000001,-0.3778076171875,0.0042724609375,-2.04345703125,0.015869140625,16:46:10.867494
1.1739639999999998,-0.379638671875,0.0048828125,-2.0428466796875,0.0164794921875,16:46:10.871591
1.177956,-0.3790283203125,0.0042724609375,-2.04345703125,0.0164794921875,16:46:10.875604
1.18194,-0.37841796875,0.0042724609375,-2.042236328125,0.0164794921875,16:46:10.879974
1.1859359999999999,-0.3790283203125,0.003662109375,-2.0416259765625,0.0146484375,16:46:10.884082
1.1899240000000004,-0.3778076171875,0.0042724609375,-2.0428466796875,0.01708984375,16:46:10.888170
1.193912,-0.379638671875,0.00244140625,-2.04345703125,0.0177001953125,16:46:10.891930
1.1978999999999997,-0.3778076171875,0.003662109375,-2.04345703125,0.015869140625,16:46:10.896280
1.2018880000000003,-0.37841796875,0.00244140625,-2.042236328125,0.0152587890625,16:46:10.900564
1.2058840000000002,-0.37841796875,0.00244140625,-2.0428466796875,0.0152587890625,16:46:10.903984
1.2098680000000002,-0.3790283203125,0.003662109375,-2.0440673828125,0.015869140625,16:46:10.908722
1.2138479999999996,-0.37841796875,0.003662109375,-2.0428466796875,0.0152587890625,16:46:10.911960
1.2178360000000001,-0.37841796875,0.0042724609375,-2.04345703125,0.0152587890625,16:46:10.916877
1.2218200000000001,-0.37841796875,0.0048828125,-2.0416259765625,0.0164794921875,16:46:10.920055
1.2258079999999998,-0.377197265625,0.0054931640625,-2.0428466796875,0.0146484375,16:46:10.925043
1.2298,-0.3778076171875,0.00244140625,-2.042236328125,0.0152587890625,16:46:10.928065
1.233784,-0.3759765625,0.00244140625,-2.0416259765625,0.0152587890625,16:46:10.933138
1.2377799999999999,-0.377197265625,0.0006103515625,-2.0404052734375,0.0152587890625,16:46:10.937133
1.2417559999999996,-0.3765869140625,0.0030517578125,-2.0416259765625,0.01708984375,16:46:10.941122
1.2457399999999996,-0.3765869140625,0.003662109375,-2.0404052734375,0.01708984375,16:46:10.945083
1.2497319999999998,-0.377197265625,0.0048828125,-2.041015625,0.015869140625,16:46:10.949073
1.253724,-0.3759765625,0.0030517578125,-2.041015625,0.013427734375,16:46:10.953061
1.2577160000000003,-0.3759765625,0.006103515625,-2.0416259765625,0.01220703125,16:46:10.957049
1.2617399999999996,-0.3765869140625,0.0048828125,-2.0416259765625,0.0146484375,16:46:10.961723
1.2657239999999996,-0.3759765625,0.0054931640625,-2.0404052734375,0.0152587890625,16:46:10.961723
1.2697120000000002,-0.3765869140625,0.003662109375,-2.0404052734375,0.015869140625,16:46:10.965774
1.2736960000000002,-0.3753662109375,0.003662109375,-2.039794921875,0.01708984375,16:46:10.969767
1.2776839999999998,-0.3759765625,0.003662109375,-2.041015625,0.0152587890625,16:46:10.974158
1.2816599999999996,-0.3759765625,0.006103515625,-2.042236328125,0.0146484375,16:46:10.978262
1.2856680000000003,-0.3759765625,0.0054931640625,-2.0404052734375,0.0146484375,16:46:10.982325
1.2896479999999997,-0.3759765625,0.0054931640625,-2.041015625,0.0146484375,16:46:10.986284
1.2936360000000002,-0.3765869140625,0.006103515625,-2.0404052734375,0.015869140625,16:46:10.990524
1.2976520000000002,-0.3765869140625,0.0054931640625,-2.0416259765625,0.01708984375,16:46:10.994174
1.30164,-0.3753662109375,0.0054931640625,-2.0404052734375,0.015869140625,16:46:10.998683
1.3056280000000005,-0.3753662109375,0.0042724609375,-2.041015625,0.01708984375,16:46:11.002160
1.3096160000000001,-0.3765869140625,0.0067138671875,-2.0416259765625,0.01708984375,16:46:11.007032
1.3136159999999997,-0.3765869140625,0.0054931640625,-2.039794921875,0.018310546875,16:46:11.010960
1.3176040000000002,-0.3753662109375,0.0042724609375,-2.039794921875,0.018310546875,16:46:11.015581
1.3215919999999999,-0.374755859375,0.006103515625,-2.0404052734375,0.015869140625,16:46:11.019321
1.3255999999999997,-0.3759765625,0.0042724609375,-2.0404052734375,0.0146484375,16:46:11.022979
1.3295880000000002,-0.374755859375,0.0018310546875,-2.041015625,0.01708984375,16:46:11.027369
1.3335800000000004,-0.3741455078125,0.0030517578125,-2.03857421875,0.015869140625,16:46:11.031119
1.337568,-0.3741455078125,0.0030517578125,-2.03857421875,0.0164794921875,16:46:11.035565
1.341564,-0.37353515625,0.003662109375,-2.0404052734375,0.0177001953125,16:46:11.039836
1.3455440000000003,-0.3741455078125,0.0030517578125,-2.03857421875,0.0164794921875,16:46:11.043959
1.3495400000000002,-0.3741455078125,0.0042724609375,-2.039794921875,0.0146484375,16:46:11.047491
1.3535199999999996,-0.37353515625,0.0042724609375,-2.03857421875,0.013427734375,16:46:11.051809
1.3575119999999998,-0.3741455078125,0.0042724609375,-2.0391845703125,0.013427734375,16:46:11.055917
1.3615000000000004,-0.3729248046875,0.00244140625,-2.0391845703125,0.01220703125,16:46:11.060201
1.3654919999999997,-0.374755859375,0.003662109375,-2.041015625,0.0146484375,16:46:11.063450
1.369484,-0.3729248046875,0.003662109375,-2.03857421875,0.0152587890625,16:46:11.068101
1.373468,-0.3729248046875,0.0042724609375,-2.039794921875,0.0140380859375,16:46:11.071717
1.377452,-0.37353515625,0.0054931640625,-2.03857421875,0.0152587890625,16:46:11.076389
1.3814400000000004,-0.374755859375,0.0042724609375,-2.039794921875,0.0152587890625,16:46:11.080491
1.385428,-0.3729248046875,0.00732421875,-2.03857421875,0.015869140625,16:46:11.084291
1.3894320000000002,-0.3729248046875,0.006103515625,-2.0391845703125,0.0164794921875,16:46:11.089001
1.39344,-0.3729248046875,0.0054931640625,-2.039794921875,0.0164794921875,16:46:11.092531
1.397436,-0.3729248046875,0.0042724609375,-2.041015625,0.0152587890625,16:46:11.097263
1.4014280000000001,-0.37353515625,0.006103515625,-2.0379638671875,0.015869140625,16:46:11.100837
1.4054520000000004,-0.3729248046875,0.0054931640625,-2.03857421875,0.01708984375,16:46:11.105463
1.40944,-0.37353515625,0.0079345703125,-2.0391845703125,0.015869140625,16:46:11.108458
1.4134640000000003,-0.3741455078125,0.0054931640625,-2.0391845703125,0.01708984375,16:46:11.113062
1.417452,-0.372314453125,0.006103515625,-2.0379638671875,0.015869140625,16:46:11.117729
1.4214760000000002,-0.3729248046875,0.0048828125,-2.0404052734375,0.0140380859375,16:46:11.121515
1.4254600000000002,-0.3729248046875,0.0042724609375,-2.0404052734375,0.0164794921875,16:46:11.125846
1.4294479999999998,-0.3729248046875,0.0067138671875,-2.039794921875,0.015869140625,16:46:11.129936
1.4334480000000003,-0.3729248046875,0.006103515625,-2.03857421875,0.0164794921875,16:46:11.133130
1.4374520000000004,-0.3729248046875,0.006103515625,-2.0391845703125,0.0164794921875,16:46:11.138055
1.441452,-0.374755859375,0.0048828125,-2.0404052734375,0.015869140625,16:46:11.138055
1.4454599999999997,-0.3729248046875,0.0054931640625,-2.03857421875,0.0152587890625,16:46:11.141969
1.4494360000000004,-0.3729248046875,0.0042724609375,-2.0391845703125,0.0152587890625,16:46:11.145998
1.4534320000000003,-0.37353515625,0.0042724609375,-2.039794921875,0.0146484375,16:46:11.150376
1.45742,-0.37353515625,0.0054931640625,-2.0391845703125,0.01708984375,16:46:11.154675
1.461404,-0.37353515625,0.003662109375,-2.039794921875,0.0164794921875,16:46:11.158648
1.465388,-0.37353515625,0.0048828125,-2.03857421875,0.0164794921875,16:46:11.162427
1.4693759999999996,-0.37353515625,0.0048828125,-2.03857421875,0.0177001953125,16:46:11.166858
1.4733640000000001,-0.3717041015625,0.0048828125,-2.0391845703125,0.01708984375,16:46:11.170825
1.4773519999999998,-0.37353515625,0.0030517578125,-2.0391845703125,0.018310546875,16:46:11.174512
1.4813359999999998,-0.37353515625,0.003662109375,-2.0379638671875,0.0152587890625,16:46:11.178893
1.4853240000000003,-0.3729248046875,0.0048828125,-2.0379638671875,0.015869140625,16:46:11.182838
1.4893039999999997,-0.3717041015625,0.006103515625,-2.039794921875,0.015869140625,16:46:11.187126
1.493328,-0.3729248046875,0.0042724609375,-2.03857421875,0.015869140625,16:46:11.191296
1.497312,-0.37353515625,0.0048828125,-2.0379638671875,0.0146484375,16:46:11.195477
1.5013040000000002,-0.37353515625,0.0042724609375,-2.0379638671875,0.0152587890625,16:46:11.199448
1.5052919999999999,-0.3741455078125,0.0048828125,-2.03857421875,0.0164794921875,16:46:11.203506
1.5092800000000004,-0.3729248046875,0.00732421875,-2.03857421875,0.0152587890625,16:46:11.207747
1.51328,-0.37353515625,0.00732421875,-2.0391845703125,0.015869140625,16:46:11.211772
1.517296,-0.3729248046875,0.0048828125,-2.0379638671875,0.015869140625,16:46:11.215567
1.5212839999999996,-0.372314453125,0.00732421875,-2.0379638671875,0.01708984375,16:46:11.219919
1.5252920000000003,-0.3729248046875,0.00732421875,-2.0391845703125,0.01708984375,16:46:11.224148
1.5293080000000003,-0.3729248046875,0.0054931640625,-2.0391845703125,0.015869140625,16:46:11.228199
1.5332999999999997,-0.3717041015625,0.006103515625,-2.0379638671875,0.0164794921875,16:46:11.232191
1.5373159999999997,-0.3729248046875,0.0042724609375,-2.0391845703125,0.0152587890625,16:46:11.236416
1.5412999999999997,-0.3729248046875,0.0048828125,-2.0391845703125,0.015869140625,16:46:11.240438
1.5452880000000002,-0.3717041015625,0.0054931640625,-2.0404052734375,0.0164794921875,16:46:11.244237
1.5492759999999999,-0.372314453125,0.0054931640625,-2.03857421875,0.0152587890625,16:46:11.248373
1.5532599999999999,-0.3717041015625,0.0054931640625,-2.03857421875,0.0152587890625,16:46:11.252590
1.557252,-0.372314453125,0.0067138671875,-2.0391845703125,0.013427734375,16:46:11.256547
1.5612519999999996,-0.372314453125,0.006103515625,-2.0379638671875,0.0146484375,16:46:11.260308
1.5652600000000003,-0.3729248046875,0.0048828125,-2.03857421875,0.0140380859375,16:46:11.264928
1.5692399999999997,-0.3729248046875,0.0054931640625,-2.03857421875,0.0146484375,16:46:11.268382
1.573232,-0.372314453125,0.0048828125,-2.03857421875,0.01220703125,16:46:11.272871
1.577216,-0.37109375,0.0048828125,-2.039794921875,0.0146484375,16:46:11.277424
1.5812039999999996,-0.3729248046875,0.0042724609375,-2.037353515625,0.0128173828125,16:46:11.281000
1.5851959999999998,-0.372314453125,0.0042724609375,-2.039794921875,0.0152587890625,16:46:11.285433
1.5891799999999998,-0.372314453125,0.0042724609375,-2.03857421875,0.0177001953125,16:46:11.289646
1.5931639999999998,-0.372314453125,0.003662109375,-2.037353515625,0.015869140625,16:46:11.292800
1.5971520000000003,-0.372314453125,0.0042724609375,-2.0379638671875,0.01708984375,16:46:11.297834
1.6011319999999998,-0.372314453125,0.001220703125,-2.03857421875,0.0164794921875,16:46:11.301914
1.6051200000000003,-0.372314453125,0.0030517578125,-2.0391845703125,0.015869140625,16:46:11.301914
1.609108,-0.372314453125,0.0018310546875,-2.0391845703125,0.0140380859375,16:46:11.305694
1.613092,-0.3717041015625,0.0006103515625,-2.0391845703125,0.015869140625,16:46:11.309433
1.617076,-0.3717041015625,0.0006103515625,-2.03857421875,0.0140380859375,16:46:11.313592
1.6210639999999996,-0.3729248046875,0.0018310546875,-2.0379638671875,0.0140380859375,16:46:11.318278
1.6250520000000002,-0.372314453125,0.0018310546875,-2.0391845703125,0.0140380859375,16:46:11.322524
1.6290399999999998,-0.372314453125,0.003662109375,-2.03857421875,0.0152587890625,16:46:11.326483
1.633032,-0.372314453125,0.006103515625,-2.037353515625,0.0152587890625,16:46:11.330470
1.6370360000000002,-0.3717041015625,0.0054931640625,-2.0379638671875,0.0146484375,16:46:11.334524
1.6410200000000001,-0.3717041015625,0.006103515625,-2.03857421875,0.0152587890625,16:46:11.338783
1.645048,-0.3717041015625,0.0054931640625,-2.0379638671875,0.015869140625,16:46:11.342169
1.6490400000000003,-0.37109375,0.0030517578125,-2.037353515625,0.01708984375,16:46:11.346687
1.6530240000000003,-0.3717041015625,0.00244140625,-2.0379638671875,0.01708984375,16:46:11.350802
1.657012,-0.37109375,0.0042724609375,-2.03857421875,0.015869140625,16:46:11.355200
1.6609999999999996,-0.372314453125,0.0048828125,-2.03857421875,0.01708984375,16:46:11.359156
1.6649880000000001,-0.37109375,0.0067138671875,-2.03857421875,0.015869140625,16:46:11.363266
1.668984,-0.37109375,0.0042724609375,-2.037353515625,0.0164794921875,16:46:11.367425
1.67298,-0.3704833984375,0.0054931640625,-2.03857421875,0.015869140625,16:46:11.371453
1.676952,-0.3704833984375,0.0030517578125,-2.0379638671875,0.0146484375,16:46:11.375613
1.6809519999999996,-0.37109375,0.0030517578125,-2.037353515625,0.015869140625,16:46:11.379649
1.6849360000000004,-0.3704833984375,0.0048828125,-2.037353515625,0.0146484375,16:46:11.383652
1.6889200000000004,-0.369873046875,0.006103515625,-2.0361328125,0.015869140625,16:46:11.387944
1.6929360000000004,-0.37109375,0.00732421875,-2.0379638671875,0.015869140625,16:46:11.391923
1.6969640000000004,-0.3704833984375,0.0067138671875,-2.0367431640625,0.01708984375,16:46:11.395870
1.700984,-0.3692626953125,0.0067138671875,-2.0361328125,0.018310546875,16:46:11.400073
1.705,-0.369873046875,0.0067138671875,-2.037353515625,0.0177001953125,16:46:11.403929
1.709016,-0.37109375,0.0067138671875,-2.037353515625,0.0164794921875,16:46:11.408390
1.7130200000000002,-0.3704833984375,0.006103515625,-2.037353515625,0.015869140625,16:46:11.411899
1.7170240000000003,-0.3704833984375,0.0048828125,-2.037353515625,0.015869140625,16:46:11.416547
1.7210039999999998,-0.3704833984375,0.006103515625,-2.037353515625,0.01708984375,16:46:11.419941
1.7250120000000004,-0.3704833984375,0.006103515625,-2.0379638671875,0.018310546875,16:46:11.424537
1.7290359999999998,-0.369873046875,0.001220703125,-2.03857421875,0.01708984375,16:46:11.428836
1.7330199999999998,-0.37109375,0.00244140625,-2.037353515625,0.01708984375,16:46:11.432845
1.7370080000000003,-0.3704833984375,0.0030517578125,-2.0367431640625,0.018310546875,16:46:11.437097
1.7409920000000003,-0.3692626953125,0.0042724609375,-2.037353515625,0.018310546875,16:46:11.440820
1.7449839999999996,-0.3692626953125,0.00244140625,-2.0361328125,0.0164794921875,16:46:11.445272
1.7489679999999996,-0.369873046875,0.0048828125,-2.0361328125,0.0146484375,16:46:11.449394
1.7529599999999999,-0.36865234375,0.0054931640625,-2.0361328125,0.0177001953125,16:46:11.452454
1.7569600000000003,-0.3692626953125,0.0067138671875,-2.0367431640625,0.015869140625,16:46:11.457558
1.7609640000000004,-0.36865234375,0.0042724609375,-2.037353515625,0.0164794921875,16:46:11.461505
1.7649559999999997,-0.3692626953125,0.0048828125,-2.0367431640625,0.0177001953125,16:46:11.465715
1.7689519999999996,-0.36865234375,0.0048828125,-2.0361328125,0.0164794921875,16:46:11.469770
1.7729400000000002,-0.3692626953125,0.0054931640625,-2.0367431640625,0.0164794921875,16:46:11.473386
1.7769240000000002,-0.367431640625,0.0042724609375,-2.0361328125,0.0164794921875,16:46:11.477884
1.7809080000000002,-0.3680419921875,0.003662109375,-2.0367431640625,0.0140380859375,16:46:11.478021
1.7848959999999998,-0.367431640625,0.0030517578125,-2.0361328125,0.0146484375,16:46:11.482095
1.7888799999999998,-0.3680419921875,0.003662109375,-2.0367431640625,0.0164794921875,16:46:11.485886
1.7928639999999998,-0.367431640625,0.0048828125,-2.0361328125,0.015869140625,16:46:11.490146
1.7968520000000003,-0.3680419921875,0.0042724609375,-2.0367431640625,0.01708984375,16:46:11.493778
1.80084,-0.367431640625,0.0054931640625,-2.034912109375,0.0177001953125,16:46:11.498129
1.804824,-0.3668212890625,0.0054931640625,-2.0343017578125,0.01953125,16:46:11.501847
1.8088119999999996,-0.36865234375,0.0054931640625,-2.037353515625,0.0164794921875,16:46:11.506327
1.8128039999999999,-0.3680419921875,0.0042724609375,-2.0361328125,0.01708984375,16:46:11.510466
1.8167879999999998,-0.3668212890625,0.0054931640625,-2.034912109375,0.018310546875,16:46:11.514705
1.8207839999999997,-0.367431640625,0.0042724609375,-2.0355224609375,0.0177001953125,16:46:11.518807
1.8247679999999997,-0.3668212890625,0.0067138671875,-2.034912109375,0.015869140625,16:46:11.522785
1.8287839999999997,-0.367431640625,0.006103515625,-2.0361328125,0.0146484375,16:46:11.527164
1.8327840000000002,-0.3668212890625,0.0054931640625,-2.03369140625,0.015869140625,16:46:11.531193
1.8367719999999998,-0.3668212890625,0.0054931640625,-2.0343017578125,0.0164794921875,16:46:11.535428
1.8407520000000002,-0.3680419921875,0.0042724609375,-2.034912109375,0.015869140625,16:46:11.539394
1.8447399999999998,-0.367431640625,0.00732421875,-2.0355224609375,0.015869140625,16:46:11.542845
1.8487559999999998,-0.36865234375,0.0048828125,-2.03369140625,0.0164794921875,16:46:11.547645
1.852748,-0.3668212890625,0.0054931640625,-2.0343017578125,0.015869140625,16:46:11.551659
1.8567359999999997,-0.3680419921875,0.0067138671875,-2.0343017578125,0.0164794921875,16:46:11.555863
1.8607560000000003,-0.367431640625,0.006103515625,-2.0343017578125,0.0164794921875,16:46:11.559945
1.864776,-0.3668212890625,0.0042724609375,-2.03369140625,0.0177001953125,16:46:11.563669
1.86876,-0.3668212890625,0.0054931640625,-2.0343017578125,0.015869140625,16:46:11.568134
1.8727479999999996,-0.367431640625,0.003662109375,-2.0367431640625,0.0140380859375,16:46:11.572136
1.8767399999999999,-0.3662109375,0.0054931640625,-2.0355224609375,0.0140380859375,16:46:11.576399
1.8807200000000002,-0.3656005859375,0.003662109375,-2.034912109375,0.01708984375,16:46:11.580367
1.8847199999999997,-0.3668212890625,0.0048828125,-2.034912109375,0.018310546875,16:46:11.584469
1.8887080000000003,-0.3668212890625,0.0054931640625,-2.03369140625,0.01708984375,16:46:11.588219
1.892696,-0.3680419921875,0.0054931640625,-2.03369140625,0.015869140625,16:46:11.592256
1.8966839999999996,-0.367431640625,0.0054931640625,-2.0355224609375,0.0164794921875,16:46:11.596467
1.9006720000000001,-0.3656005859375,0.0054931640625,-2.03369140625,0.0164794921875,16:46:11.600561
1.9046560000000001,-0.3668212890625,0.003662109375,-2.034912109375,0.0146484375,16:46:11.604665
1.9086439999999998,-0.3668212890625,0.006103515625,-2.034912109375,0.0152587890625,16:46:11.608765
1.9126399999999997,-0.367431640625,0.0067138671875,-2.0355224609375,0.0164794921875,16:46:11.612971
1.9166559999999997,-0.3662109375,0.006103515625,-2.0343017578125,0.015869140625,16:46:11.616939
1.9206640000000004,-0.3662109375,0.0067138671875,-2.0355224609375,0.0152587890625,16:46:11.620966
1.9246720000000002,-0.3662109375,0.0054931640625,-2.0355224609375,0.0152587890625,16:46:11.625051
1.9286560000000001,-0.3680419921875,0.0067138671875,-2.0361328125,0.0152587890625,16:46:11.629207
1.9326759999999998,-0.3662109375,0.006103515625,-2.034912109375,0.013427734375,16:46:11.632828
1.9366960000000004,-0.3662109375,0.0042724609375,-2.0355224609375,0.0146484375,16:46:11.637380
1.940684,-0.3656005859375,0.003662109375,-2.034912109375,0.0140380859375,16:46:11.641346
1.94468,-0.3662109375,0.0054931640625,-2.034912109375,0.0140380859375,16:46:11.645603
1.9486720000000002,-0.3662109375,0.0067138671875,-2.034912109375,0.013427734375,16:46:11.649194
1.9526880000000002,-0.3662109375,0.0067138671875,-2.034912109375,0.0146484375,16:46:11.653987
1.9566879999999998,-0.364990234375,0.006103515625,-2.03369140625,0.0152587890625,16:46:11.657881
1.9607080000000003,-0.367431640625,0.006103515625,-2.034912109375,0.0164794921875,16:46:11.657881
1.964708,-0.364990234375,0.006103515625,-2.0343017578125,0.015869140625,16:46:11.662190
1.968724,-0.3656005859375,0.0048828125,-2.034912109375,0.01708984375,16:46:11.666398
1.9727119999999996,-0.3662109375,0.0048828125,-2.0355224609375,0.0177001953125,16:46:11.670236
1.9767000000000001,-0.3662109375,0.0067138671875,-2.0343017578125,0.01708984375,16:46:11.674624
