pre_test_note_1,,,,,
weight (g),50.0,,,,
position (cm),12.0,,,,
==================================================================
Time,Strain Ax,Strain Bx,Strain Ay,Strain By,Current Time
0.0,-0.428466796875,0.0067138671875,-2.0758056640625,0.0152587890625,16:46:23.453147
0.0040000000000000036,-0.42724609375,0.003662109375,-2.076416015625,0.0146484375,16:46:23.453147
0.007988000000000106,-0.4266357421875,0.0054931640625,-2.0745849609375,0.0146484375,16:46:23.454176
0.011976000000000209,-0.428466796875,0.0067138671875,-2.0751953125,0.0140380859375,16:46:23.454176
0.015983999999999998,-0.42724609375,0.0048828125,-2.0770263671875,0.0140380859375,16:46:23.454176
0.019964000000000315,-0.4278564453125,0.0048828125,-2.0751953125,0.0140380859375,16:46:23.455325
0.023960000000000203,-0.4278564453125,0.003662109375,-2.0751953125,0.0140380859375,16:46:23.455325
0.027948000000000306,-0.428466796875,0.0042724609375,-2.0751953125,0.0152587890625,16:46:23.456324
0.031935999999999964,-0.42724609375,0.0054931640625,-2.076416015625,0.0146484375,16:46:23.456324
0.03591999999999995,-0.4278564453125,0.00732421875,-2.0758056640625,0.015869140625,16:46:23.456324
0.03993599999999997,-0.4266357421875,0.00732421875,-2.076416015625,0.015869140625,16:46:23.457321
0.043935999999999975,-0.42724609375,0.0067138671875,-2.0745849609375,0.0177001953125,16:46:23.457321
0.04795600000000011,-0.4266357421875,0.00732421875,-2.076416015625,0.015869140625,16:46:23.457321
0.051952,-0.42724609375,0.0067138671875,-2.0758056640625,0.015869140625,16:46:23.458318
0.05596800000000002,-0.4278564453125,0.0048828125,-2.0745849609375,0.01708984375,16:46:23.458318
0.05995600000000012,-0.4266357421875,0.00244140625,-2.0745849609375,0.01708984375,16:46:23.458318
0.06394800000000034,-0.4266357421875,0.003662109375,-2.076416015625,0.01708984375,16:46:23.459316
0.067936,-0.428466796875,0.006103515625,-2.0758056640625,0.018310546875,16:46:23.459316
0.07196400000000036,-0.4254150390625,0.0054931640625,-2.0758056640625,0.01708984375,16:46:23.459316
0.07595200000000002,-0.426025390625,0.0042724609375,-2.076416015625,0.0177001953125,16:46:23.460312
0.07993600000000001,-0.426025390625,0.003662109375,-2.0745849609375,0.0177001953125,16:46:23.460312
0.08392800000000022,-0.4248046875,0.003662109375,-2.0751953125,0.01708984375,16:46:23.460312
0.08791600000000033,-0.4266357421875,0.0018310546875,-2.0733642578125,0.01708984375,16:46:23.461309
0.0918960000000002,-0.4254150390625,0.0030517578125,-2.0751953125,0.0164794921875,16:46:23.461309
0.0958960000000002,-0.4266357421875,0.0018310546875,-2.0745849609375,0.0164794921875,16:46:23.461309
0.09987600000000008,-0.4266357421875,0.003662109375,-2.0758056640625,0.015869140625,16:46:23.462306
0.1038680000000003,-0.426025390625,0.00244140625,-2.0745849609375,0.0164794921875,16:46:23.462306
0.10785200000000028,-0.4254150390625,0.0030517578125,-2.0733642578125,0.0164794921875,16:46:23.462306
0.11183999999999994,-0.426025390625,0.0030517578125,-2.0745849609375,0.0177001953125,16:46:23.462306
0.11582800000000004,-0.426025390625,0.0048828125,-2.0758056640625,0.0152587890625,16:46:23.463304
0.11982000000000026,-0.4254150390625,0.0048828125,-2.0751953125,0.0164794921875,16:46:23.463304
0.12380000000000013,-0.4254150390625,0.0030517578125,-2.0733642578125,0.01708984375,16:46:23.463304
0.12778800000000023,-0.426025390625,0.0054931640625,-2.0745849609375,0.01708984375,16:46:23.464301
0.13177200000000022,-0.4266357421875,0.0054931640625,-2.0745849609375,0.01708984375,16:46:23.464301
0.1357680000000001,-0.4266357421875,0.0042724609375,-2.073974609375,0.01708984375,16:46:23.464301
0.1397560000000002,-0.426025390625,0.0048828125,-2.0745849609375,0.018310546875,16:46:23.465298
0.143748,-0.426025390625,0.0048828125,-2.073974609375,0.01708984375,16:46:23.465298
0.1477360000000001,-0.426025390625,0.0048828125,-2.073974609375,0.0146484375,16:46:23.465298
0.15173199999999998,-0.4254150390625,0.0048828125,-2.0733642578125,0.0146484375,16:46:23.466295
0.15572000000000008,-0.426025390625,0.0018310546875,-2.0745849609375,0.0146484375,16:46:23.466295
0.1597120000000003,-0.42724609375,0.0018310546875,-2.0733642578125,0.0164794921875,16:46:23.466295
0.16370400000000007,-0.4254150390625,0.0018310546875,-2.073974609375,0.0152587890625,16:46:23.467292
0.1676960000000003,-0.42724609375,0.0030517578125,-2.0745849609375,0.0164794921875,16:46:23.467292
0.17168800000000006,-0.4248046875,0.00244140625,-2.0751953125,0.015869140625,16:46:23.467292
0.17568000000000028,-0.4248046875,0.00244140625,-2.07275390625,0.0164794921875,16:46:23.467292
0.17966400000000027,-0.4266357421875,0.003662109375,-2.073974609375,0.0146484375,16:46:23.468289
0.18364800000000026,-0.4248046875,0.0042724609375,-2.073974609375,0.0146484375,16:46:23.468289
0.18763200000000024,-0.4266357421875,0.003662109375,-2.0758056640625,0.0152587890625,16:46:23.468289
0.19162000000000035,-0.4266357421875,0.0048828125,-2.073974609375,0.013427734375,16:46:23.469286
0.195608,-0.4254150390625,0.0054931640625,-2.073974609375,0.0140380859375,16:46:23.469286
0.19958800000000032,-0.4254150390625,0.0054931640625,-2.0745849609375,0.0164794921875,16:46:23.469286
0.2035800000000001,-0.4254150390625,0.003662109375,-2.0745849609375,0.015869140625,16:46:23.470284
0.20756400000000008,-0.42724609375,0.003662109375,-2.0745849609375,0.0164794921875,16:46:23.470284
0.2115560000000003,-0.4254150390625,0.003662109375,-2.0733642578125,0.0146484375,16:46:23.470284
0.21554399999999996,-0.4248046875,0.0048828125,-2.0745849609375,0.0164794921875,16:46:23.471281
0.21953200000000006,-0.426025390625,0.0048828125,-2.073974609375,0.015869140625,16:46:23.471281
0.22351600000000005,-0.4254150390625,0.0048828125,-2.0751953125,0.01708984375,16:46:23.471281
0.22751199999999994,-0.4248046875,0.0067138671875,-2.07275390625,0.01953125,16:46:23.471281
0.23152799999999996,-0.4248046875,0.003662109375,-2.0751953125,0.0164794921875,16:46:23.472278
0.23551600000000006,-0.4254150390625,0.0067138671875,-2.0733642578125,0.018310546875,16:46:23.472278
0.23951600000000006,-0.4248046875,0.003662109375,-2.07275390625,0.018310546875,16:46:23.472278
0.24350400000000016,-0.426025390625,0.003662109375,-2.0733642578125,0.01708984375,16:46:23.473275
0.24750000000000005,-0.4241943359375,0.00244140625,-2.0745849609375,0.0152587890625,16:46:23.473275
0.25148800000000016,-0.4248046875,0.00244140625,-2.0745849609375,0.0189208984375,16:46:23.473275
0.25546800000000003,-0.4241943359375,0.003662109375,-2.0733642578125,0.01953125,16:46:23.474272
0.25946000000000025,-0.4248046875,0.0054931640625,-2.0733642578125,0.01953125,16:46:23.474272
0.263452,-0.423583984375,0.00244140625,-2.073974609375,0.0177001953125,16:46:23.474272
0.2674400000000001,-0.4254150390625,0.003662109375,-2.0745849609375,0.015869140625,16:46:23.475269
0.2714240000000001,-0.4248046875,0.0030517578125,-2.0745849609375,0.0146484375,16:46:23.475269
0.2754160000000003,-0.4241943359375,0.0054931640625,-2.0721435546875,0.0140380859375,16:46:23.475269
0.2794080000000001,-0.4254150390625,0.0042724609375,-2.0745849609375,0.0146484375,16:46:23.475269
0.2833840000000003,-0.4241943359375,0.0048828125,-2.0751953125,0.0152587890625,16:46:23.476268
0.2873760000000001,-0.4248046875,0.0042724609375,-2.0733642578125,0.0140380859375,16:46:23.476268
0.29137199999999996,-0.4248046875,0.003662109375,-2.071533203125,0.0146484375,16:46:23.476268
0.29536000000000007,-0.4241943359375,0.003662109375,-2.07275390625,0.0146484375,16:46:23.477264
0.29934800000000017,-0.4241943359375,0.003662109375,-2.0733642578125,0.0152587890625,16:46:23.477264
0.30333200000000016,-0.4241943359375,0.0042724609375,-2.073974609375,0.0152587890625,16:46:23.477264
0.30731600000000014,-0.4241943359375,0.006103515625,-2.07275390625,0.0152587890625,16:46:23.478261
0.31133200000000016,-0.4241943359375,0.0079345703125,-2.07275390625,0.0146484375,16:46:23.478261
0.3153360000000003,-0.423583984375,0.0054931640625,-2.0733642578125,0.0164794921875,16:46:23.478261
0.31932800000000006,-0.4229736328125,0.0054931640625,-2.073974609375,0.015869140625,16:46:23.478261
0.32330000000000014,-0.42236328125,0.0048828125,-2.071533203125,0.0152587890625,16:46:23.479258
0.32730000000000015,-0.42236328125,0.003662109375,-2.071533203125,0.01708984375,16:46:23.479258
0.33128400000000013,-0.421142578125,0.00732421875,-2.071533203125,0.0140380859375,16:46:23.480255
0.33530400000000027,-0.421142578125,0.006103515625,-2.0721435546875,0.0146484375,16:46:23.480255
0.3393320000000002,-0.42236328125,0.0048828125,-2.0709228515625,0.015869140625,16:46:23.480255
0.34332399999999996,-0.4205322265625,0.003662109375,-2.071533203125,0.0152587890625,16:46:23.480255
0.3473200000000003,-0.42236328125,0.003662109375,-2.0703125,0.0146484375,16:46:23.481252
0.35130799999999995,-0.4205322265625,0.003662109375,-2.071533203125,0.0152587890625,16:46:23.481252
0.35529600000000006,-0.4217529296875,0.003662109375,-2.0703125,0.018310546875,16:46:23.481252
0.3592880000000003,-0.4217529296875,0.001220703125,-2.0697021484375,0.0177001953125,16:46:23.482249
0.36328000000000005,-0.4205322265625,0.00244140625,-2.0709228515625,0.01708984375,16:46:23.482249
0.36726800000000015,-0.4205322265625,0.001220703125,-2.0709228515625,0.015869140625,16:46:23.482249
0.37125200000000014,-0.421142578125,0.003662109375,-2.0709228515625,0.0164794921875,16:46:23.483247
0.37524000000000024,-0.421142578125,0.003662109375,-2.0697021484375,0.0152587890625,16:46:23.483247
0.3792240000000002,-0.4217529296875,0.0018310546875,-2.0709228515625,0.015869140625,16:46:23.483247
0.3832080000000002,-0.419921875,0.00244140625,-2.0709228515625,0.015869140625,16:46:23.484244
0.3871880000000001,-0.4193115234375,0.003662109375,-2.069091796875,0.0146484375,16:46:23.484244
0.3911760000000002,-0.4205322265625,0.0042724609375,-2.0697021484375,0.0152587890625,16:46:23.484244
0.3951640000000003,-0.4205322265625,0.006103515625,-2.0703125,0.015869140625,16:46:23.485241
0.3991880000000001,-0.419921875,0.006103515625,-2.0703125,0.0146484375,16:46:23.485241
0.4031920000000002,-0.4193115234375,0.006103515625,-2.0721435546875,0.0146484375,16:46:23.485241
0.4072,-0.418701171875,0.0048828125,-2.069091796875,0.0146484375,16:46:23.485241
0.41119600000000034,-0.4180908203125,0.003662109375,-2.0697021484375,0.0146484375,16:46:23.486238
0.415184,-0.418701171875,0.003662109375,-2.069091796875,0.013427734375,16:46:23.486238
0.419168,-0.4180908203125,0.003662109375,-2.0697021484375,0.0152587890625,16:46:23.486238
0.423152,-0.4180908203125,0.0054931640625,-2.0684814453125,0.0152587890625,16:46:23.487235
0.4271400000000001,-0.41748046875,0.0018310546875,-2.0697021484375,0.0164794921875,16:46:23.487235
0.4311280000000002,-0.41748046875,0.0018310546875,-2.069091796875,0.0152587890625,16:46:23.487235
0.43510800000000005,-0.41748046875,0.00244140625,-2.0697021484375,0.0152587890625,16:46:23.488232
0.43909600000000015,-0.4168701171875,0.0018310546875,-2.06787109375,0.0146484375,16:46:23.488232
0.44309200000000004,-0.41748046875,0.003662109375,-2.06787109375,0.0140380859375,16:46:23.488232
0.44708400000000026,-0.4168701171875,0.0054931640625,-2.06787109375,0.0146484375,16:46:23.488232
0.4510719999999999,-0.416259765625,0.0054931640625,-2.069091796875,0.015869140625,16:46:23.489229
0.45506400000000014,-0.4168701171875,0.0054931640625,-2.0672607421875,0.0164794921875,16:46:23.489229
0.45905200000000024,-0.416259765625,0.006103515625,-2.0703125,0.0140380859375,16:46:23.489229
0.46307600000000004,-0.4168701171875,0.0048828125,-2.0684814453125,0.015869140625,16:46:23.489229
0.46706400000000015,-0.41748046875,0.0030517578125,-2.0684814453125,0.01708984375,16:46:23.490227
0.47105200000000025,-0.4168701171875,0.0030517578125,-2.06787109375,0.01708984375,16:46:23.490227
0.47503600000000024,-0.4168701171875,0.003662109375,-2.0672607421875,0.01708984375,16:46:23.490227
0.47902400000000034,-0.41748046875,0.0042724609375,-2.06787109375,0.01708984375,16:46:23.491224
0.4830160000000001,-0.4168701171875,0.0042724609375,-2.069091796875,0.015869140625,16:46:23.491224
0.48700800000000033,-0.416259765625,0.0048828125,-2.0672607421875,0.015869140625,16:46:23.491224
0.4909880000000002,-0.416259765625,0.0048828125,-2.069091796875,0.0128173828125,16:46:23.491224
0.49498,-0.416259765625,0.006103515625,-2.0672607421875,0.0152587890625,16:46:23.492221
0.498996,-0.4168701171875,0.0054931640625,-2.069091796875,0.0164794921875,16:46:23.492221
0.5029920000000003,-0.4156494140625,0.0054931640625,-2.0684814453125,0.018310546875,16:46:23.492221
0.50698,-0.416259765625,0.006103515625,-2.06787109375,0.0177001953125,16:46:23.493218
0.5109920000000003,-0.4168701171875,0.006103515625,-2.0684814453125,0.0152587890625,16:46:23.493218
0.5149920000000003,-0.4168701171875,0.0048828125,-2.06787109375,0.015869140625,16:46:23.493218
0.5189880000000002,-0.4156494140625,0.0054931640625,-2.06787109375,0.0164794921875,16:46:23.493218
0.522964,-0.4156494140625,0.0054931640625,-2.06787109375,0.015869140625,16:46:23.494215
0.5269600000000003,-0.4168701171875,0.0048828125,-2.06787109375,0.018310546875,16:46:23.494215
0.5309440000000003,-0.416259765625,0.0048828125,-2.06787109375,0.0164794921875,16:46:23.494215
0.5349360000000001,-0.4150390625,0.003662109375,-2.0672607421875,0.0146484375,16:46:23.495212
0.538916,-0.4144287109375,0.003662109375,-2.0660400390625,0.0146484375,16:46:23.495212
0.5429080000000002,-0.4150390625,0.0042724609375,-2.06787109375,0.0140380859375,16:46:23.495212
0.5468920000000002,-0.4144287109375,0.00244140625,-2.066650390625,0.0146484375,16:46:23.495212
0.5508800000000003,-0.4144287109375,0.0042724609375,-2.06787109375,0.0146484375,16:46:23.496210
0.554872,-0.4144287109375,0.0042724609375,-2.0660400390625,0.0152587890625,16:46:23.496210
0.5588640000000002,-0.4144287109375,0.003662109375,-2.0660400390625,0.013427734375,16:46:23.496210
0.562856,-0.4132080078125,0.0054931640625,-2.0660400390625,0.0152587890625,16:46:23.497207
0.5668519999999999,-0.4144287109375,0.003662109375,-2.06787109375,0.015869140625,16:46:23.497207
0.5708440000000001,-0.4132080078125,0.0048828125,-2.0654296875,0.01708984375,16:46:23.497207
0.5748320000000002,-0.4144287109375,0.0048828125,-2.066650390625,0.0177001953125,16:46:23.497207
0.5788200000000003,-0.4144287109375,0.0067138671875,-2.0654296875,0.0164794921875,16:46:23.498204
0.5828440000000001,-0.413818359375,0.00732421875,-2.0672607421875,0.0177001953125,16:46:23.498204
0.5868600000000002,-0.413818359375,0.0054931640625,-2.0660400390625,0.0146484375,16:46:23.498204
0.5908480000000003,-0.4132080078125,0.00732421875,-2.0648193359375,0.0177001953125,16:46:23.499201
0.5948480000000003,-0.41259765625,0.0048828125,-2.0648193359375,0.0146484375,16:46:23.499201
0.5988359999999999,-0.41259765625,0.006103515625,-2.0648193359375,0.0152587890625,16:46:23.499201
0.60284,-0.411376953125,0.0030517578125,-2.0648193359375,0.015869140625,16:46:23.499201
0.6068280000000001,-0.41259765625,0.0054931640625,-2.064208984375,0.0164794921875,16:46:23.500198
0.6108160000000002,-0.4119873046875,0.0054931640625,-2.0635986328125,0.0152587890625,16:46:23.500198
0.6148120000000001,-0.4132080078125,0.003662109375,-2.0648193359375,0.0146484375,16:46:23.500198
0.618792,-0.4119873046875,0.0048828125,-2.0635986328125,0.0164794921875,16:46:23.500198
0.6227800000000001,-0.411376953125,0.0067138671875,-2.064208984375,0.0152587890625,16:46:23.501195
0.6267960000000001,-0.411376953125,0.0054931640625,-2.0635986328125,0.013427734375,16:46:23.501195
0.6307840000000002,-0.41259765625,0.0054931640625,-2.0648193359375,0.0128173828125,16:46:23.501195
0.6347680000000002,-0.4119873046875,0.0042724609375,-2.0623779296875,0.0128173828125,16:46:23.502192
0.63876,-0.4119873046875,0.0030517578125,-2.064208984375,0.0140380859375,16:46:23.502192
0.6427480000000001,-0.4107666015625,0.0030517578125,-2.0635986328125,0.0146484375,16:46:23.502192
0.6467320000000001,-0.4107666015625,0.0030517578125,-2.0660400390625,0.0146484375,16:46:23.502192
0.6507160000000001,-0.4107666015625,0.0030517578125,-2.0648193359375,0.0140380859375,16:46:23.503190
0.6547040000000002,-0.41259765625,0.003662109375,-2.0635986328125,0.015869140625,16:46:23.503190
0.6586880000000002,-0.411376953125,0.0054931640625,-2.06298828125,0.015869140625,16:46:23.503190
0.6626760000000003,-0.41259765625,0.0042724609375,-2.0635986328125,0.0140380859375,16:46:23.504187
0.6666639999999999,-0.4119873046875,0.003662109375,-2.0635986328125,0.015869140625,16:46:23.504187
0.6706440000000002,-0.411376953125,0.003662109375,-2.0635986328125,0.0164794921875,16:46:23.504187
0.6746400000000001,-0.411376953125,0.0048828125,-2.0635986328125,0.0164794921875,16:46:23.504187
0.6786120000000002,-0.4119873046875,0.0042724609375,-2.066650390625,0.0177001953125,16:46:23.505184
0.682604,-0.4107666015625,0.0030517578125,-2.0648193359375,0.015869140625,16:46:23.505184
0.6865920000000001,-0.4107666015625,0.0030517578125,-2.064208984375,0.0177001953125,16:46:23.505184
0.690588,-0.4119873046875,0.003662109375,-2.0648193359375,0.01708984375,16:46:23.505184
0.694572,-0.4119873046875,0.00244140625,-2.0635986328125,0.0164794921875,16:46:23.506181
0.6985680000000003,-0.41015625,0.0030517578125,-2.0648193359375,0.01708984375,16:46:23.506181
0.702556,-0.4119873046875,0.0030517578125,-2.064208984375,0.0164794921875,16:46:23.506181
0.70654,-0.411376953125,0.0042724609375,-2.0635986328125,0.0177001953125,16:46:23.507178
0.710528,-0.411376953125,0.0048828125,-2.0635986328125,0.01708984375,16:46:23.507178
0.7145200000000003,-0.4107666015625,0.003662109375,-2.0654296875,0.01708984375,16:46:23.507178
0.7185160000000002,-0.4107666015625,0.001220703125,-2.0654296875,0.015869140625,16:46:23.507178
0.7225000000000001,-0.41015625,0.0054931640625,-2.064208984375,0.0164794921875,16:46:23.508175
0.7264880000000002,-0.411376953125,0.0048828125,-2.0635986328125,0.01708984375,16:46:23.508175
0.7304680000000001,-0.411376953125,0.00732421875,-2.0654296875,0.01708984375,16:46:23.508175
0.7344919999999999,-0.41259765625,0.0054931640625,-2.0635986328125,0.015869140625,16:46:23.508175
0.7384880000000003,-0.4107666015625,0.0042724609375,-2.0648193359375,0.015869140625,16:46:23.509173
0.7424759999999999,-0.4095458984375,0.00244140625,-2.064208984375,0.0152587890625,16:46:23.509173
0.7464680000000001,-0.4107666015625,0.0042724609375,-2.064208984375,0.015869140625,16:46:23.509173
0.7504560000000002,-0.411376953125,0.003662109375,-2.064208984375,0.0140380859375,16:46:23.510170
0.754448,-0.41015625,0.003662109375,-2.064208984375,0.0152587890625,16:46:23.510170
0.758432,-0.4107666015625,0.0042724609375,-2.064208984375,0.0140380859375,16:46:23.510170
0.7624120000000003,-0.411376953125,0.0042724609375,-2.0660400390625,0.01708984375,16:46:23.510170
0.7664040000000001,-0.4107666015625,0.00244140625,-2.0635986328125,0.015869140625,16:46:23.511167
0.7703920000000002,-0.411376953125,0.00244140625,-2.0635986328125,0.0164794921875,16:46:23.511167
0.7743800000000003,-0.4095458984375,0.003662109375,-2.0623779296875,0.0177001953125,16:46:23.511167
0.7783640000000003,-0.4095458984375,0.0048828125,-2.0635986328125,0.015869140625,16:46:23.512164
0.7823519999999999,-0.408935546875,0.0042724609375,-2.064208984375,0.0164794921875,16:46:23.512164
0.786324,-0.40771484375,0.0054931640625,-2.0635986328125,0.01708984375,16:46:23.512164
0.7903160000000002,-0.4095458984375,0.0054931640625,-2.061767578125,0.0164794921875,16:46:23.512164
0.794292,-0.4107666015625,0.0054931640625,-2.0635986328125,0.0164794921875,16:46:23.513161
0.7982880000000003,-0.4083251953125,0.0067138671875,-2.0623779296875,0.0177001953125,16:46:23.513161
0.8023000000000002,-0.408935546875,0.0048828125,-2.0623779296875,0.0189208984375,16:46:23.513161
0.8062880000000003,-0.408935546875,0.0030517578125,-2.06298828125,0.0189208984375,16:46:23.514158
0.810276,-0.41015625,0.0042724609375,-2.0623779296875,0.018310546875,16:46:23.514158
0.8142680000000002,-0.408935546875,0.003662109375,-2.06298828125,0.0152587890625,16:46:23.514158
0.8182520000000002,-0.408935546875,0.0042724609375,-2.061767578125,0.01708984375,16:46:23.514158
0.8222400000000003,-0.4083251953125,0.003662109375,-2.0623779296875,0.0164794921875,16:46:23.515155
0.826228,-0.4095458984375,0.003662109375,-2.0611572265625,0.0177001953125,16:46:23.515155
0.8302240000000003,-0.41015625,0.0048828125,-2.06298828125,0.01708984375,16:46:23.515155
0.8342080000000003,-0.4095458984375,0.0048828125,-2.061767578125,0.0177001953125,16:46:23.515155
0.838184,-0.408935546875,0.0048828125,-2.0611572265625,0.018310546875,16:46:23.516153
0.8421799999999999,-0.4095458984375,0.0054931640625,-2.0623779296875,0.0164794921875,16:46:23.516153
0.8461600000000002,-0.4095458984375,0.0042724609375,-2.06298828125,0.01708984375,16:46:23.516153
0.8501440000000002,-0.41015625,0.0042724609375,-2.06298828125,0.0152587890625,16:46:23.517150
0.8541280000000002,-0.4095458984375,0.0054931640625,-2.0611572265625,0.015869140625,16:46:23.517150
0.8581159999999999,-0.408935546875,0.0048828125,-2.061767578125,0.015869140625,16:46:23.517150
0.8620999999999999,-0.408935546875,0.006103515625,-2.06298828125,0.01708984375,16:46:23.517150
0.8661200000000004,-0.4083251953125,0.0048828125,-2.06298828125,0.018310546875,16:46:23.518147
0.8701080000000001,-0.4095458984375,0.006103515625,-2.060546875,0.0164794921875,16:46:23.518147
0.8741200000000005,-0.408935546875,0.0048828125,-2.0623779296875,0.0177001953125,16:46:23.518147
0.8781080000000001,-0.408935546875,0.0054931640625,-2.0623779296875,0.015869140625,16:46:23.518147
0.8820959999999998,-0.4083251953125,0.0067138671875,-2.0635986328125,0.0146484375,16:46:23.519144
0.8861119999999998,-0.408935546875,0.0042724609375,-2.0635986328125,0.015869140625,16:46:23.519144
0.8901000000000003,-0.40771484375,0.006103515625,-2.061767578125,0.0164794921875,16:46:23.519144
0.89412,-0.4083251953125,0.0054931640625,-2.0623779296875,0.0140380859375,16:46:23.520141
0.898104,-0.408935546875,0.006103515625,-2.06298828125,0.0146484375,16:46:23.520141
0.9021080000000001,-0.40771484375,0.00244140625,-2.061767578125,0.0140380859375,16:46:23.520141
0.9061000000000003,-0.4083251953125,0.0018310546875,-2.061767578125,0.0152587890625,16:46:23.520141
0.9100919999999997,-0.4083251953125,0.00244140625,-2.0623779296875,0.0140380859375,16:46:23.521138
0.9140800000000002,-0.408935546875,0.00244140625,-2.06298828125,0.0146484375,16:46:23.521138
0.9180679999999999,-0.4083251953125,0.0042724609375,-2.0635986328125,0.0140380859375,16:46:23.521138
0.9220600000000001,-0.4083251953125,0.00244140625,-2.0611572265625,0.01708984375,16:46:23.522135
0.9260440000000001,-0.4083251953125,0.006103515625,-2.061767578125,0.0146484375,16:46:23.522135
0.9300680000000003,-0.4095458984375,0.0018310546875,-2.0635986328125,0.0140380859375,16:46:23.522135
0.934056,-0.4095458984375,0.0018310546875,-2.0623779296875,0.0140380859375,16:46:23.522135
0.9380440000000005,-0.408935546875,0.003662109375,-2.061767578125,0.015869140625,16:46:23.523133
0.9420400000000004,-0.408935546875,0.003662109375,-2.061767578125,0.0177001953125,16:46:23.523133
0.9460280000000001,-0.408935546875,0.003662109375,-2.06298828125,0.0164794921875,16:46:23.523133
0.950024,-0.4083251953125,0.0042724609375,-2.06298828125,0.0164794921875,16:46:23.523133
0.9540240000000004,-0.4083251953125,0.0054931640625,-2.0623779296875,0.0164794921875,16:46:23.524130
0.9580120000000001,-0.4095458984375,0.0048828125,-2.06298828125,0.0164794921875,16:46:23.524130
0.9619999999999997,-0.4095458984375,0.0042724609375,-2.0623779296875,0.0152587890625,16:46:23.524130
0.9659800000000001,-0.4083251953125,0.0042724609375,-2.064208984375,0.0164794921875,16:46:23.525127
0.969964,-0.4083251953125,0.0042724609375,-2.061767578125,0.0164794921875,16:46:23.525127
0.9739519999999997,-0.408935546875,0.0054931640625,-2.061767578125,0.018310546875,16:46:23.525127
0.9779400000000003,-0.408935546875,0.00732421875,-2.0623779296875,0.0177001953125,16:46:23.525127
0.9819399999999998,-0.4095458984375,0.006103515625,-2.06298828125,0.015869140625,16:46:23.526124
0.9859439999999999,-0.40771484375,0.0054931640625,-2.06298828125,0.0146484375,16:46:23.526124
0.9899320000000005,-0.408935546875,0.0042724609375,-2.061767578125,0.0128173828125,16:46:23.526124
0.9939200000000001,-0.4083251953125,0.00732421875,-2.0623779296875,0.015869140625,16:46:23.527121
0.9979360000000002,-0.408935546875,0.006103515625,-2.0623779296875,0.0140380859375,16:46:23.527121
1.0019520000000002,-0.408935546875,0.0067138671875,-2.061767578125,0.0152587890625,16:46:23.527121
1.0059719999999999,-0.408935546875,0.006103515625,-2.061767578125,0.0164794921875,16:46:23.527121
1.0099840000000002,-0.4095458984375,0.00244140625,-2.06298828125,0.0152587890625,16:46:23.528118
1.0139760000000004,-0.4083251953125,0.0042724609375,-2.0623779296875,0.0146484375,16:46:23.528118
1.017964,-0.408935546875,0.0048828125,-2.0623779296875,0.013427734375,16:46:23.528118
1.0219519999999997,-0.4095458984375,0.0067138671875,-2.0611572265625,0.013427734375,16:46:23.529115
1.0259520000000002,-0.40771484375,0.0067138671875,-2.061767578125,0.015869140625,16:46:23.529115
1.0299719999999999,-0.4083251953125,0.00732421875,-2.0623779296875,0.015869140625,16:46:23.529115
1.033976,-0.4083251953125,0.0067138671875,-2.061767578125,0.01708984375,16:46:23.529115
1.0379839999999998,-0.4083251953125,0.0054931640625,-2.0623779296875,0.015869140625,16:46:23.530113
1.0419799999999997,-0.408935546875,0.0048828125,-2.0611572265625,0.015869140625,16:46:23.530113
1.045972,-0.4083251953125,0.0030517578125,-2.061767578125,0.0177001953125,16:46:23.530113
1.049956,-0.4071044921875,0.0042724609375,-2.0635986328125,0.0177001953125,16:46:23.531110
1.0539360000000002,-0.408935546875,0.0054931640625,-2.060546875,0.01708984375,16:46:23.531110
1.0579239999999999,-0.408935546875,0.003662109375,-2.060546875,0.0164794921875,16:46:23.531110
1.061916,-0.40771484375,0.0042724609375,-2.0623779296875,0.0177001953125,16:46:23.531110
1.0659039999999997,-0.40771484375,0.003662109375,-2.06298828125,0.0177001953125,16:46:23.532107
1.0698920000000003,-0.408935546875,0.0018310546875,-2.0611572265625,0.0177001953125,16:46:23.532107
1.0738840000000005,-0.4083251953125,0.0048828125,-2.0611572265625,0.015869140625,16:46:23.532107
1.0778720000000002,-0.4083251953125,0.0042724609375,-2.0611572265625,0.01708984375,16:46:23.534120
1.0818520000000005,-0.408935546875,0.0054931640625,-2.06298828125,0.01708984375,16:46:23.538073
1.0858400000000001,-0.408935546875,0.0048828125,-2.059326171875,0.0177001953125,16:46:23.541693
1.0898240000000001,-0.40771484375,0.0048828125,-2.060546875,0.0164794921875,16:46:23.545956
1.09382,-0.4083251953125,0.003662109375,-2.0611572265625,0.0177001953125,16:46:23.550154
1.0978079999999997,-0.4083251953125,0.006103515625,-2.06298828125,0.015869140625,16:46:23.554728
1.1018239999999997,-0.4083251953125,0.0048828125,-2.061767578125,0.0146484375,16:46:23.559723
1.1058120000000002,-0.4083251953125,0.0054931640625,-2.0611572265625,0.0152587890625,16:46:23.562708
1.1098,-0.40771484375,0.00732421875,-2.059326171875,0.015869140625,16:46:23.566731
1.113804,-0.408935546875,0.00732421875,-2.0623779296875,0.0152587890625,16:46:23.570685
1.1178080000000001,-0.40771484375,0.0079345703125,-2.0611572265625,0.01708984375,16:46:23.574675
1.1218240000000002,-0.40771484375,0.006103515625,-2.0611572265625,0.0164794921875,16:46:23.578663
1.1258439999999998,-0.4083251953125,0.0054931640625,-2.061767578125,0.0177001953125,16:46:23.582652
1.1298320000000004,-0.408935546875,0.0048828125,-2.0635986328125,0.0177001953125,16:46:23.586640
1.1338160000000004,-0.40771484375,0.0054931640625,-2.061767578125,0.015869140625,16:46:23.590629
1.1377959999999998,-0.4083251953125,0.0054931640625,-2.060546875,0.0164794921875,16:46:23.595097
1.1417840000000004,-0.4071044921875,0.003662109375,-2.060546875,0.01708984375,16:46:23.599221
1.1457680000000003,-0.4083251953125,0.0048828125,-2.0623779296875,0.0164794921875,16:46:23.602833
1.149756,-0.4083251953125,0.006103515625,-2.060546875,0.0152587890625,16:46:23.607637
1.1537600000000001,-0.4083251953125,0.006103515625,-2.0623779296875,0.01708984375,16:46:23.611528
1.157768,-0.4083251953125,0.0054931640625,-2.0599365234375,0.0164794921875,16:46:23.615822
1.1617639999999998,-0.4083251953125,0.0067138671875,-2.061767578125,0.0164794921875,16:46:23.619278
1.1657840000000004,-0.4083251953125,0.00732421875,-2.061767578125,0.015869140625,16:46:23.623997
1.169804,-0.40771484375,0.00732421875,-2.060546875,0.0146484375,16:46:23.627895
1.17382,-0.4083251953125,0.0079345703125,-2.0611572265625,0.0152587890625,16:46:23.631970
1.1778440000000003,-0.4083251953125,0.0054931640625,-2.0623779296875,0.0152587890625,16:46:23.636359
1.181832,-0.4083251953125,0.0042724609375,-2.0611572265625,0.0146484375,16:46:23.640499
1.1858200000000005,-0.4083251953125,0.0048828125,-2.0623779296875,0.0152587890625,16:46:23.644611
1.1898080000000002,-0.40771484375,0.006103515625,-2.060546875,0.0164794921875,16:46:23.648120
1.193828,-0.4083251953125,0.006103515625,-2.061767578125,0.0164794921875,16:46:23.652515
1.197832,-0.4083251953125,0.0048828125,-2.0635986328125,0.0164794921875,16:46:23.656536
1.2018240000000002,-0.4083251953125,0.0054931640625,-2.061767578125,0.0164794921875,16:46:23.660725
1.2058080000000002,-0.408935546875,0.006103515625,-2.0611572265625,0.015869140625,16:46:23.665045
1.2098199999999997,-0.4095458984375,0.006103515625,-2.0611572265625,0.015869140625,16:46:23.669222
1.2138400000000003,-0.4083251953125,0.00732421875,-2.064208984375,0.0177001953125,16:46:23.673049
1.2178560000000003,-0.4095458984375,0.003662109375,-2.0623779296875,0.0177001953125,16:46:23.677441
1.221844,-0.4083251953125,0.0030517578125,-2.061767578125,0.018310546875,16:46:23.680690
1.2258320000000005,-0.40771484375,0.00244140625,-2.061767578125,0.0146484375,16:46:23.685235
1.2298200000000001,-0.4095458984375,0.0054931640625,-2.0611572265625,0.0140380859375,16:46:23.689290
1.2338079999999998,-0.4083251953125,0.0030517578125,-2.061767578125,0.0140380859375,16:46:23.692835
1.2378,-0.4083251953125,0.003662109375,-2.0611572265625,0.0164794921875,16:46:23.693793
1.2417879999999997,-0.40771484375,0.0030517578125,-2.0623779296875,0.0146484375,16:46:23.697539
1.2457760000000002,-0.408935546875,0.0042724609375,-2.0635986328125,0.0146484375,16:46:23.701825
1.2497639999999999,-0.408935546875,0.003662109375,-2.061767578125,0.0146484375,16:46:23.705675
1.2537520000000004,-0.4083251953125,0.0042724609375,-2.0623779296875,0.0164794921875,16:46:23.709918
1.2577360000000004,-0.4083251953125,0.0042724609375,-2.0611572265625,0.0152587890625,16:46:23.714017
1.261724,-0.408935546875,0.00244140625,-2.0623779296875,0.0164794921875,16:46:23.718117
1.2657040000000004,-0.408935546875,0.0048828125,-2.0623779296875,0.0177001953125,16:46:23.721355
1.269692,-0.408935546875,0.0054931640625,-2.0623779296875,0.0164794921875,16:46:23.726500
1.273688,-0.40771484375,0.0042724609375,-2.0623779296875,0.0177001953125,16:46:23.730573
1.2776760000000005,-0.4083251953125,0.0042724609375,-2.061767578125,0.0201416015625,16:46:23.734769
1.2816600000000005,-0.408935546875,0.0048828125,-2.06298828125,0.018310546875,16:46:23.738752
1.2856480000000001,-0.4083251953125,0.0054931640625,-2.0623779296875,0.0152587890625,16:46:23.742076
1.2896359999999998,-0.4083251953125,0.0067138671875,-2.061767578125,0.0140380859375,16:46:23.747318
1.2936519999999998,-0.4083251953125,0.0054931640625,-2.061767578125,0.0152587890625,16:46:23.750932
1.2976359999999998,-0.4095458984375,0.0048828125,-2.0623779296875,0.0152587890625,16:46:23.754936
1.3016199999999998,-0.40771484375,0.0048828125,-2.06298828125,0.0140380859375,16:46:23.759150
1.3056080000000003,-0.4071044921875,0.0042724609375,-2.060546875,0.0152587890625,16:46:23.763156
1.309596,-0.4083251953125,0.0067138671875,-2.061767578125,0.0152587890625,16:46:23.767336
1.3136159999999997,-0.4083251953125,0.0048828125,-2.0623779296875,0.0140380859375,16:46:23.771040
1.3176040000000002,-0.4083251953125,0.0054931640625,-2.06298828125,0.0152587890625,16:46:23.775645
1.3215919999999999,-0.408935546875,0.0042724609375,-2.061767578125,0.0152587890625,16:46:23.779705
1.325584,-0.4083251953125,0.0054931640625,-2.0623779296875,0.0152587890625,16:46:23.783818
1.3295719999999998,-0.41015625,0.003662109375,-2.061767578125,0.0146484375,16:46:23.787765
1.3335600000000003,-0.4083251953125,0.003662109375,-2.0623779296875,0.015869140625,16:46:23.791755
1.337548,-0.4083251953125,0.003662109375,-2.0611572265625,0.0152587890625,16:46:23.795871
1.341532,-0.4083251953125,0.00244140625,-2.0611572265625,0.0152587890625,16:46:23.800165
1.3455200000000005,-0.408935546875,0.00244140625,-2.061767578125,0.015869140625,16:46:23.804398
1.3495080000000002,-0.4083251953125,0.0030517578125,-2.0623779296875,0.0146484375,16:46:23.807424
1.3535000000000004,-0.4083251953125,0.0018310546875,-2.0611572265625,0.0146484375,16:46:23.812499
1.357488,-0.408935546875,0.003662109375,-2.061767578125,0.0152587890625,16:46:23.816582
1.3614759999999997,-0.40771484375,0.0042724609375,-2.0623779296875,0.013427734375,16:46:23.820516
1.365468,-0.4095458984375,0.003662109375,-2.061767578125,0.0140380859375,16:46:23.824699
1.3694560000000005,-0.408935546875,0.0048828125,-2.061767578125,0.0152587890625,16:46:23.828617
1.3734400000000004,-0.4083251953125,0.0067138671875,-2.0623779296875,0.0140380859375,16:46:23.832934
1.3774639999999998,-0.4083251953125,0.0054931640625,-2.061767578125,0.0152587890625,16:46:23.836116
1.3814520000000003,-0.4083251953125,0.0042724609375,-2.0623779296875,0.015869140625,16:46:23.840108
1.3854480000000002,-0.4083251953125,0.0048828125,-2.061767578125,0.0152587890625,16:46:23.845173
1.3894320000000002,-0.408935546875,0.003662109375,-2.061767578125,0.0164794921875,16:46:23.849326
1.393428,-0.4095458984375,0.0042724609375,-2.06298828125,0.015869140625,16:46:23.853214
1.397412,-0.4083251953125,0.0030517578125,-2.061767578125,0.01708984375,16:46:23.857558
1.4013920000000004,-0.4083251953125,0.003662109375,-2.0635986328125,0.01708984375,16:46:23.857558
1.40538,-0.4095458984375,0.003662109375,-2.0623779296875,0.015869140625,16:46:23.861283
1.4093679999999997,-0.4095458984375,0.0048828125,-2.06298828125,0.015869140625,16:46:23.865653
1.41336,-0.408935546875,0.003662109375,-2.06298828125,0.0177001953125,16:46:23.869798
1.4173480000000005,-0.40771484375,0.003662109375,-2.0623779296875,0.0164794921875,16:46:23.873918
1.4213360000000002,-0.408935546875,0.003662109375,-2.060546875,0.0164794921875,16:46:23.877996
1.4253160000000005,-0.4083251953125,0.0030517578125,-2.06298828125,0.0164794921875,16:46:23.881979
1.4293040000000001,-0.408935546875,0.003662109375,-2.0623779296875,0.0177001953125,16:46:23.885935
1.4332919999999998,-0.40771484375,0.001220703125,-2.06298828125,0.0152587890625,16:46:23.890180
1.437284,-0.408935546875,0.00244140625,-2.060546875,0.01708984375,16:46:23.894201
1.4412719999999997,-0.4071044921875,0.0042724609375,-2.06298828125,0.0146484375,16:46:23.898406
1.4452559999999997,-0.4095458984375,0.0030517578125,-2.0623779296875,0.0164794921875,16:46:23.902392
1.4492440000000002,-0.4083251953125,0.0030517578125,-2.0623779296875,0.0152587890625,16:46:23.906534
1.4532360000000004,-0.4095458984375,0.003662109375,-2.0611572265625,0.0140380859375,16:46:23.910587
1.457224,-0.4083251953125,0.0054931640625,-2.0623779296875,0.0152587890625,16:46:23.914824
1.4612160000000003,-0.41015625,0.0042724609375,-2.061767578125,0.0152587890625,16:46:23.918785
1.4652080000000005,-0.4083251953125,0.00244140625,-2.0623779296875,0.0164794921875,16:46:23.923074
1.4691999999999998,-0.4083251953125,0.0042724609375,-2.0623779296875,0.01708984375,16:46:23.927155
1.4731880000000004,-0.4071044921875,0.00244140625,-2.061767578125,0.01708984375,16:46:23.931147
1.4771720000000004,-0.40771484375,0.00244140625,-2.061767578125,0.0164794921875,16:46:23.935008
1.48116,-0.408935546875,0.003662109375,-2.0623779296875,0.0177001953125,16:46:23.939279
1.485144,-0.408935546875,0.0042724609375,-2.061767578125,0.015869140625,16:46:23.943025
1.489128,-0.40771484375,0.003662109375,-2.061767578125,0.015869140625,16:46:23.947163
1.4931159999999997,-0.4083251953125,0.003662109375,-2.0623779296875,0.0177001953125,16:46:23.950944
1.4971040000000002,-0.4071044921875,0.0042724609375,-2.0623779296875,0.01708984375,16:46:23.955571
1.5010919999999999,-0.4083251953125,0.0048828125,-2.060546875,0.0164794921875,16:46:23.959735
1.5050800000000004,-0.408935546875,0.003662109375,-2.060546875,0.0177001953125,16:46:23.963680
1.509068,-0.4083251953125,0.0018310546875,-2.061767578125,0.01708984375,16:46:23.968094
1.5130559999999997,-0.4083251953125,0.00244140625,-2.0623779296875,0.01708984375,16:46:23.971890
1.5170440000000003,-0.40771484375,0.0048828125,-2.0635986328125,0.01708984375,16:46:23.976045
1.5210360000000005,-0.40771484375,0.006103515625,-2.0611572265625,0.0164794921875,16:46:23.980161
1.5250560000000002,-0.408935546875,0.0048828125,-2.061767578125,0.015869140625,16:46:23.984181
1.5290439999999998,-0.4083251953125,0.006103515625,-2.0623779296875,0.0152587890625,16:46:23.988250
1.5330599999999999,-0.4083251953125,0.0054931640625,-2.064208984375,0.0146484375,16:46:23.991929
1.5370480000000004,-0.4095458984375,0.0067138671875,-2.061767578125,0.0164794921875,16:46:23.996872
1.541048,-0.4071044921875,0.0048828125,-2.061767578125,0.015869140625,16:46:23.999953
1.5450439999999999,-0.408935546875,0.003662109375,-2.06298828125,0.013427734375,16:46:24.004974
1.5490320000000004,-0.40771484375,0.0042724609375,-2.06298828125,0.0146484375,16:46:24.009076
1.5530160000000004,-0.408935546875,0.0048828125,-2.061767578125,0.0146484375,16:46:24.012999
1.5570079999999997,-0.4083251953125,0.0054931640625,-2.061767578125,0.0146484375,16:46:24.017282
1.561,-0.4083251953125,0.0042724609375,-2.0611572265625,0.015869140625,16:46:24.021006
1.5649920000000002,-0.4083251953125,0.0054931640625,-2.0623779296875,0.015869140625,16:46:24.025311
1.568988,-0.40771484375,0.003662109375,-2.061767578125,0.0152587890625,16:46:24.025311
1.5729759999999997,-0.4071044921875,0.0048828125,-2.061767578125,0.0146484375,16:46:24.029408
1.5769640000000003,-0.40771484375,0.0054931640625,-2.0611572265625,0.0164794921875,16:46:24.033559
1.5809439999999997,-0.4071044921875,0.0067138671875,-2.0623779296875,0.0164794921875,16:46:24.038092
1.5849599999999997,-0.408935546875,0.0054931640625,-2.0623779296875,0.015869140625,16:46:24.041862
1.5889560000000005,-0.4083251953125,0.0042724609375,-2.061767578125,0.015869140625,16:46:24.045844
1.5929400000000005,-0.4071044921875,0.0042724609375,-2.060546875,0.0128173828125,16:46:24.049924
1.5969280000000001,-0.4083251953125,0.0048828125,-2.0623779296875,0.015869140625,16:46:24.054148
1.6009159999999998,-0.40771484375,0.0030517578125,-2.061767578125,0.0164794921875,16:46:24.058094
1.6048999999999998,-0.406494140625,0.0042724609375,-2.0623779296875,0.015869140625,16:46:24.062374
1.608892,-0.40771484375,0.0079345703125,-2.060546875,0.0146484375,16:46:24.066349
1.612908,-0.406494140625,0.0079345703125,-2.061767578125,0.0140380859375,16:46:24.070170
1.6169200000000004,-0.4071044921875,0.0048828125,-2.061767578125,0.0128173828125,16:46:24.074499
1.6209119999999997,-0.40771484375,0.006103515625,-2.060546875,0.0164794921875,16:46:24.078575
1.6249320000000003,-0.406494140625,0.0054931640625,-2.060546875,0.015869140625,16:46:24.082721
1.6289040000000004,-0.406494140625,0.0042724609375,-2.0623779296875,0.015869140625,16:46:24.086507
1.632892,-0.4071044921875,0.003662109375,-2.0599365234375,0.0146484375,16:46:24.090644
1.6368799999999997,-0.4058837890625,0.0054931640625,-2.0599365234375,0.0140380859375,16:46:24.094885
1.6408680000000002,-0.4071044921875,0.0048828125,-2.059326171875,0.0140380859375,16:46:24.098803
1.6448520000000002,-0.406494140625,0.0030517578125,-2.060546875,0.01708984375,16:46:24.103091
1.6488360000000002,-0.4052734375,0.0030517578125,-2.0611572265625,0.0164794921875,16:46:24.107186
1.6528200000000002,-0.4071044921875,0.00244140625,-2.059326171875,0.0177001953125,16:46:24.111193
1.6568120000000004,-0.4058837890625,0.003662109375,-2.060546875,0.0164794921875,16:46:24.115113
1.6607960000000004,-0.406494140625,0.0042724609375,-2.0611572265625,0.0177001953125,16:46:24.119546
1.6647879999999997,-0.4071044921875,0.0054931640625,-2.060546875,0.0146484375,16:46:24.123613
1.6687719999999997,-0.406494140625,0.0030517578125,-2.0611572265625,0.015869140625,16:46:24.127793
1.672752,-0.4071044921875,0.003662109375,-2.0611572265625,0.015869140625,16:46:24.131592
1.6767399999999997,-0.4058837890625,0.003662109375,-2.061767578125,0.0164794921875,16:46:24.135977
1.6807239999999997,-0.4046630859375,0.003662109375,-2.061767578125,0.0146484375,16:46:24.139910
1.6847079999999997,-0.4058837890625,0.0042724609375,-2.0611572265625,0.01708984375,16:46:24.144191
1.6886960000000002,-0.406494140625,0.0042724609375,-2.0599365234375,0.0152587890625,16:46:24.148184
1.6926839999999999,-0.4052734375,0.0048828125,-2.0611572265625,0.01708984375,16:46:24.151502
1.6966640000000002,-0.4052734375,0.003662109375,-2.060546875,0.0177001953125,16:46:24.156517
1.7006560000000004,-0.4058837890625,0.0042724609375,-2.059326171875,0.0152587890625,16:46:24.160413
1.7046320000000001,-0.4052734375,0.0042724609375,-2.060546875,0.0152587890625,16:46:24.164660
1.7086160000000001,-0.4052734375,0.0030517578125,-2.0587158203125,0.0146484375,16:46:24.168756
1.7126039999999998,-0.4052734375,0.0030517578125,-2.0611572265625,0.0140380859375,16:46:24.172679
1.7165879999999998,-0.4052734375,0.0042724609375,-2.0611572265625,0.013427734375,16:46:24.176892
1.720568,-0.4046630859375,0.00244140625,-2.060546875,0.0152587890625,16:46:24.180613
1.724564,-0.4052734375,0.003662109375,-2.0599365234375,0.0152587890625,16:46:24.185171
1.7285519999999996,-0.4052734375,0.0048828125,-2.0611572265625,0.015869140625,16:46:24.189104
1.732532,-0.404052734375,0.006103515625,-2.0599365234375,0.015869140625,16:46:24.192489
1.7365399999999998,-0.4046630859375,0.006103515625,-2.059326171875,0.015869140625,16:46:24.193490
1.7405400000000002,-0.4034423828125,0.0067138671875,-2.0587158203125,0.0152587890625,16:46:24.197444
1.744548,-0.4034423828125,0.006103515625,-2.059326171875,0.0146484375,16:46:24.200768
1.748552,-0.4046630859375,0.0042724609375,-2.0599365234375,0.0146484375,16:46:24.205646
1.7525399999999998,-0.4034423828125,0.0048828125,-2.0587158203125,0.0146484375,16:46:24.209551
1.7565239999999998,-0.4034423828125,0.003662109375,-2.05810546875,0.0146484375,16:46:24.213791
1.7605079999999997,-0.40283203125,0.00244140625,-2.059326171875,0.0140380859375,16:46:24.217899
1.7645,-0.4034423828125,0.00244140625,-2.0587158203125,0.0146484375,16:46:24.221963
1.7684800000000003,-0.4034423828125,0.003662109375,-2.0587158203125,0.0146484375,16:46:24.226100
1.7724640000000003,-0.404052734375,0.0042724609375,-2.05810546875,0.01708984375,16:46:24.229940
1.7764600000000002,-0.4034423828125,0.003662109375,-2.059326171875,0.0177001953125,16:46:24.234266
1.780436,-0.4034423828125,0.003662109375,-2.059326171875,0.0177001953125,16:46:24.238562
1.7844280000000001,-0.4034423828125,0.0030517578125,-2.0587158203125,0.01708984375,16:46:24.242123
1.7884159999999998,-0.4022216796875,0.00244140625,-2.05810546875,0.0152587890625,16:46:24.246345
1.792408,-0.40283203125,0.003662109375,-2.060546875,0.015869140625,16:46:24.250431
1.796392,-0.401611328125,0.0048828125,-2.05810546875,0.015869140625,16:46:24.254428
1.8003840000000002,-0.401611328125,0.0042724609375,-2.05810546875,0.0146484375,16:46:24.258780
1.8043719999999999,-0.4022216796875,0.0048828125,-2.056884765625,0.015869140625,16:46:24.262710
1.8083679999999998,-0.4022216796875,0.003662109375,-2.0562744140625,0.0177001953125,16:46:24.267020
1.812348,-0.4010009765625,0.0048828125,-2.056884765625,0.015869140625,16:46:24.270756
1.8163400000000003,-0.4010009765625,0.0042724609375,-2.05810546875,0.0164794921875,16:46:24.275191
1.820328,-0.4010009765625,0.001220703125,-2.056884765625,0.015869140625,16:46:24.279233
1.8243239999999998,-0.4010009765625,0.0018310546875,-2.05810546875,0.01708984375,16:46:24.283381
1.8283120000000004,-0.4010009765625,0.00244140625,-2.056884765625,0.0152587890625,16:46:24.287416
1.8322960000000004,-0.400390625,0.0030517578125,-2.05810546875,0.0140380859375,16:46:24.291385
1.8362800000000004,-0.3997802734375,0.0048828125,-2.056884765625,0.0128173828125,16:46:24.295655
1.8402599999999998,-0.4010009765625,0.0048828125,-2.0562744140625,0.0146484375,16:46:24.299541
1.8442480000000003,-0.400390625,0.0042724609375,-2.0587158203125,0.0146484375,16:46:24.303568
1.8482320000000003,-0.4010009765625,0.0042724609375,-2.0574951171875,0.015869140625,16:46:24.307847
1.85222,-0.4010009765625,0.0054931640625,-2.0556640625,0.0164794921875,16:46:24.311576
1.8562159999999999,-0.3997802734375,0.0067138671875,-2.056884765625,0.015869140625,16:46:24.315545
1.8602239999999997,-0.3997802734375,0.00244140625,-2.05810546875,0.015869140625,16:46:24.319958
1.8642079999999996,-0.3997802734375,0.0018310546875,-2.0574951171875,0.0164794921875,16:46:24.324344
1.8681999999999999,-0.3997802734375,0.0054931640625,-2.0556640625,0.0164794921875,16:46:24.328416
1.8721880000000004,-0.3997802734375,0.003662109375,-2.0556640625,0.01708984375,16:46:24.332427
1.876176,-0.3997802734375,0.006103515625,-2.0550537109375,0.0177001953125,16:46:24.336550
1.880192,-0.3985595703125,0.0067138671875,-2.056884765625,0.018310546875,16:46:24.340473
1.8842119999999998,-0.4010009765625,0.0048828125,-2.0556640625,0.01708984375,16:46:24.344793
1.8882000000000003,-0.399169921875,0.00244140625,-2.0550537109375,0.01953125,16:46:24.348695
1.892188,-0.3985595703125,0.0018310546875,-2.0562744140625,0.01953125,16:46:24.352795
1.896172,-0.3985595703125,0.00244140625,-2.0556640625,0.018310546875,16:46:24.357127
1.9001599999999996,-0.39794921875,0.003662109375,-2.0562744140625,0.0177001953125,16:46:24.357127
1.9041440000000005,-0.3997802734375,0.003662109375,-2.054443359375,0.0177001953125,16:46:24.361009
1.9081400000000004,-0.3985595703125,0.003662109375,-2.054443359375,0.015869140625,16:46:24.364854
1.912128,-0.39794921875,0.0054931640625,-2.0556640625,0.0164794921875,16:46:24.369157
1.9161159999999997,-0.39794921875,0.003662109375,-2.0562744140625,0.0177001953125,16:46:24.373743
1.920108,-0.39794921875,0.003662109375,-2.05322265625,0.01708984375,16:46:24.376739
1.9240960000000005,-0.39794921875,0.0030517578125,-2.054443359375,0.015869140625,16:46:24.380877
1.9280840000000001,-0.3973388671875,0.00244140625,-2.0556640625,0.015869140625,16:46:24.385826
1.9320680000000001,-0.3985595703125,0.0030517578125,-2.0550537109375,0.015869140625,16:46:24.389795
1.936052,-0.3973388671875,0.0030517578125,-2.05322265625,0.0177001953125,16:46:24.393682
1.9400440000000003,-0.3973388671875,0.0030517578125,-2.0538330078125,0.018310546875,16:46:24.398079
1.9440280000000003,-0.39794921875,0.0054931640625,-2.054443359375,0.0189208984375,16:46:24.401907
1.948016,-0.3973388671875,0.0054931640625,-2.0556640625,0.0177001953125,16:46:24.406252
1.952,-0.39794921875,0.0054931640625,-2.0550537109375,0.0152587890625,16:46:24.410286
1.9559880000000005,-0.396728515625,0.0067138671875,-2.0538330078125,0.0152587890625,16:46:24.414152
1.9600039999999996,-0.3973388671875,0.006103515625,-2.0550537109375,0.0146484375,16:46:24.418591
1.9640199999999997,-0.3973388671875,0.0042724609375,-2.0550537109375,0.0152587890625,16:46:24.422581
1.9680039999999996,-0.3961181640625,0.003662109375,-2.0538330078125,0.015869140625,16:46:24.426769
1.9719959999999999,-0.3973388671875,0.00244140625,-2.054443359375,0.015869140625,16:46:24.430366
1.9759840000000004,-0.3973388671875,0.00244140625,-2.0550537109375,0.0164794921875,16:46:24.435051
1.979972,-0.3973388671875,0.00244140625,-2.0550537109375,0.015869140625,16:46:24.439009
1.9839599999999997,-0.3973388671875,0.0018310546875,-2.0550537109375,0.0140380859375,16:46:24.443145
1.98794,-0.3973388671875,0.0018310546875,-2.0538330078125,0.0146484375,16:46:24.447223
1.991924,-0.3973388671875,0.0030517578125,-2.054443359375,0.0146484375,16:46:24.451163
1.995908,-0.3973388671875,0.0048828125,-2.0550537109375,0.0146484375,16:46:24.455168
1.9998959999999997,-0.396728515625,0.0054931640625,-2.054443359375,0.015869140625,16:46:24.459227
2.0038799999999997,-0.3973388671875,0.003662109375,-2.0538330078125,0.0164794921875,16:46:24.463318
2.007868,-0.39794921875,0.003662109375,-2.0550537109375,0.0164794921875,16:46:24.467708
2.0118600000000004,-0.3973388671875,0.003662109375,-2.0550537109375,0.0177001953125,16:46:24.471420
2.0158519999999998,-0.3973388671875,0.0048828125,-2.0550537109375,0.0164794921875,16:46:24.475909
2.0198400000000003,-0.396728515625,0.0042724609375,-2.05322265625,0.0164794921875,16:46:24.479944
2.0238319999999996,-0.396728515625,0.0054931640625,-2.0550537109375,0.0177001953125,16:46:24.484040
2.02782,-0.3973388671875,0.0054931640625,-2.0538330078125,0.0189208984375,16:46:24.487535
2.0318120000000004,-0.3973388671875,0.0067138671875,-2.0562744140625,0.01708984375,16:46:24.492024
2.0358280000000004,-0.39794921875,0.006103515625,-2.0550537109375,0.01708984375,16:46:24.496459
2.0398440000000004,-0.3973388671875,0.00732421875,-2.054443359375,0.0189208984375,16:46:24.500423
2.0438479999999997,-0.396728515625,0.003662109375,-2.0550537109375,0.0177001953125,16:46:24.504590
2.04784,-0.396728515625,0.0048828125,-2.0562744140625,0.018310546875,16:46:24.508634
2.051832,-0.3961181640625,0.0048828125,-2.05322265625,0.0164794921875,16:46:24.512836
2.0558199999999998,-0.3961181640625,0.0054931640625,-2.0538330078125,0.015869140625,16:46:24.516854
2.0598039999999997,-0.3961181640625,0.0067138671875,-2.0556640625,0.015869140625,16:46:24.520371
2.063828,-0.396728515625,0.006103515625,-2.054443359375,0.0164794921875,16:46:24.525049
2.0678479999999997,-0.3973388671875,0.0048828125,-2.0538330078125,0.015869140625,16:46:24.529150
2.0718319999999997,-0.3961181640625,0.0048828125,-2.05322265625,0.0164794921875,16:46:24.529150
2.075824,-0.3955078125,0.006103515625,-2.0526123046875,0.015869140625,16:46:24.532855
2.07984,-0.3961181640625,0.0054931640625,-2.0556640625,0.0146484375,16:46:24.537262
2.0838280000000005,-0.396728515625,0.0042724609375,-2.05322265625,0.0146484375,16:46:24.540834
2.0878120000000004,-0.396728515625,0.0048828125,-2.05322265625,0.0140380859375,16:46:24.545501
2.0918039999999998,-0.396728515625,0.003662109375,-2.0538330078125,0.0140380859375,16:46:24.549492
2.0957920000000003,-0.3961181640625,0.0054931640625,-2.0526123046875,0.0146484375,16:46:24.553721
2.09978,-0.3973388671875,0.0048828125,-2.054443359375,0.0140380859375,16:46:24.557861
2.103772,-0.396728515625,0.0042724609375,-2.05322265625,0.0152587890625,16:46:24.561557
2.107756,-0.3961181640625,0.006103515625,-2.0526123046875,0.0164794921875,16:46:24.566009
2.111772,-0.3955078125,0.0030517578125,-2.054443359375,0.0146484375,16:46:24.570070
2.11576,-0.3973388671875,0.0054931640625,-2.0538330078125,0.0164794921875,16:46:24.574138
2.11974,-0.39794921875,0.0054931640625,-2.0538330078125,0.0146484375,16:46:24.578202
2.123736,-0.3961181640625,0.0054931640625,-2.054443359375,0.0152587890625,16:46:24.582224
2.1277239999999997,-0.3973388671875,0.0054931640625,-2.054443359375,0.01708984375,16:46:24.586531
2.131704,-0.39794921875,0.0054931640625,-2.0538330078125,0.01708984375,16:46:24.590540
2.1356919999999997,-0.3961181640625,0.006103515625,-2.05322265625,0.0140380859375,16:46:24.594536
2.139696,-0.3961181640625,0.006103515625,-2.05322265625,0.015869140625,16:46:24.598780
2.143712,-0.39794921875,0.00732421875,-2.0538330078125,0.0164794921875,16:46:24.602858
2.147736,-0.3961181640625,0.0048828125,-2.0538330078125,0.0164794921875,16:46:24.606976
2.1517239999999997,-0.3961181640625,0.003662109375,-2.05322265625,0.015869140625,16:46:24.610257
2.1557120000000003,-0.3973388671875,0.0030517578125,-2.0538330078125,0.015869140625,16:46:24.615207
2.1596960000000003,-0.396728515625,0.0048828125,-2.0538330078125,0.0164794921875,16:46:24.618972
2.163692,-0.3973388671875,0.0048828125,-2.0550537109375,0.0164794921875,16:46:24.623515
2.167676,-0.39794921875,0.006103515625,-2.052001953125,0.018310546875,16:46:24.626512
2.171692,-0.3973388671875,0.0042724609375,-2.054443359375,0.0152587890625,16:46:24.631178
2.1756840000000004,-0.39794921875,0.0048828125,-2.05322265625,0.01708984375,16:46:24.635520
2.179672,-0.3955078125,0.003662109375,-2.0550537109375,0.015869140625,16:46:24.639663
2.183656,-0.39794921875,0.0042724609375,-2.0526123046875,0.0164794921875,16:46:24.643654
2.18764,-0.3961181640625,0.0048828125,-2.05322265625,0.0146484375,16:46:24.648020
2.191624,-0.396728515625,0.0042724609375,-2.054443359375,0.015869140625,16:46:24.651946
2.1956160000000002,-0.396728515625,0.006103515625,-2.054443359375,0.0189208984375,16:46:24.656036
2.1996320000000003,-0.3973388671875,0.0048828125,-2.0538330078125,0.0177001953125,16:46:24.660018
2.2036240000000005,-0.396728515625,0.003662109375,-2.0550537109375,0.01708984375,16:46:24.664190
2.207612,-0.3961181640625,0.00244140625,-2.054443359375,0.0152587890625,16:46:24.668318
2.2116040000000003,-0.3961181640625,0.0030517578125,-2.0538330078125,0.0146484375,16:46:24.672297
2.215592,-0.396728515625,0.0042724609375,-2.0538330078125,0.018310546875,16:46:24.676477
2.2195840000000002,-0.396728515625,0.006103515625,-2.05322265625,0.018310546875,16:46:24.680535
2.22358,-0.396728515625,0.0067138671875,-2.05322265625,0.0177001953125,16:46:24.684739
2.2276,-0.3973388671875,0.00732421875,-2.0538330078125,0.0177001953125,16:46:24.688764
2.231616,-0.396728515625,0.0067138671875,-2.054443359375,0.0164794921875,16:46:24.692929
2.2356439999999997,-0.396728515625,0.006103515625,-2.05322265625,0.0152587890625,16:46:24.697022
2.2396640000000003,-0.396728515625,0.0067138671875,-2.052001953125,0.0140380859375,16:46:24.700239
2.243664,-0.396728515625,0.0054931640625,-2.0538330078125,0.0146484375,16:46:24.704264
2.247656,-0.396728515625,0.0067138671875,-2.0526123046875,0.0140380859375,16:46:24.709240
2.2516559999999997,-0.3973388671875,0.0054931640625,-2.0538330078125,0.0152587890625,16:46:24.709240
2.255648,-0.396728515625,0.0079345703125,-2.05322265625,0.0146484375,16:46:24.713396
2.259652,-0.396728515625,0.006103515625,-2.0550537109375,0.015869140625,16:46:24.717493
2.26366,-0.39794921875,0.0042724609375,-2.0526123046875,0.015869140625,16:46:24.721139
2.2676439999999998,-0.396728515625,0.003662109375,-2.0538330078125,0.0152587890625,16:46:24.725371
2.271636,-0.396728515625,0.0030517578125,-2.05322265625,0.0146484375,16:46:24.729712
2.2756239999999996,-0.396728515625,0.0030517578125,-2.054443359375,0.013427734375,16:46:24.734485
2.279616,-0.3973388671875,0.0030517578125,-2.05322265625,0.0140380859375,16:46:24.737512
2.2836040000000004,-0.396728515625,0.003662109375,-2.0526123046875,0.0140380859375,16:46:24.741693
2.287592,-0.3961181640625,0.0042724609375,-2.052001953125,0.0152587890625,16:46:24.746187
2.291576,-0.3961181640625,0.0030517578125,-2.0526123046875,0.015869140625,16:46:24.749995
2.2955680000000003,-0.3973388671875,0.003662109375,-2.05322265625,0.0152587890625,16:46:24.754429
2.299556,-0.3973388671875,0.0048828125,-2.0538330078125,0.018310546875,16:46:24.758391
2.30354,-0.3955078125,0.00244140625,-2.0526123046875,0.018310546875,16:46:24.762527
2.307536,-0.3961181640625,0.0048828125,-2.0538330078125,0.01708984375,16:46:24.766273
2.311516,-0.39794921875,0.0054931640625,-2.05322265625,0.0164794921875,16:46:24.770388
2.3155,-0.396728515625,0.0054931640625,-2.0538330078125,0.015869140625,16:46:24.774572
2.319484,-0.3955078125,0.0042724609375,-2.0526123046875,0.0164794921875,16:46:24.778111
2.3234719999999998,-0.3973388671875,0.003662109375,-2.05322265625,0.015869140625,16:46:24.783163
2.3274600000000003,-0.3973388671875,0.0048828125,-2.05322265625,0.015869140625,16:46:24.787082
2.331448,-0.3961181640625,0.0054931640625,-2.0556640625,0.0177001953125,16:46:24.791108
2.3354359999999996,-0.3955078125,0.0048828125,-2.0550537109375,0.01708984375,16:46:24.795605
2.3394199999999996,-0.3961181640625,0.003662109375,-2.052001953125,0.01708984375,16:46:24.799344
2.343408,-0.3961181640625,0.0042724609375,-2.05322265625,0.0164794921875,16:46:24.803494
2.3474000000000004,-0.3955078125,0.0042724609375,-2.0538330078125,0.0152587890625,16:46:24.807599
2.351388,-0.3948974609375,0.0042724609375,-2.0538330078125,0.0152587890625,16:46:24.811530
2.3553759999999997,-0.3955078125,0.0054931640625,-2.0526123046875,0.0152587890625,16:46:24.815802
2.3593599999999997,-0.3961181640625,0.0054931640625,-2.0538330078125,0.0140380859375,16:46:24.819340
2.363352,-0.3961181640625,0.0042724609375,-2.052001953125,0.0140380859375,16:46:24.823935
2.367344,-0.3948974609375,0.003662109375,-2.05322265625,0.013427734375,16:46:24.827929
2.3713240000000004,-0.3948974609375,0.006103515625,-2.0526123046875,0.0140380859375,16:46:24.832124
2.375332,-0.3961181640625,0.0042724609375,-2.05322265625,0.0140380859375,16:46:24.836280
2.379316,-0.3961181640625,0.003662109375,-2.052001953125,0.0140380859375,16:46:24.840142
2.383304,-0.396728515625,0.003662109375,-2.0538330078125,0.0152587890625,16:46:24.844137
2.387288,-0.394287109375,0.0042724609375,-2.052001953125,0.0128173828125,16:46:24.848127
2.391272,-0.3948974609375,0.0030517578125,-2.0526123046875,0.013427734375,16:46:24.852348
2.395252,-0.3955078125,0.0042724609375,-2.052001953125,0.0146484375,16:46:24.856697
2.39924,-0.3955078125,0.003662109375,-2.05322265625,0.0164794921875,16:46:24.860400
2.403224,-0.3961181640625,0.0048828125,-2.0526123046875,0.0152587890625,16:46:24.864936
2.4072120000000004,-0.3948974609375,0.0054931640625,-2.05322265625,0.0177001953125,16:46:24.868981
2.4112080000000002,-0.3948974609375,0.006103515625,-2.05322265625,0.0164794921875,16:46:24.873082
2.4152120000000004,-0.3955078125,0.0067138671875,-2.05322265625,0.01708984375,16:46:24.873082
2.4192280000000004,-0.394287109375,0.0054931640625,-2.052001953125,0.0177001953125,16:46:24.877150
2.423216,-0.3955078125,0.0042724609375,-2.05322265625,0.013427734375,16:46:24.881085
2.4272,-0.3948974609375,0.0054931640625,-2.05322265625,0.015869140625,16:46:24.885400
2.4311920000000002,-0.3955078125,0.006103515625,-2.0538330078125,0.0146484375,16:46:24.889393
2.4352080000000003,-0.394287109375,0.0048828125,-2.052001953125,0.0152587890625,16:46:24.893288
2.439196,-0.394287109375,0.0042724609375,-2.0526123046875,0.0164794921875,16:46:24.897589
2.4431840000000005,-0.3955078125,0.0048828125,-2.052001953125,0.0152587890625,16:46:24.901562
2.4471800000000004,-0.3955078125,0.0054931640625,-2.05322265625,0.0146484375,16:46:24.905837
2.45116,-0.3948974609375,0.0048828125,-2.0526123046875,0.0146484375,16:46:24.909905
2.4551600000000002,-0.3948974609375,0.0042724609375,-2.05322265625,0.0140380859375,16:46:24.914076
2.4591520000000004,-0.3955078125,0.003662109375,-2.05322265625,0.0164794921875,16:46:24.918060
2.46314,-0.3948974609375,0.003662109375,-2.0526123046875,0.015869140625,16:46:24.921984
2.4671279999999998,-0.394287109375,0.0042724609375,-2.05078125,0.0164794921875,16:46:24.925973
2.4711160000000003,-0.3955078125,0.0030517578125,-2.0526123046875,0.015869140625,16:46:24.929961
2.475104,-0.3961181640625,0.0030517578125,-2.05322265625,0.0146484375,16:46:24.934476
2.4790919999999996,-0.3961181640625,0.0048828125,-2.05322265625,0.015869140625,16:46:24.938326
2.48308,-0.3955078125,0.0042724609375,-2.05322265625,0.01708984375,16:46:24.942752
2.4870720000000004,-0.3955078125,0.0030517578125,-2.0513916015625,0.015869140625,16:46:24.946733
2.4910560000000004,-0.3948974609375,0.0054931640625,-2.0526123046875,0.0140380859375,16:46:24.950202
2.4950479999999997,-0.3961181640625,0.0054931640625,-2.0538330078125,0.0146484375,16:46:24.954729
2.4990360000000003,-0.3961181640625,0.0067138671875,-2.05322265625,0.0152587890625,16:46:24.959177
2.503056,-0.3961181640625,0.0067138671875,-2.05322265625,0.013427734375,16:46:24.963222
2.507072,-0.3936767578125,0.0048828125,-2.0526123046875,0.0152587890625,16:46:24.967232
2.5110599999999996,-0.3955078125,0.0054931640625,-2.0526123046875,0.0140380859375,16:46:24.971202
2.5150439999999996,-0.394287109375,0.006103515625,-2.05322265625,0.0140380859375,16:46:24.976188
2.5190599999999996,-0.3955078125,0.00244140625,-2.0501708984375,0.0146484375,16:46:24.979179
2.523048,-0.3948974609375,0.0030517578125,-2.0526123046875,0.013427734375,16:46:24.983168
2.527036,-0.394287109375,0.00244140625,-2.05322265625,0.013427734375,16:46:24.986928
2.53102,-0.3948974609375,0.0042724609375,-2.0526123046875,0.015869140625,16:46:24.990916
2.535012,-0.394287109375,0.0054931640625,-2.0526123046875,0.0152587890625,16:46:24.995638
2.5389999999999997,-0.3948974609375,0.006103515625,-2.0526123046875,0.015869140625,16:46:24.999738
2.543024,-0.3955078125,0.003662109375,-2.052001953125,0.0146484375,16:46:25.003836
2.5470119999999996,-0.394287109375,0.0048828125,-2.05322265625,0.0140380859375,16:46:25.007937
2.551004,-0.3955078125,0.0048828125,-2.05322265625,0.0146484375,16:46:25.012268
2.554988,-0.3955078125,0.0042724609375,-2.05322265625,0.0146484375,16:46:25.016465
2.5589760000000004,-0.394287109375,0.0054931640625,-2.05322265625,0.0164794921875,16:46:25.020706
2.5629600000000003,-0.3948974609375,0.006103515625,-2.0538330078125,0.0140380859375,16:46:25.024699
2.56696,-0.3948974609375,0.0042724609375,-2.0526123046875,0.013427734375,16:46:25.028488
2.570952,-0.3961181640625,0.0042724609375,-2.0513916015625,0.015869140625,16:46:25.032940
2.574936,-0.3955078125,0.0048828125,-2.0526123046875,0.0140380859375,16:46:25.036974
2.57892,-0.3955078125,0.0018310546875,-2.0538330078125,0.0152587890625,16:46:25.040750
2.5829079999999998,-0.3948974609375,0.00244140625,-2.05322265625,0.015869140625,16:46:25.040750
2.5868919999999997,-0.394287109375,0.0042724609375,-2.0538330078125,0.0164794921875,16:46:25.044657
2.5908800000000003,-0.3955078125,0.003662109375,-2.052001953125,0.015869140625,16:46:25.049210
2.5948640000000003,-0.3955078125,0.0018310546875,-2.0538330078125,0.015869140625,16:46:25.053307
2.598852,-0.396728515625,0.0048828125,-2.052001953125,0.0146484375,16:46:25.057424
2.602848,-0.3955078125,0.003662109375,-2.05322265625,0.0152587890625,16:46:25.061249
2.60684,-0.3955078125,0.0030517578125,-2.0526123046875,0.0164794921875,16:46:25.065543
2.6108320000000003,-0.3948974609375,0.0048828125,-2.0513916015625,0.0177001953125,16:46:25.069587
2.6148119999999997,-0.3955078125,0.0030517578125,-2.0526123046875,0.0164794921875,16:46:25.073713
2.618804,-0.3948974609375,0.0042724609375,-2.0526123046875,0.0152587890625,16:46:25.077906
2.622788,-0.3948974609375,0.003662109375,-2.05322265625,0.0177001953125,16:46:25.081992
2.62678,-0.3961181640625,0.0054931640625,-2.0538330078125,0.01708984375,16:46:25.086137
2.630764,-0.3955078125,0.003662109375,-2.0538330078125,0.0146484375,16:46:25.089908
2.6347519999999998,-0.3948974609375,0.0042724609375,-2.0513916015625,0.0164794921875,16:46:25.093924
2.6387400000000003,-0.3955078125,0.003662109375,-2.0526123046875,0.01708984375,16:46:25.098365
2.642728,-0.394287109375,0.0030517578125,-2.0526123046875,0.015869140625,16:46:25.102462
2.6467080000000003,-0.3955078125,0.0067138671875,-2.0538330078125,0.0152587890625,16:46:25.106094
2.6507120000000004,-0.394287109375,0.0042724609375,-2.0526123046875,0.0152587890625,16:46:25.110065
2.6547,-0.394287109375,0.0042724609375,-2.052001953125,0.01708984375,16:46:25.114741
2.6586920000000003,-0.394287109375,0.0030517578125,-2.05322265625,0.0128173828125,16:46:25.118837
2.66268,-0.3955078125,0.0018310546875,-2.05322265625,0.015869140625,16:46:25.122903
2.666672,-0.3961181640625,0.0018310546875,-2.05322265625,0.0152587890625,16:46:25.127066
2.670656,-0.3948974609375,0.00244140625,-2.0526123046875,0.0140380859375,16:46:25.130815
2.6746480000000004,-0.3955078125,0.0018310546875,-2.0526123046875,0.0152587890625,16:46:25.135455
2.6786399999999997,-0.3948974609375,0.00244140625,-2.0538330078125,0.0128173828125,16:46:25.139063
2.6826160000000003,-0.3961181640625,0.001220703125,-2.0513916015625,0.013427734375,16:46:25.143521
2.686616,-0.3948974609375,0.00244140625,-2.052001953125,0.0140380859375,16:46:25.147118
2.6905919999999997,-0.3955078125,0.0054931640625,-2.0526123046875,0.0164794921875,16:46:25.151676
2.6945880000000004,-0.3948974609375,0.006103515625,-2.05322265625,0.0177001953125,16:46:25.155723
2.6986040000000004,-0.3955078125,0.0042724609375,-2.0526123046875,0.0177001953125,16:46:25.159304
2.7025880000000004,-0.3955078125,0.0067138671875,-2.0513916015625,0.0164794921875,16:46:25.163993
2.706608,-0.394287109375,0.0067138671875,-2.0526123046875,0.0152587890625,16:46:25.166988
2.710624,-0.3955078125,0.0048828125,-2.05322265625,0.0164794921875,16:46:25.172243
2.714612,-0.3961181640625,0.0042724609375,-2.05322265625,0.0152587890625,16:46:25.176177
2.718584,-0.3955078125,0.0042724609375,-2.0526123046875,0.0146484375,16:46:25.179846
2.72258,-0.3948974609375,0.0042724609375,-2.05322265625,0.0152587890625,16:46:25.184359
2.7265680000000003,-0.3961181640625,0.0030517578125,-2.0538330078125,0.015869140625,16:46:25.188376
2.730544,-0.3961181640625,0.0054931640625,-2.05322265625,0.0146484375,16:46:25.192627
2.73454,-0.3955078125,0.0030517578125,-2.0538330078125,0.0152587890625,16:46:25.196630
2.7385200000000003,-0.3961181640625,0.003662109375,-2.0526123046875,0.0152587890625,16:46:25.200193
2.7425119999999996,-0.3955078125,0.0042724609375,-2.05322265625,0.015869140625,16:46:25.204908
2.746492,-0.3948974609375,0.003662109375,-2.0526123046875,0.0164794921875,16:46:25.204908
2.7504799999999996,-0.3955078125,0.0054931640625,-2.052001953125,0.01708984375,16:46:25.208761
2.754468,-0.3955078125,0.0048828125,-2.05078125,0.0177001953125,16:46:25.212600
2.758456,-0.3955078125,0.0048828125,-2.05322265625,0.018310546875,16:46:25.217081
2.7624440000000003,-0.3955078125,0.0030517578125,-2.0526123046875,0.01708984375,16:46:25.221289
2.766432,-0.394287109375,0.00244140625,-2.0526123046875,0.0164794921875,16:46:25.225323
2.770416,-0.3955078125,0.003662109375,-2.0526123046875,0.0164794921875,16:46:25.229019
2.774408,-0.3955078125,0.003662109375,-2.0526123046875,0.015869140625,16:46:25.233519
2.778396,-0.3948974609375,0.003662109375,-2.05322265625,0.0152587890625,16:46:25.237620
2.782388,-0.394287109375,0.0030517578125,-2.052001953125,0.015869140625,16:46:25.241715
2.7863800000000003,-0.3955078125,0.0030517578125,-2.05322265625,0.015869140625,16:46:25.245736
2.790368,-0.3961181640625,0.003662109375,-2.0526123046875,0.0152587890625,16:46:25.249573
2.7943559999999996,-0.3955078125,0.0030517578125,-2.0538330078125,0.0177001953125,16:46:25.254046
2.7983520000000004,-0.3936767578125,0.00244140625,-2.052001953125,0.0164794921875,16:46:25.258027
2.8023360000000004,-0.3948974609375,0.0018310546875,-2.05322265625,0.0152587890625,16:46:25.262089
2.806324,-0.3948974609375,0.00244140625,-2.0513916015625,0.0177001953125,16:46:25.266293
2.8103160000000003,-0.3948974609375,0.00244140625,-2.05322265625,0.01953125,16:46:25.269686
2.814304,-0.3948974609375,0.001220703125,-2.0538330078125,0.0152587890625,16:46:25.274569
2.818288,-0.394287109375,0.0018310546875,-2.05322265625,0.01708984375,16:46:25.278265
2.8222760000000005,-0.3948974609375,0.00244140625,-2.052001953125,0.01708984375,16:46:25.282406
2.826264,-0.3955078125,0.003662109375,-2.05322265625,0.0146484375,16:46:25.286712
2.8302519999999998,-0.3955078125,0.0030517578125,-2.052001953125,0.015869140625,16:46:25.290767
2.8342400000000003,-0.3955078125,0.0042724609375,-2.05322265625,0.0146484375,16:46:25.294848
2.838216,-0.3948974609375,0.003662109375,-2.0526123046875,0.0146484375,16:46:25.298391
2.8422080000000003,-0.3955078125,0.0030517578125,-2.05322265625,0.0140380859375,16:46:25.303126
2.846196,-0.3955078125,0.0048828125,-2.05322265625,0.0140380859375,16:46:25.306895
2.8501839999999996,-0.3948974609375,0.003662109375,-2.0526123046875,0.013427734375,16:46:25.311296
2.854172,-0.394287109375,0.006103515625,-2.0526123046875,0.0146484375,16:46:25.315400
2.858192,-0.3955078125,0.0048828125,-2.054443359375,0.0152587890625,16:46:25.319078
2.8621800000000004,-0.3955078125,0.0054931640625,-2.052001953125,0.0164794921875,16:46:25.323541
2.866168,-0.3961181640625,0.0054931640625,-2.0526123046875,0.0140380859375,16:46:25.327610
2.870152,-0.3955078125,0.0030517578125,-2.052001953125,0.0128173828125,16:46:25.331713
2.8741440000000003,-0.3955078125,0.0054931640625,-2.0526123046875,0.0128173828125,16:46:25.335509
2.878132,-0.3955078125,0.0048828125,-2.05322265625,0.0128173828125,16:46:25.339751
2.882116,-0.3955078125,0.0048828125,-2.0526123046875,0.013427734375,16:46:25.344082
2.886108,-0.3948974609375,0.0054931640625,-2.0526123046875,0.0140380859375,16:46:25.348056
2.890092,-0.3955078125,0.0054931640625,-2.0526123046875,0.0152587890625,16:46:25.351889
2.894076,-0.396728515625,0.003662109375,-2.05322265625,0.015869140625,16:46:25.355880
2.8980560000000004,-0.3961181640625,0.003662109375,-2.054443359375,0.0164794921875,16:46:25.359868
2.902044,-0.3955078125,0.0054931640625,-2.0526123046875,0.0177001953125,16:46:25.364640
2.9060319999999997,-0.3955078125,0.0054931640625,-2.0513916015625,0.0177001953125,16:46:25.368189
2.9100279999999996,-0.3948974609375,0.00732421875,-2.0550537109375,0.015869140625,16:46:25.372787
2.914028,-0.3955078125,0.003662109375,-2.0538330078125,0.0164794921875,16:46:25.373227
2.918024,-0.3955078125,0.003662109375,-2.052001953125,0.01708984375,16:46:25.376839
2.9220119999999996,-0.3955078125,0.0030517578125,-2.0526123046875,0.0146484375,16:46:25.380917
2.926004,-0.3948974609375,0.0030517578125,-2.05322265625,0.0164794921875,16:46:25.384705
2.929984,-0.3961181640625,0.00244140625,-2.0526123046875,0.0164794921875,16:46:25.388839
2.93398,-0.3955078125,0.0042724609375,-2.05322265625,0.0177001953125,16:46:25.392930
2.937964,-0.394287109375,0.0054931640625,-2.05322265625,0.0164794921875,16:46:25.397444
2.9419519999999997,-0.3955078125,0.0048828125,-2.054443359375,0.0164794921875,16:46:25.401441
2.9459400000000002,-0.3961181640625,0.0042724609375,-2.0526123046875,0.0140380859375,16:46:25.405487
2.9499320000000004,-0.3955078125,0.003662109375,-2.05322265625,0.0152587890625,16:46:25.409350
2.9539160000000004,-0.3955078125,0.0067138671875,-2.0513916015625,0.0140380859375,16:46:25.413383
2.9579199999999997,-0.3961181640625,0.003662109375,-2.0538330078125,0.0140380859375,16:46:25.417412
2.961908,-0.3955078125,0.0030517578125,-2.0538330078125,0.0140380859375,16:46:25.421706
2.965896,-0.3955078125,0.0067138671875,-2.054443359375,0.0152587890625,16:46:25.426068
2.969912,-0.394287109375,0.0042724609375,-2.05322265625,0.01708984375,16:46:25.429761
2.973904,-0.3955078125,0.0054931640625,-2.05322265625,0.01708984375,16:46:25.434160
2.9778919999999998,-0.3955078125,0.0048828125,-2.05322265625,0.0177001953125,16:46:25.437753
2.981884,-0.3955078125,0.0030517578125,-2.05322265625,0.015869140625,16:46:25.442307
2.9858599999999997,-0.3955078125,0.0018310546875,-2.0526123046875,0.0164794921875,16:46:25.446382
2.989852,-0.3948974609375,0.0042724609375,-2.05322265625,0.015869140625,16:46:25.450342
2.993844,-0.3948974609375,0.0030517578125,-2.05322265625,0.0177001953125,16:46:25.454718
2.9978360000000004,-0.3955078125,0.003662109375,-2.0538330078125,0.0152587890625,16:46:25.458750
3.001824,-0.3948974609375,0.0048828125,-2.0526123046875,0.0152587890625,16:46:25.462849
3.005808,-0.3961181640625,0.0018310546875,-2.05322265625,0.0164794921875,16:46:25.466975
3.009792,-0.3955078125,0.003662109375,-2.05322265625,0.015869140625,16:46:25.471076
3.0137799999999997,-0.3948974609375,0.00244140625,-2.05322265625,0.0146484375,16:46:25.474374
3.01776,-0.394287109375,0.0042724609375,-2.0526123046875,0.0164794921875,16:46:25.478970
3.021744,-0.3961181640625,0.0030517578125,-2.054443359375,0.013427734375,16:46:25.483379
3.025736,-0.396728515625,0.0030517578125,-2.05322265625,0.015869140625,16:46:25.486866
3.029724,-0.3961181640625,0.003662109375,-2.0526123046875,0.0152587890625,16:46:25.490588
3.0337240000000003,-0.3955078125,0.0054931640625,-2.05322265625,0.0152587890625,16:46:25.495632
3.037712,-0.3948974609375,0.0042724609375,-2.05322265625,0.0164794921875,16:46:25.499190
3.0416999999999996,-0.3955078125,0.00244140625,-2.0538330078125,0.0152587890625,16:46:25.503784
3.045688,-0.3955078125,0.0042724609375,-2.0526123046875,0.013427734375,16:46:25.507546
3.0496800000000004,-0.3948974609375,0.0042724609375,-2.0526123046875,0.0164794921875,16:46:25.511646
3.053668,-0.3948974609375,0.0042724609375,-2.052001953125,0.015869140625,16:46:25.515721
3.0576559999999997,-0.3961181640625,0.0042724609375,-2.05322265625,0.0146484375,16:46:25.519854
3.0616440000000003,-0.396728515625,0.0042724609375,-2.05322265625,0.015869140625,16:46:25.524275
3.06564,-0.394287109375,0.0030517578125,-2.05322265625,0.0152587890625,16:46:25.528368
3.0696199999999996,-0.3955078125,0.0030517578125,-2.052001953125,0.0146484375,16:46:25.532428
3.073608,-0.3955078125,0.0054931640625,-2.05322265625,0.013427734375,16:46:25.532428
3.0775959999999998,-0.3948974609375,0.0054931640625,-2.0526123046875,0.0152587890625,16:46:25.536293
3.0815799999999998,-0.3955078125,0.0042724609375,-2.05322265625,0.0152587890625,16:46:25.540486
3.0855639999999998,-0.3955078125,0.003662109375,-2.052001953125,0.0140380859375,16:46:25.544736
3.0895479999999997,-0.3948974609375,0.0042724609375,-2.05322265625,0.0164794921875,16:46:25.548539
3.0935360000000003,-0.394287109375,0.0030517578125,-2.0526123046875,0.0189208984375,16:46:25.552914
3.0975159999999997,-0.3955078125,0.0030517578125,-2.054443359375,0.0164794921875,16:46:25.557052
3.1015119999999996,-0.3948974609375,0.003662109375,-2.052001953125,0.0177001953125,16:46:25.561204
3.1054839999999997,-0.394287109375,0.00244140625,-2.05322265625,0.0177001953125,16:46:25.565155
3.1094799999999996,-0.3948974609375,0.003662109375,-2.05322265625,0.015869140625,16:46:25.569201
3.1134640000000005,-0.3955078125,0.0030517578125,-2.0526123046875,0.01708984375,16:46:25.573286
3.1174480000000004,-0.3955078125,0.0030517578125,-2.052001953125,0.01953125,16:46:25.577447
3.1214320000000004,-0.3955078125,0.003662109375,-2.0526123046875,0.01708984375,16:46:25.581631
3.1254239999999998,-0.3948974609375,0.0048828125,-2.052001953125,0.01708984375,16:46:25.585721
3.1294079999999997,-0.3948974609375,0.00244140625,-2.0526123046875,0.0164794921875,16:46:25.589807
3.1334,-0.3948974609375,0.0042724609375,-2.0513916015625,0.015869140625,16:46:25.593931
3.137392,-0.3948974609375,0.003662109375,-2.0526123046875,0.0152587890625,16:46:25.597394
3.141368,-0.3948974609375,0.0067138671875,-2.052001953125,0.0146484375,16:46:25.602085
3.1453800000000003,-0.3948974609375,0.0048828125,-2.05322265625,0.0146484375,16:46:25.606174
3.1493640000000003,-0.3948974609375,0.0048828125,-2.0526123046875,0.015869140625,16:46:25.610091
3.153352,-0.3948974609375,0.0042724609375,-2.0526123046875,0.0164794921875,16:46:25.614371
3.1573399999999996,-0.394287109375,0.0030517578125,-2.0526123046875,0.0164794921875,16:46:25.618450
3.1613239999999996,-0.3955078125,0.006103515625,-2.05322265625,0.015869140625,16:46:25.622491
3.165344,-0.3955078125,0.003662109375,-2.0526123046875,0.0164794921875,16:46:25.626588
3.169332,-0.3948974609375,0.0054931640625,-2.052001953125,0.0164794921875,16:46:25.630405
3.173316,-0.394287109375,0.0042724609375,-2.054443359375,0.0152587890625,16:46:25.634504
3.1773119999999997,-0.3961181640625,0.0054931640625,-2.0538330078125,0.0146484375,16:46:25.638598
3.181284,-0.3936767578125,0.006103515625,-2.05322265625,0.015869140625,16:46:25.643062
3.1852919999999996,-0.3948974609375,0.0042724609375,-2.052001953125,0.015869140625,16:46:25.646637
3.189284,-0.3955078125,0.003662109375,-2.054443359375,0.0128173828125,16:46:25.651364
3.1932720000000003,-0.3955078125,0.003662109375,-2.0526123046875,0.0140380859375,16:46:25.655372
3.1972560000000003,-0.3948974609375,0.003662109375,-2.0526123046875,0.0152587890625,16:46:25.658488
3.201244,-0.3948974609375,0.0030517578125,-2.05322265625,0.0177001953125,16:46:25.663586
3.2052240000000003,-0.3961181640625,0.0030517578125,-2.05322265625,0.0164794921875,16:46:25.667612
3.2092159999999996,-0.3961181640625,0.0030517578125,-2.05322265625,0.0164794921875,16:46:25.671717
3.213204,-0.3955078125,0.003662109375,-2.054443359375,0.0164794921875,16:46:25.675769
3.217192,-0.394287109375,0.003662109375,-2.052001953125,0.015869140625,16:46:25.679238
3.221176,-0.3961181640625,0.001220703125,-2.0526123046875,0.0164794921875,16:46:25.684055
3.22516,-0.396728515625,0.0018310546875,-2.052001953125,0.0164794921875,16:46:25.688016
3.2291480000000004,-0.394287109375,0.003662109375,-2.05322265625,0.015869140625,16:46:25.692162
3.233136,-0.3955078125,0.003662109375,-2.0526123046875,0.0152587890625,16:46:25.695497
3.2371239999999997,-0.394287109375,0.00244140625,-2.0526123046875,0.0164794921875,16:46:25.695497
3.2411200000000004,-0.3948974609375,0.003662109375,-2.05322265625,0.01708984375,16:46:25.700345
3.2451,-0.3955078125,0.0054931640625,-2.054443359375,0.018310546875,16:46:25.704420
3.249084,-0.3948974609375,0.006103515625,-2.052001953125,0.0146484375,16:46:25.708261
3.253088,-0.394287109375,0.0048828125,-2.052001953125,0.0140380859375,16:46:25.712496
3.2570680000000003,-0.3955078125,0.0048828125,-2.0538330078125,0.0152587890625,16:46:25.716709
3.261064,-0.396728515625,0.0042724609375,-2.0538330078125,0.0140380859375,16:46:25.720919
3.2650439999999996,-0.394287109375,0.006103515625,-2.0526123046875,0.0146484375,16:46:25.724877
3.269064,-0.3955078125,0.0067138671875,-2.0526123046875,0.0152587890625,16:46:25.728728
3.27308,-0.394287109375,0.00732421875,-2.0526123046875,0.015869140625,16:46:25.733141
3.2770960000000002,-0.3948974609375,0.0054931640625,-2.052001953125,0.01708984375,16:46:25.736848
3.281084,-0.3955078125,0.0048828125,-2.052001953125,0.0152587890625,16:46:25.741303
3.285068,-0.3955078125,0.0048828125,-2.0513916015625,0.0164794921875,16:46:25.745403
3.2890560000000004,-0.3936767578125,0.0042724609375,-2.052001953125,0.0152587890625,16:46:25.748815
3.293044,-0.394287109375,0.003662109375,-2.0526123046875,0.0152587890625,16:46:25.752828
3.29704,-0.3948974609375,0.0042724609375,-2.0526123046875,0.0140380859375,16:46:25.757390
3.3010279999999996,-0.3961181640625,0.006103515625,-2.05322265625,0.0152587890625,16:46:25.761752
3.305048,-0.3955078125,0.0054931640625,-2.052001953125,0.0146484375,16:46:25.765939
3.309032,-0.3955078125,0.003662109375,-2.0538330078125,0.013427734375,16:46:25.769639
3.313016,-0.3948974609375,0.0042724609375,-2.0526123046875,0.0152587890625,16:46:25.774093
3.317,-0.394287109375,0.006103515625,-2.052001953125,0.015869140625,16:46:25.777900
3.32102,-0.3948974609375,0.0054931640625,-2.05322265625,0.0146484375,16:46:25.782267
3.325004,-0.3955078125,0.006103515625,-2.0526123046875,0.0140380859375,16:46:25.786350
3.32902,-0.3948974609375,0.0048828125,-2.05322265625,0.015869140625,16:46:25.790382
3.333004,-0.3948974609375,0.0067138671875,-2.052001953125,0.0164794921875,16:46:25.794620
3.33702,-0.3948974609375,0.0054931640625,-2.052001953125,0.018310546875,16:46:25.798615
3.3410080000000004,-0.3948974609375,0.003662109375,-2.0538330078125,0.0164794921875,16:46:25.802793
3.344996,-0.3955078125,0.006103515625,-2.05322265625,0.0146484375,16:46:25.806856
3.349012,-0.3955078125,0.0042724609375,-2.0526123046875,0.0140380859375,16:46:25.810964
3.3529999999999998,-0.3948974609375,0.0042724609375,-2.05322265625,0.0140380859375,16:46:25.814997
3.3569839999999997,-0.3948974609375,0.003662109375,-2.05322265625,0.0146484375,16:46:25.818486
3.360976,-0.3961181640625,0.0048828125,-2.0538330078125,0.0152587890625,16:46:25.823058
3.3649639999999996,-0.3955078125,0.0054931640625,-2.05078125,0.0152587890625,16:46:25.827170
3.368952,-0.3948974609375,0.0042724609375,-2.05322265625,0.0140380859375,16:46:25.830436
3.372936,-0.3961181640625,0.0030517578125,-2.0513916015625,0.0140380859375,16:46:25.835525
3.3769280000000004,-0.3948974609375,0.00244140625,-2.0538330078125,0.015869140625,16:46:25.839040
3.3809120000000004,-0.3955078125,0.0054931640625,-2.0513916015625,0.0152587890625,16:46:25.843750
3.384892,-0.3955078125,0.0042724609375,-2.052001953125,0.01708984375,16:46:25.847014
3.3888800000000003,-0.3948974609375,0.0030517578125,-2.0513916015625,0.0152587890625,16:46:25.851655
3.392868,-0.394287109375,0.00244140625,-2.0526123046875,0.0146484375,16:46:25.855920
3.396852,-0.394287109375,0.0030517578125,-2.05322265625,0.0140380859375,16:46:25.859792
3.400836,-0.394287109375,0.003662109375,-2.0513916015625,0.015869140625,16:46:25.863820
3.40482,-0.3948974609375,0.0048828125,-2.0513916015625,0.01708984375,16:46:25.867942
3.408804,-0.3955078125,0.0048828125,-2.05322265625,0.0146484375,16:46:25.868802
3.4127919999999996,-0.394287109375,0.0054931640625,-2.052001953125,0.01708984375,16:46:25.872235
3.416784,-0.3948974609375,0.006103515625,-2.0526123046875,0.015869140625,16:46:25.876265
3.4207919999999996,-0.3955078125,0.0054931640625,-2.052001953125,0.013427734375,16:46:25.880398
3.424784,-0.3955078125,0.0054931640625,-2.0526123046875,0.0152587890625,16:46:25.884504
3.428776,-0.3955078125,0.00244140625,-2.052001953125,0.0128173828125,16:46:25.888580
3.4327560000000004,-0.3955078125,0.003662109375,-2.0526123046875,0.0140380859375,16:46:25.892694
3.4367479999999997,-0.3948974609375,0.0048828125,-2.0513916015625,0.0140380859375,16:46:25.896820
3.4407319999999997,-0.3955078125,0.0042724609375,-2.05322265625,0.0152587890625,16:46:25.900953
3.4447200000000002,-0.394287109375,0.006103515625,-2.052001953125,0.0152587890625,16:46:25.905061
3.44872,-0.394287109375,0.003662109375,-2.052001953125,0.0152587890625,16:46:25.909063
3.452712,-0.3948974609375,0.0042724609375,-2.052001953125,0.0146484375,16:46:25.913037
3.456696,-0.394287109375,0.0048828125,-2.0513916015625,0.0146484375,16:46:25.917269
3.4606839999999996,-0.394287109375,0.0030517578125,-2.0513916015625,0.0152587890625,16:46:25.921406
3.464672,-0.3955078125,0.0042724609375,-2.052001953125,0.015869140625,16:46:25.924764
3.4686640000000004,-0.394287109375,0.003662109375,-2.0526123046875,0.0140380859375,16:46:25.929605
3.472652,-0.3948974609375,0.0048828125,-2.0513916015625,0.0146484375,16:46:25.933715
3.4766399999999997,-0.394287109375,0.0054931640625,-2.052001953125,0.0140380859375,16:46:25.937715
3.4806280000000003,-0.3948974609375,0.0048828125,-2.05322265625,0.0140380859375,16:46:25.941709
3.4846199999999996,-0.394287109375,0.003662109375,-2.052001953125,0.0140380859375,16:46:25.945909
3.488612,-0.3948974609375,0.0048828125,-2.052001953125,0.0146484375,16:46:25.950041
3.492592,-0.3948974609375,0.003662109375,-2.0526123046875,0.015869140625,16:46:25.954291
3.4965919999999997,-0.3936767578125,0.0042724609375,-2.0526123046875,0.0152587890625,16:46:25.958112
3.500572,-0.3948974609375,0.006103515625,-2.0526123046875,0.01708984375,16:46:25.962441
3.5045919999999997,-0.3955078125,0.0054931640625,-2.052001953125,0.01708984375,16:46:25.965897
3.5085800000000003,-0.3948974609375,0.0054931640625,-2.052001953125,0.0152587890625,16:46:25.970164
3.5125599999999997,-0.3948974609375,0.0079345703125,-2.052001953125,0.0140380859375,16:46:25.974713
3.5165800000000003,-0.394287109375,0.00732421875,-2.0513916015625,0.0140380859375,16:46:25.978514
3.5205960000000003,-0.3955078125,0.006103515625,-2.052001953125,0.0140380859375,16:46:25.982880
3.5246120000000003,-0.3948974609375,0.006103515625,-2.0526123046875,0.0152587890625,16:46:25.986485
3.528612,-0.394287109375,0.0067138671875,-2.0526123046875,0.0146484375,16:46:25.990963
3.5326319999999996,-0.3948974609375,0.0054931640625,-2.0513916015625,0.0164794921875,16:46:25.995179
3.5366160000000004,-0.3955078125,0.0048828125,-2.0513916015625,0.0152587890625,16:46:25.999079
3.540604,-0.3936767578125,0.0067138671875,-2.0526123046875,0.0140380859375,16:46:26.003123
3.54462,-0.394287109375,0.006103515625,-2.0513916015625,0.0146484375,16:46:26.007242
3.548636,-0.394287109375,0.0067138671875,-2.0538330078125,0.0152587890625,16:46:26.011515
3.552656,-0.3936767578125,0.0067138671875,-2.0513916015625,0.0146484375,16:46:26.015571
3.556672,-0.3948974609375,0.0067138671875,-2.0526123046875,0.0146484375,16:46:26.019762
3.5606999999999998,-0.394287109375,0.0054931640625,-2.052001953125,0.015869140625,16:46:26.023802
3.564692,-0.3948974609375,0.0067138671875,-2.0526123046875,0.0152587890625,16:46:26.027449
3.568708,-0.3936767578125,0.0048828125,-2.0513916015625,0.0164794921875,16:46:26.031938
3.5726959999999996,-0.394287109375,0.0030517578125,-2.052001953125,0.0152587890625,16:46:26.036037
3.576688,-0.3948974609375,0.0054931640625,-2.0526123046875,0.0177001953125,16:46:26.040013
3.580668,-0.3948974609375,0.006103515625,-2.05322265625,0.015869140625,16:46:26.044259
3.584676,-0.3948974609375,0.006103515625,-2.05322265625,0.0164794921875,16:46:26.047915
3.58868,-0.394287109375,0.00732421875,-2.052001953125,0.0164794921875,16:46:26.052521
3.592696,-0.3948974609375,0.0079345703125,-2.0526123046875,0.0164794921875,16:46:26.052521
3.5967200000000004,-0.3955078125,0.0067138671875,-2.05322265625,0.0140380859375,16:46:26.056566
3.6007360000000004,-0.394287109375,0.0054931640625,-2.0513916015625,0.0146484375,16:46:26.060733
3.6047200000000004,-0.39306640625,0.00244140625,-2.052001953125,0.0152587890625,16:46:26.064413
3.608708,-0.3948974609375,0.0006103515625,-2.052001953125,0.015869140625,16:46:26.067910
3.6126959999999997,-0.394287109375,0.0018310546875,-2.0526123046875,0.0164794921875,16:46:26.072643
3.6166840000000002,-0.394287109375,0.0030517578125,-2.052001953125,0.0146484375,16:46:26.076942
3.620672,-0.39306640625,0.0030517578125,-2.052001953125,0.0164794921875,16:46:26.081019
3.624656,-0.3936767578125,0.0042724609375,-2.05322265625,0.0152587890625,16:46:26.085240
3.62864,-0.394287109375,0.0054931640625,-2.0526123046875,0.0164794921875,16:46:26.089480
3.6326280000000004,-0.3936767578125,0.0042724609375,-2.052001953125,0.0164794921875,16:46:26.093403
3.6366199999999997,-0.394287109375,0.006103515625,-2.052001953125,0.0152587890625,16:46:26.097485
3.6406359999999998,-0.3936767578125,0.003662109375,-2.052001953125,0.0152587890625,16:46:26.101609
3.6446240000000003,-0.394287109375,0.0030517578125,-2.052001953125,0.013427734375,16:46:26.105736
3.6486080000000003,-0.3936767578125,0.0048828125,-2.0513916015625,0.015869140625,16:46:26.109563
3.6525920000000003,-0.39306640625,0.0030517578125,-2.05078125,0.0128173828125,16:46:26.113947
3.65658,-0.39306640625,0.0048828125,-2.0501708984375,0.0146484375,16:46:26.117903
3.660576,-0.3936767578125,0.0054931640625,-2.052001953125,0.0152587890625,16:46:26.122114
3.6645519999999996,-0.3924560546875,0.0054931640625,-2.05078125,0.013427734375,16:46:26.126256
3.668544,-0.3924560546875,0.0042724609375,-2.0513916015625,0.0146484375,16:46:26.130270
3.672528,-0.39306640625,0.006103515625,-2.0513916015625,0.015869140625,16:46:26.134423
3.676552,-0.39306640625,0.006103515625,-2.0526123046875,0.01708984375,16:46:26.137924
3.680568,-0.3936767578125,0.0042724609375,-2.05078125,0.01708984375,16:46:26.142304
3.6845559999999997,-0.39306640625,0.00244140625,-2.05078125,0.0164794921875,16:46:26.146409
3.688536,-0.3924560546875,0.0018310546875,-2.05078125,0.01708984375,16:46:26.150453
3.6925239999999997,-0.391845703125,0.00244140625,-2.052001953125,0.0164794921875,16:46:26.154641
3.6965079999999997,-0.391845703125,0.00244140625,-2.05078125,0.01708984375,16:46:26.158300
3.7005,-0.3912353515625,0.003662109375,-2.0501708984375,0.015869140625,16:46:26.163158
3.7044879999999996,-0.39306640625,0.0042724609375,-2.05078125,0.0140380859375,16:46:26.167191
3.7084840000000003,-0.391845703125,0.0048828125,-2.052001953125,0.013427734375,16:46:26.171272
3.7124759999999997,-0.39306640625,0.003662109375,-2.0513916015625,0.0140380859375,16:46:26.175358
3.7164599999999997,-0.3924560546875,0.0054931640625,-2.05078125,0.015869140625,16:46:26.179307
3.7204439999999996,-0.391845703125,0.0042724609375,-2.05078125,0.0152587890625,16:46:26.183367
3.724436,-0.3924560546875,0.003662109375,-2.05078125,0.01708984375,16:46:26.187636
3.728416,-0.39306640625,0.0042724609375,-2.05078125,0.0164794921875,16:46:26.191734
3.7324,-0.390625,0.0054931640625,-2.049560546875,0.0152587890625,16:46:26.195866
3.736396,-0.3924560546875,0.00732421875,-2.05078125,0.013427734375,16:46:26.199941
3.740392,-0.3924560546875,0.00732421875,-2.05078125,0.0146484375,16:46:26.204050
3.7444040000000003,-0.3924560546875,0.0054931640625,-2.052001953125,0.0152587890625,16:46:26.208157
3.7483959999999996,-0.391845703125,0.0054931640625,-2.0501708984375,0.015869140625,16:46:26.212322
3.752384,-0.3912353515625,0.0054931640625,-2.0513916015625,0.0164794921875,16:46:26.216381
3.756372,-0.3912353515625,0.0054931640625,-2.0526123046875,0.015869140625,16:46:26.216381
3.760356,-0.3924560546875,0.0048828125,-2.052001953125,0.0146484375,16:46:26.220302
3.764336,-0.390625,0.0054931640625,-2.049560546875,0.0152587890625,16:46:26.224526
3.768324,-0.391845703125,0.0048828125,-2.05078125,0.0140380859375,16:46:26.228355
3.7723120000000003,-0.3912353515625,0.0042724609375,-2.0513916015625,0.0152587890625,16:46:26.232775
3.7763,-0.3912353515625,0.0042724609375,-2.0513916015625,0.01708984375,16:46:26.236814
3.780292,-0.390625,0.0030517578125,-2.05078125,0.01708984375,16:46:26.240967
3.7842719999999996,-0.390625,0.006103515625,-2.0501708984375,0.0177001953125,16:46:26.244961
3.788292,-0.390625,0.003662109375,-2.05078125,0.0164794921875,16:46:26.248801
3.79228,-0.390625,0.003662109375,-2.0501708984375,0.015869140625,16:46:26.253025
3.7962680000000004,-0.3900146484375,0.0048828125,-2.0489501953125,0.0128173828125,16:46:26.257053
3.800256,-0.3912353515625,0.003662109375,-2.049560546875,0.0146484375,16:46:26.261256
3.8042439999999997,-0.390625,0.0030517578125,-2.049560546875,0.0152587890625,16:46:26.265208
3.8082320000000003,-0.3912353515625,0.0048828125,-2.0501708984375,0.0152587890625,16:46:26.269522
3.81222,-0.390625,0.00244140625,-2.0501708984375,0.0146484375,16:46:26.273649
3.816212,-0.389404296875,0.0048828125,-2.0489501953125,0.0146484375,16:46:26.277644
3.8202,-0.390625,0.0018310546875,-2.0489501953125,0.0140380859375,16:46:26.281850
3.8241880000000004,-0.390625,0.00244140625,-2.049560546875,0.0146484375,16:46:26.285865
3.8281799999999997,-0.3900146484375,0.0030517578125,-2.05078125,0.0152587890625,16:46:26.290279
3.8321680000000002,-0.390625,0.0042724609375,-2.0501708984375,0.0164794921875,16:46:26.294102
3.836156,-0.3900146484375,0.00244140625,-2.0501708984375,0.018310546875,16:46:26.298093
3.840148,-0.3900146484375,0.0030517578125,-2.0513916015625,0.01708984375,16:46:26.302327
3.8441359999999998,-0.3900146484375,0.0030517578125,-2.049560546875,0.0189208984375,16:46:26.306325
3.8481240000000003,-0.390625,0.0042724609375,-2.049560546875,0.0177001953125,16:46:26.310409
3.85212,-0.3912353515625,0.0048828125,-2.05078125,0.01708984375,16:46:26.314467
3.8560920000000003,-0.390625,0.003662109375,-2.0501708984375,0.0164794921875,16:46:26.317757
3.860092,-0.390625,0.0030517578125,-2.05078125,0.0146484375,16:46:26.322864
3.8640800000000004,-0.390625,0.003662109375,-2.049560546875,0.0140380859375,16:46:26.326364
3.868068,-0.3900146484375,0.0006103515625,-2.0489501953125,0.0128173828125,16:46:26.330908
3.8720559999999997,-0.3900146484375,0.00244140625,-2.052001953125,0.0140380859375,16:46:26.335109
3.876048,-0.390625,0.0030517578125,-2.052001953125,0.0146484375,16:46:26.339008
3.880032,-0.390625,0.0030517578125,-2.049560546875,0.01708984375,16:46:26.343206
3.884016,-0.3900146484375,0.0030517578125,-2.049560546875,0.0164794921875,16:46:26.347360
3.8880039999999996,-0.3900146484375,0.00244140625,-2.04833984375,0.015869140625,16:46:26.351305
3.8920000000000003,-0.391845703125,0.0042724609375,-2.0501708984375,0.0164794921875,16:46:26.355615
3.8959840000000003,-0.390625,0.00244140625,-2.0501708984375,0.0164794921875,16:46:26.359703
3.8999639999999998,-0.3900146484375,0.00244140625,-2.049560546875,0.0140380859375,16:46:26.363633
3.9039520000000003,-0.390625,0.003662109375,-2.049560546875,0.0146484375,16:46:26.367630
