pre_test_note_1,,,,,
weight (g),50.0,,,,
position (cm),10.0,,,,
==================================================================
Time,Strain Ax,Strain Bx,Strain Ay,Strain By,Current Time
0.0,-0.29541015625,0.0048828125,-1.9830322265625,0.01708984375,16:46:17.003637
0.003988000000000103,-0.2960205078125,0.006103515625,-1.983642578125,0.0177001953125,16:46:17.004639
0.008003999999999678,-0.29541015625,0.0054931640625,-1.982421875,0.015869140625,16:46:17.004639
0.01198800000000011,-0.2960205078125,0.003662109375,-1.9842529296875,0.0164794921875,16:46:17.005658
0.015975999999999768,-0.294189453125,0.003662109375,-1.983642578125,0.013427734375,16:46:17.006633
0.01996399999999987,-0.294189453125,0.0030517578125,-1.98486328125,0.0146484375,16:46:17.007660
0.02394799999999986,-0.29541015625,0.00244140625,-1.9830322265625,0.013427734375,16:46:17.007660
0.027943999999999747,-0.2960205078125,0.001220703125,-1.983642578125,0.0140380859375,16:46:17.007660
0.03192400000000006,-0.2960205078125,0.0030517578125,-1.9830322265625,0.015869140625,16:46:17.008663
0.03592400000000007,-0.2947998046875,0.0030517578125,-1.98486328125,0.0177001953125,16:46:17.008663
0.039908000000000055,-0.2947998046875,0.003662109375,-1.983642578125,0.0164794921875,16:46:17.008663
0.04389200000000004,-0.2947998046875,0.006103515625,-1.9842529296875,0.0146484375,16:46:17.009654
0.04790800000000006,-0.2947998046875,0.0054931640625,-1.983642578125,0.013427734375,16:46:17.009654
0.051899999999999835,-0.294189453125,0.0067138671875,-1.983642578125,0.0152587890625,16:46:17.010642
0.05589999999999984,-0.2960205078125,0.0067138671875,-1.9830322265625,0.0152587890625,16:46:17.010642
0.05991999999999997,-0.29541015625,0.006103515625,-1.9830322265625,0.0146484375,16:46:17.010642
0.06392400000000009,-0.29541015625,0.0042724609375,-1.982421875,0.015869140625,16:46:17.011617
0.06791199999999975,-0.2947998046875,0.0042724609375,-1.98486328125,0.0140380859375,16:46:17.011617
0.07190800000000008,-0.2947998046875,0.003662109375,-1.983642578125,0.0152587890625,16:46:17.012614
0.07590399999999997,-0.2947998046875,0.003662109375,-1.9830322265625,0.0146484375,16:46:17.012614
0.07988799999999996,-0.2960205078125,0.003662109375,-1.983642578125,0.013427734375,16:46:17.012614
0.08387999999999973,-0.296630859375,0.0030517578125,-1.9842529296875,0.0146484375,16:46:17.013641
0.08786000000000005,-0.29541015625,0.003662109375,-1.9842529296875,0.015869140625,16:46:17.013641
0.09184400000000004,-0.2960205078125,0.0030517578125,-1.9830322265625,0.0164794921875,16:46:17.014609
0.09582399999999991,-0.29541015625,0.0048828125,-1.9842529296875,0.015869140625,16:46:17.014609
0.09981200000000001,-0.2947998046875,0.0067138671875,-1.9842529296875,0.01708984375,16:46:17.014609
0.10381200000000002,-0.2947998046875,0.006103515625,-1.98486328125,0.01708984375,16:46:17.015606
0.10781599999999969,-0.29541015625,0.0054931640625,-1.983642578125,0.0164794921875,16:46:17.016085
0.11179999999999968,-0.29541015625,0.0006103515625,-1.983642578125,0.0152587890625,16:46:17.016085
0.11579999999999968,-0.2960205078125,0.0018310546875,-1.9842529296875,0.0146484375,16:46:17.016085
0.11978799999999978,-0.2947998046875,0.003662109375,-1.98486328125,0.01708984375,16:46:17.017084
0.12377599999999989,-0.2960205078125,0.0030517578125,-1.983642578125,0.01708984375,16:46:17.017084
0.12775999999999987,-0.29541015625,0.003662109375,-1.9842529296875,0.015869140625,16:46:17.017084
0.1317520000000001,-0.29541015625,0.003662109375,-1.9842529296875,0.0164794921875,16:46:17.017910
0.13573600000000008,-0.2960205078125,0.0042724609375,-1.9854736328125,0.018310546875,16:46:17.017910
0.13972399999999974,-0.29541015625,0.0067138671875,-1.9830322265625,0.0177001953125,16:46:17.017910
0.14372000000000007,-0.2947998046875,0.0054931640625,-1.9842529296875,0.018310546875,16:46:17.018909
0.14771599999999996,-0.29541015625,0.00732421875,-1.9842529296875,0.015869140625,16:46:17.018909
0.15172000000000008,-0.296630859375,0.0042724609375,-1.9842529296875,0.0177001953125,16:46:17.018909
0.15570400000000006,-0.2947998046875,0.0048828125,-1.9842529296875,0.0177001953125,16:46:17.019936
0.15969199999999972,-0.296630859375,0.003662109375,-1.9842529296875,0.0146484375,16:46:17.019936
0.16368399999999994,-0.2960205078125,0.001220703125,-1.9842529296875,0.01708984375,16:46:17.019936
0.16767200000000004,-0.29541015625,0.00244140625,-1.983642578125,0.0164794921875,16:46:17.019936
0.1716599999999997,-0.2960205078125,0.0018310546875,-1.9842529296875,0.01708984375,16:46:17.020934
0.17564000000000002,-0.29541015625,0.00244140625,-1.9842529296875,0.01708984375,16:46:17.020934
0.1796359999999999,-0.29541015625,0.0006103515625,-1.9842529296875,0.01708984375,16:46:17.020934
0.183624,-0.296630859375,0.0030517578125,-1.98486328125,0.015869140625,16:46:17.021931
0.18760399999999988,-0.296630859375,0.00244140625,-1.983642578125,0.01708984375,16:46:17.021931
0.19160399999999989,-0.29541015625,0.00244140625,-1.9842529296875,0.01708984375,16:46:17.021931
0.195592,-0.29541015625,0.00244140625,-1.9842529296875,0.0140380859375,16:46:17.022928
0.19958399999999976,-0.2947998046875,0.0054931640625,-1.98486328125,0.0164794921875,16:46:17.022928
0.20356400000000008,-0.296630859375,0.0048828125,-1.98486328125,0.015869140625,16:46:17.022928
0.20754800000000007,-0.2960205078125,0.003662109375,-1.9842529296875,0.015869140625,16:46:17.023926
0.21153200000000005,-0.2947998046875,0.0018310546875,-1.982421875,0.0140380859375,16:46:17.023926
0.2155199999999997,-0.2960205078125,0.0018310546875,-1.98486328125,0.015869140625,16:46:17.023926
0.21950799999999981,-0.29541015625,0.0054931640625,-1.9842529296875,0.015869140625,16:46:17.024891
0.22349599999999992,-0.2960205078125,0.006103515625,-1.98486328125,0.0152587890625,16:46:17.024891
0.2275039999999997,-0.29541015625,0.003662109375,-1.9830322265625,0.015869140625,16:46:17.024891
0.23149599999999992,-0.2947998046875,0.00244140625,-1.9842529296875,0.0146484375,16:46:17.025917
0.2354799999999999,-0.2947998046875,0.0018310546875,-1.9842529296875,0.0140380859375,16:46:17.025917
0.23947199999999969,-0.2947998046875,0.0030517578125,-1.9842529296875,0.01708984375,16:46:17.025917
0.2434599999999998,-0.29541015625,0.0048828125,-1.986083984375,0.015869140625,16:46:17.026920
0.2474479999999999,-0.2960205078125,0.00244140625,-1.98486328125,0.0164794921875,16:46:17.026920
0.2514319999999999,-0.2972412109375,0.0030517578125,-1.98486328125,0.01708984375,16:46:17.026920
0.25542,-0.2960205078125,0.0042724609375,-1.983642578125,0.0164794921875,16:46:17.027886
0.2594080000000001,-0.29541015625,0.006103515625,-1.9842529296875,0.0146484375,16:46:17.027886
0.26341199999999976,-0.2960205078125,0.00732421875,-1.98486328125,0.0152587890625,16:46:17.028880
0.2674159999999999,-0.2960205078125,0.0054931640625,-1.98486328125,0.015869140625,16:46:17.028880
0.27139999999999986,-0.2960205078125,0.0042724609375,-1.98486328125,0.018310546875,16:46:17.028880
0.27538399999999985,-0.2960205078125,0.0048828125,-1.9842529296875,0.01708984375,16:46:17.029878
0.27937199999999995,-0.29541015625,0.0054931640625,-1.9842529296875,0.0146484375,16:46:17.029878
0.28335599999999994,-0.2960205078125,0.0054931640625,-1.986083984375,0.0152587890625,16:46:17.029878
0.28734400000000004,-0.296630859375,0.003662109375,-1.9842529296875,0.015869140625,16:46:17.030904
0.2913319999999997,-0.29541015625,0.0030517578125,-1.9830322265625,0.01708984375,16:46:17.030904
0.2953159999999997,-0.296630859375,0.003662109375,-1.983642578125,0.018310546875,16:46:17.030904
0.299312,-0.29541015625,0.0054931640625,-1.9854736328125,0.0177001953125,16:46:17.031901
0.3032999999999997,-0.296630859375,0.00732421875,-1.98486328125,0.0177001953125,16:46:17.031901
0.3073079999999999,-0.2960205078125,0.006103515625,-1.98486328125,0.015869140625,16:46:17.031901
0.3113319999999997,-0.2960205078125,0.0054931640625,-1.9842529296875,0.0152587890625,16:46:17.032869
0.3153199999999998,-0.2960205078125,0.0048828125,-1.9842529296875,0.01708984375,16:46:17.032869
0.3193039999999998,-0.29541015625,0.0067138671875,-1.9842529296875,0.0164794921875,16:46:17.032869
0.32331999999999983,-0.29541015625,0.006103515625,-1.983642578125,0.0146484375,16:46:17.033866
0.32733999999999996,-0.2960205078125,0.0048828125,-1.983642578125,0.013427734375,16:46:17.033866
0.33131999999999984,-0.296630859375,0.0054931640625,-1.9854736328125,0.0152587890625,16:46:17.033866
0.33531200000000005,-0.29541015625,0.0048828125,-1.9830322265625,0.0140380859375,16:46:17.034885
0.33929600000000004,-0.29541015625,0.0042724609375,-1.9854736328125,0.0152587890625,16:46:17.034885
0.34329199999999993,-0.2947998046875,0.00244140625,-1.9830322265625,0.0146484375,16:46:17.034885
0.3472679999999997,-0.296630859375,0.0042724609375,-1.9854736328125,0.0140380859375,16:46:17.034885
0.351264,-0.296630859375,0.0042724609375,-1.983642578125,0.0146484375,16:46:17.035890
0.3552559999999998,-0.296630859375,0.0048828125,-1.9854736328125,0.015869140625,16:46:17.035890
0.3592439999999999,-0.2947998046875,0.0048828125,-1.983642578125,0.01708984375,16:46:17.035890
0.363232,-0.296630859375,0.0042724609375,-1.9842529296875,0.0152587890625,16:46:17.036888
0.367216,-0.2960205078125,0.0067138671875,-1.9842529296875,0.0152587890625,16:46:17.036888
0.371232,-0.2960205078125,0.0054931640625,-1.98486328125,0.015869140625,16:46:17.036888
0.37521999999999966,-0.2960205078125,0.0042724609375,-1.983642578125,0.0164794921875,16:46:17.037884
0.37920799999999977,-0.2972412109375,0.0030517578125,-1.983642578125,0.0152587890625,16:46:17.037884
0.3832040000000001,-0.2947998046875,0.0054931640625,-1.98486328125,0.0164794921875,16:46:17.037884
0.38720399999999966,-0.29541015625,0.0042724609375,-1.98486328125,0.0164794921875,16:46:17.038884
0.391184,-0.2960205078125,0.0042724609375,-1.9854736328125,0.015869140625,16:46:17.038884
0.3951720000000001,-0.2947998046875,0.0054931640625,-1.9830322265625,0.015869140625,16:46:17.038884
0.39915199999999995,-0.29541015625,0.0054931640625,-1.9854736328125,0.0164794921875,16:46:17.039878
0.4031439999999997,-0.2960205078125,0.0042724609375,-1.98486328125,0.0146484375,16:46:17.039878
0.40712400000000004,-0.2960205078125,0.003662109375,-1.9842529296875,0.0140380859375,16:46:17.039878
0.4111159999999998,-0.29541015625,0.00244140625,-1.98486328125,0.013427734375,16:46:17.039878
0.4150959999999997,-0.296630859375,0.0042724609375,-1.9854736328125,0.013427734375,16:46:17.040879
0.4190879999999999,-0.296630859375,0.0042724609375,-1.9842529296875,0.013427734375,16:46:17.040879
0.423076,-0.29541015625,0.0054931640625,-1.98486328125,0.0146484375,16:46:17.041845
0.42706399999999967,-0.296630859375,0.0067138671875,-1.9842529296875,0.0152587890625,16:46:17.041845
0.4310839999999998,-0.296630859375,0.0048828125,-1.98486328125,0.0140380859375,16:46:17.042842
0.435076,-0.2947998046875,0.0042724609375,-1.983642578125,0.0140380859375,16:46:17.042842
0.4390559999999999,-0.2960205078125,0.0054931640625,-1.9842529296875,0.013427734375,16:46:17.042842
0.443044,-0.2960205078125,0.0054931640625,-1.9842529296875,0.015869140625,16:46:17.043870
0.447028,-0.29541015625,0.006103515625,-1.98486328125,0.015869140625,16:46:17.043870
0.451044,-0.2960205078125,0.0054931640625,-1.9842529296875,0.0152587890625,16:46:17.043870
0.4550239999999999,-0.296630859375,0.0048828125,-1.98486328125,0.015869140625,16:46:17.044866
0.45900799999999986,-0.2984619140625,0.003662109375,-1.983642578125,0.0146484375,16:46:17.044866
0.46300399999999975,-0.29541015625,0.003662109375,-1.9854736328125,0.01708984375,16:46:17.044866
0.46698799999999974,-0.29541015625,0.0030517578125,-1.9854736328125,0.0152587890625,16:46:17.045831
0.47097599999999984,-0.2960205078125,0.0030517578125,-1.9842529296875,0.01708984375,16:46:17.045831
0.47496399999999994,-0.2960205078125,0.00244140625,-1.9842529296875,0.015869140625,16:46:17.045831
0.47894799999999993,-0.29541015625,0.003662109375,-1.98486328125,0.0146484375,16:46:17.045831
0.48293600000000003,-0.29541015625,0.0030517578125,-1.9842529296875,0.0140380859375,16:46:17.046861
0.4869279999999998,-0.296630859375,0.0048828125,-1.983642578125,0.015869140625,16:46:17.046861
0.4909159999999999,-0.2960205078125,0.0067138671875,-1.9830322265625,0.0146484375,16:46:17.046861
0.49492,-0.296630859375,0.0042724609375,-1.9854736328125,0.0146484375,16:46:17.047860
0.4989159999999999,-0.2960205078125,0.003662109375,-1.9854736328125,0.015869140625,16:46:17.047860
0.5029119999999998,-0.29541015625,0.0048828125,-1.986083984375,0.0164794921875,16:46:17.047860
0.506904,-0.29541015625,0.003662109375,-1.983642578125,0.013427734375,16:46:17.048855
0.5108959999999998,-0.296630859375,0.0054931640625,-1.986083984375,0.013427734375,16:46:17.048855
0.5148839999999999,-0.29541015625,0.0048828125,-1.98486328125,0.0146484375,16:46:17.048855
0.5188639999999998,-0.2960205078125,0.0030517578125,-1.98486328125,0.01220703125,16:46:17.049820
0.5228479999999998,-0.2972412109375,0.003662109375,-1.983642578125,0.015869140625,16:46:17.049820
0.52684,-0.29541015625,0.0054931640625,-1.9842529296875,0.0152587890625,16:46:17.049820
0.5308280000000001,-0.2972412109375,0.0042724609375,-1.9854736328125,0.0146484375,16:46:17.050848
0.5348199999999999,-0.2960205078125,0.0030517578125,-1.9842529296875,0.0140380859375,16:46:17.050848
0.5387919999999999,-0.2960205078125,0.00244140625,-1.9842529296875,0.015869140625,16:46:17.050848
0.54278,-0.2960205078125,0.001220703125,-1.983642578125,0.0152587890625,16:46:17.050848
0.546764,-0.2978515625,0.0006103515625,-1.9842529296875,0.0164794921875,16:46:17.051844
0.5507519999999997,-0.296630859375,0.0030517578125,-1.986083984375,0.0177001953125,16:46:17.051844
0.5547359999999997,-0.2960205078125,0.00244140625,-1.986083984375,0.0164794921875,16:46:17.051844
0.5587199999999997,-0.296630859375,0.001220703125,-1.9842529296875,0.015869140625,16:46:17.052847
0.5627079999999998,-0.296630859375,0.0030517578125,-1.98486328125,0.0164794921875,16:46:17.052847
0.5667079999999998,-0.296630859375,0.0030517578125,-1.986083984375,0.01708984375,16:46:17.052847
0.5707,-0.296630859375,0.003662109375,-1.9854736328125,0.0177001953125,16:46:17.053839
0.5746759999999997,-0.2960205078125,0.003662109375,-1.9842529296875,0.0146484375,16:46:17.053839
0.5786759999999997,-0.2960205078125,0.0030517578125,-1.9854736328125,0.0140380859375,16:46:17.053839
0.5826599999999997,-0.2947998046875,0.00244140625,-1.9866943359375,0.0164794921875,16:46:17.054840
0.586652,-0.296630859375,0.0030517578125,-1.986083984375,0.0152587890625,16:46:17.054840
0.5906359999999999,-0.296630859375,0.0030517578125,-1.9842529296875,0.01708984375,16:46:17.054840
0.5946199999999999,-0.2960205078125,0.0048828125,-1.9842529296875,0.018310546875,16:46:17.054840
0.5986039999999999,-0.2960205078125,0.0054931640625,-1.9842529296875,0.0152587890625,16:46:17.055831
0.602592,-0.296630859375,0.006103515625,-1.9854736328125,0.015869140625,16:46:17.055831
0.606592,-0.2972412109375,0.0048828125,-1.983642578125,0.015869140625,16:46:17.055831
0.6105799999999997,-0.2947998046875,0.0048828125,-1.9842529296875,0.015869140625,16:46:17.056834
0.6145679999999998,-0.296630859375,0.0067138671875,-1.9842529296875,0.0140380859375,16:46:17.056834
0.6185719999999999,-0.2960205078125,0.0067138671875,-1.9842529296875,0.0152587890625,16:46:17.057798
0.6225879999999999,-0.2972412109375,0.0054931640625,-1.982421875,0.015869140625,16:46:17.057798
0.6265719999999999,-0.2960205078125,0.006103515625,-1.9842529296875,0.0140380859375,16:46:17.057798
0.6305879999999999,-0.2960205078125,0.003662109375,-1.9842529296875,0.0146484375,16:46:17.058824
0.6345719999999999,-0.2960205078125,0.0054931640625,-1.98486328125,0.0152587890625,16:46:17.058824
0.6385559999999999,-0.2960205078125,0.0054931640625,-1.98486328125,0.01708984375,16:46:17.058824
0.642544,-0.296630859375,0.0048828125,-1.98486328125,0.015869140625,16:46:17.059824
0.6465319999999997,-0.296630859375,0.003662109375,-1.983642578125,0.0164794921875,16:46:17.059824
0.6505199999999998,-0.29541015625,0.0054931640625,-1.9842529296875,0.0140380859375,16:46:17.059824
0.654512,-0.2960205078125,0.0067138671875,-1.98486328125,0.0152587890625,16:46:17.060819
0.6585239999999999,-0.2960205078125,0.00732421875,-1.9842529296875,0.018310546875,16:46:17.060819
0.6625239999999999,-0.2960205078125,0.0054931640625,-1.983642578125,0.0189208984375,16:46:17.060819
0.6665079999999999,-0.296630859375,0.006103515625,-1.9842529296875,0.018310546875,16:46:17.061817
0.6705239999999999,-0.2972412109375,0.0042724609375,-1.9842529296875,0.01708984375,16:46:17.061817
0.674512,-0.2960205078125,0.00244140625,-1.9842529296875,0.0164794921875,16:46:17.061817
0.678496,-0.296630859375,0.0018310546875,-1.98486328125,0.01708984375,16:46:17.061817
0.6824839999999996,-0.296630859375,0.0030517578125,-1.9842529296875,0.0177001953125,16:46:17.062812
0.6864719999999997,-0.2960205078125,0.0048828125,-1.98486328125,0.015869140625,16:46:17.062812
0.6904599999999999,-0.2960205078125,0.0067138671875,-1.9854736328125,0.01708984375,16:46:17.062812
0.694464,-0.2972412109375,0.0042724609375,-1.98486328125,0.0164794921875,16:46:17.063809
0.6984520000000001,-0.2960205078125,0.0042724609375,-1.9854736328125,0.0152587890625,16:46:17.063809
0.7024439999999998,-0.29541015625,0.003662109375,-1.983642578125,0.015869140625,16:46:17.063809
0.706432,-0.29541015625,0.006103515625,-1.9842529296875,0.015869140625,16:46:17.063809
0.710448,-0.2960205078125,0.006103515625,-1.9842529296875,0.018310546875,16:46:17.064809
0.7144719999999998,-0.2972412109375,0.0067138671875,-1.9854736328125,0.0164794921875,16:46:17.064809
0.718496,-0.296630859375,0.0048828125,-1.9854736328125,0.015869140625,16:46:17.064809
0.7224759999999999,-0.2972412109375,0.0042724609375,-1.983642578125,0.015869140625,16:46:17.065807
0.7264719999999998,-0.29541015625,0.0042724609375,-1.98486328125,0.015869140625,16:46:17.065807
0.7304559999999998,-0.2972412109375,0.0042724609375,-1.9842529296875,0.01708984375,16:46:17.065807
0.734448,-0.296630859375,0.0042724609375,-1.9854736328125,0.015869140625,16:46:17.065807
0.7384359999999996,-0.296630859375,0.0018310546875,-1.9842529296875,0.0164794921875,16:46:17.066810
0.742432,-0.296630859375,0.001220703125,-1.983642578125,0.0152587890625,16:46:17.066810
0.7464239999999998,-0.2960205078125,0.0042724609375,-1.9842529296875,0.0146484375,16:46:17.066810
0.7504079999999997,-0.296630859375,0.003662109375,-1.986083984375,0.013427734375,16:46:17.066810
0.7543880000000001,-0.296630859375,0.0042724609375,-1.98486328125,0.0152587890625,16:46:17.067802
0.758372,-0.2972412109375,0.0048828125,-1.9854736328125,0.0140380859375,16:46:17.067802
0.7623599999999997,-0.296630859375,0.006103515625,-1.9842529296875,0.0140380859375,16:46:17.067802
0.7663599999999997,-0.2972412109375,0.0054931640625,-1.98486328125,0.01708984375,16:46:17.068797
0.770356,-0.2978515625,0.0042724609375,-1.9842529296875,0.0140380859375,16:46:17.068797
0.7743319999999998,-0.296630859375,0.0042724609375,-1.9842529296875,0.015869140625,16:46:17.068797
0.7783319999999998,-0.296630859375,0.003662109375,-1.9842529296875,0.0140380859375,16:46:17.068797
0.7823199999999999,-0.2960205078125,0.0048828125,-1.986083984375,0.015869140625,16:46:17.069794
0.7863159999999998,-0.2972412109375,0.003662109375,-1.9842529296875,0.015869140625,16:46:17.069794
0.7902999999999998,-0.296630859375,0.0042724609375,-1.983642578125,0.0152587890625,16:46:17.069794
0.7942879999999999,-0.2960205078125,0.003662109375,-1.98486328125,0.0164794921875,16:46:17.070789
0.7982719999999999,-0.2960205078125,0.0042724609375,-1.986083984375,0.0164794921875,16:46:17.070789
0.80226,-0.2972412109375,0.0054931640625,-1.98486328125,0.0164794921875,16:46:17.070789
0.806244,-0.2972412109375,0.0048828125,-1.983642578125,0.0164794921875,16:46:17.070789
0.8102359999999997,-0.2978515625,0.0030517578125,-1.9830322265625,0.015869140625,16:46:17.071786
0.8142199999999997,-0.2978515625,0.0030517578125,-1.986083984375,0.0152587890625,16:46:17.071786
0.8182119999999999,-0.296630859375,0.003662109375,-1.98486328125,0.0146484375,16:46:17.071786
0.8222,-0.296630859375,0.003662109375,-1.98486328125,0.0152587890625,16:46:17.072784
0.8261879999999997,-0.2972412109375,0.003662109375,-1.98486328125,0.0140380859375,16:46:17.072784
0.8301719999999997,-0.2972412109375,0.0048828125,-1.9854736328125,0.015869140625,16:46:17.072784
0.8341599999999998,-0.2984619140625,0.006103515625,-1.9866943359375,0.0177001953125,16:46:17.072784
0.8381719999999997,-0.2978515625,0.006103515625,-1.9842529296875,0.0140380859375,16:46:17.073785
0.8421759999999998,-0.2972412109375,0.0048828125,-1.98486328125,0.0164794921875,16:46:17.073785
0.8461639999999999,-0.2972412109375,0.0054931640625,-1.9842529296875,0.015869140625,16:46:17.073785
0.8501559999999997,-0.2972412109375,0.0054931640625,-1.9854736328125,0.0164794921875,16:46:17.074785
0.8541439999999998,-0.2978515625,0.006103515625,-1.983642578125,0.0177001953125,16:46:17.074785
0.858168,-0.2978515625,0.0067138671875,-1.9842529296875,0.0177001953125,16:46:17.074785
0.8621879999999997,-0.296630859375,0.0067138671875,-1.9842529296875,0.0152587890625,16:46:17.074785
0.8662079999999999,-0.2972412109375,0.006103515625,-1.98486328125,0.01708984375,16:46:17.075778
0.870228,-0.2978515625,0.0054931640625,-1.9854736328125,0.0164794921875,16:46:17.075778
0.8742159999999997,-0.2972412109375,0.0054931640625,-1.98486328125,0.0140380859375,16:46:17.075778
0.8782039999999998,-0.296630859375,0.0054931640625,-1.98486328125,0.0164794921875,16:46:17.076772
0.8821919999999999,-0.296630859375,0.0042724609375,-1.9854736328125,0.015869140625,16:46:17.076772
0.8861759999999999,-0.296630859375,0.003662109375,-1.98486328125,0.0140380859375,16:46:17.076772
0.8901719999999997,-0.2960205078125,0.00244140625,-1.9854736328125,0.013427734375,16:46:17.076772
0.8941439999999998,-0.296630859375,0.0042724609375,-1.98486328125,0.0152587890625,16:46:17.077772
0.8981319999999999,-0.296630859375,0.0042724609375,-1.986083984375,0.0146484375,16:46:17.077772
0.9021159999999999,-0.2972412109375,0.0054931640625,-1.98486328125,0.0152587890625,16:46:17.077772
0.9061119999999998,-0.2972412109375,0.0048828125,-1.9854736328125,0.0152587890625,16:46:17.078767
0.9100999999999999,-0.296630859375,0.0042724609375,-1.98486328125,0.015869140625,16:46:17.078767
0.9140919999999997,-0.296630859375,0.0042724609375,-1.9854736328125,0.015869140625,16:46:17.078767
0.9180759999999997,-0.2984619140625,0.0018310546875,-1.986083984375,0.0140380859375,16:46:17.078767
0.9220639999999998,-0.296630859375,0.00244140625,-1.9854736328125,0.015869140625,16:46:17.079767
0.9260479999999998,-0.296630859375,0.003662109375,-1.9842529296875,0.01708984375,16:46:17.079767
0.93004,-0.2972412109375,0.0018310546875,-1.9842529296875,0.0164794921875,16:46:17.079767
0.9340359999999999,-0.2978515625,0.003662109375,-1.98486328125,0.0164794921875,16:46:17.080763
0.9380279999999996,-0.2972412109375,0.0042724609375,-1.9866943359375,0.018310546875,16:46:17.080763
0.9420120000000001,-0.2978515625,0.0042724609375,-1.98486328125,0.0164794921875,16:46:17.080763
0.9460039999999998,-0.2972412109375,0.0048828125,-1.9842529296875,0.015869140625,16:46:17.080763
0.949992,-0.296630859375,0.0042724609375,-1.9854736328125,0.015869140625,16:46:17.081759
0.95398,-0.2978515625,0.0042724609375,-1.9854736328125,0.0164794921875,16:46:17.081759
0.9579679999999997,-0.296630859375,0.0054931640625,-1.983642578125,0.018310546875,16:46:17.081759
0.9619519999999997,-0.296630859375,0.0042724609375,-1.986083984375,0.0164794921875,16:46:17.082759
0.965948,-0.296630859375,0.0042724609375,-1.9854736328125,0.0152587890625,16:46:17.082759
0.9699199999999997,-0.2972412109375,0.0048828125,-1.98486328125,0.015869140625,16:46:17.082759
0.973916,-0.296630859375,0.006103515625,-1.98486328125,0.0146484375,16:46:17.082759
0.9779279999999999,-0.2960205078125,0.0042724609375,-1.9854736328125,0.01708984375,16:46:17.083752
0.981916,-0.296630859375,0.00732421875,-1.98486328125,0.0164794921875,16:46:17.083752
0.985932,-0.2972412109375,0.0067138671875,-1.9854736328125,0.013427734375,16:46:17.083752
0.989948,-0.2960205078125,0.0054931640625,-1.983642578125,0.013427734375,16:46:17.083752
0.9939439999999999,-0.2960205078125,0.0042724609375,-1.98486328125,0.0164794921875,16:46:17.084751
0.9979279999999999,-0.296630859375,0.006103515625,-1.986083984375,0.013427734375,16:46:17.084751
1.001944,-0.2972412109375,0.0054931640625,-1.986083984375,0.0140380859375,16:46:17.084751
1.005928,-0.296630859375,0.0042724609375,-1.983642578125,0.0152587890625,16:46:17.085748
1.0099199999999997,-0.2960205078125,0.003662109375,-1.98486328125,0.0146484375,16:46:17.085748
1.013912,-0.29541015625,0.0042724609375,-1.98486328125,0.0177001953125,16:46:17.085748
1.017896,-0.296630859375,0.0048828125,-1.98486328125,0.0164794921875,16:46:17.085748
1.021884,-0.2978515625,0.006103515625,-1.9842529296875,0.0146484375,16:46:17.086743
1.0259079999999998,-0.2978515625,0.0054931640625,-1.9842529296875,0.0140380859375,16:46:17.086743
1.029896,-0.2972412109375,0.006103515625,-1.98486328125,0.015869140625,16:46:17.086743
1.033916,-0.296630859375,0.0042724609375,-1.98486328125,0.0164794921875,16:46:17.087744
1.0379,-0.2972412109375,0.0030517578125,-1.9854736328125,0.0140380859375,16:46:17.087744
1.0418879999999997,-0.2972412109375,0.0018310546875,-1.9842529296875,0.0128173828125,16:46:17.087744
1.045868,-0.2972412109375,0.00244140625,-1.983642578125,0.0146484375,16:46:17.088739
1.0498599999999998,-0.296630859375,0.0018310546875,-1.983642578125,0.0164794921875,16:46:17.088739
1.0538439999999998,-0.2972412109375,0.00244140625,-1.983642578125,0.015869140625,16:46:17.088739
1.0578399999999997,-0.2960205078125,0.0018310546875,-1.9830322265625,0.015869140625,16:46:17.088739
1.0618239999999997,-0.2972412109375,0.0018310546875,-1.98486328125,0.0164794921875,16:46:17.089743
1.0658119999999998,-0.296630859375,0.006103515625,-1.98486328125,0.0164794921875,16:46:17.089743
1.0698279999999998,-0.2972412109375,0.0048828125,-1.9854736328125,0.0146484375,16:46:17.089743
1.0738159999999999,-0.2972412109375,0.0054931640625,-1.9842529296875,0.0146484375,16:46:17.089743
1.0777999999999999,-0.2972412109375,0.0054931640625,-1.9842529296875,0.015869140625,16:46:17.090734
1.081788,-0.296630859375,0.0048828125,-1.9842529296875,0.0164794921875,16:46:17.090734
1.0857759999999996,-0.2978515625,0.0018310546875,-1.986083984375,0.0164794921875,16:46:17.091944
1.0897679999999998,-0.296630859375,0.00244140625,-1.9842529296875,0.015869140625,16:46:17.096468
1.09376,-0.2972412109375,0.0042724609375,-1.986083984375,0.0164794921875,16:46:17.100569
1.0977359999999998,-0.2978515625,0.003662109375,-1.986083984375,0.015869140625,16:46:17.104600
1.101724,-0.296630859375,0.0048828125,-1.986083984375,0.0152587890625,16:46:17.108463
1.105708,-0.2960205078125,0.003662109375,-1.983642578125,0.015869140625,16:46:17.112635
1.109692,-0.2960205078125,0.003662109375,-1.98486328125,0.0152587890625,16:46:17.116662
1.1136759999999999,-0.296630859375,0.001220703125,-1.98486328125,0.0164794921875,16:46:17.120760
1.1176679999999997,-0.296630859375,0.0018310546875,-1.983642578125,0.0164794921875,16:46:17.124855
1.1216519999999996,-0.2960205078125,0.0042724609375,-1.9830322265625,0.0164794921875,16:46:17.128959
1.1256439999999999,-0.296630859375,0.0030517578125,-1.9842529296875,0.01708984375,16:46:17.132803
1.1296239999999997,-0.2972412109375,0.0030517578125,-1.98486328125,0.015869140625,16:46:17.137791
1.1336079999999997,-0.2972412109375,0.003662109375,-1.9854736328125,0.0146484375,16:46:17.140782
1.1375959999999998,-0.2978515625,0.003662109375,-1.982421875,0.0146484375,16:46:17.144781
1.1415799999999998,-0.296630859375,0.003662109375,-1.983642578125,0.015869140625,16:46:17.148760
1.1455639999999998,-0.2972412109375,0.0054931640625,-1.98486328125,0.015869140625,16:46:17.153746
1.149552,-0.2972412109375,0.0054931640625,-1.9854736328125,0.0177001953125,16:46:17.157734
1.153536,-0.296630859375,0.006103515625,-1.983642578125,0.0152587890625,16:46:17.161722
1.157536,-0.296630859375,0.0054931640625,-1.9842529296875,0.0152587890625,16:46:17.165711
1.1615319999999998,-0.296630859375,0.006103515625,-1.986083984375,0.015869140625,16:46:17.169700
1.16554,-0.2972412109375,0.006103515625,-1.98486328125,0.0140380859375,16:46:17.173504
1.1695439999999997,-0.296630859375,0.0054931640625,-1.9842529296875,0.0146484375,16:46:17.177753
1.173536,-0.2972412109375,0.00732421875,-1.9842529296875,0.0152587890625,16:46:17.181786
1.1775479999999998,-0.296630859375,0.0048828125,-1.98486328125,0.0164794921875,16:46:17.186473
1.1815439999999997,-0.2978515625,0.0048828125,-1.98486328125,0.015869140625,16:46:17.190553
1.1855279999999997,-0.296630859375,0.003662109375,-1.986083984375,0.0164794921875,16:46:17.194334
1.189524,-0.296630859375,0.0018310546875,-1.983642578125,0.018310546875,16:46:17.198031
1.1935119999999997,-0.2960205078125,0.0018310546875,-1.98486328125,0.01708984375,16:46:17.202051
1.1974999999999998,-0.2978515625,0.00244140625,-1.983642578125,0.0164794921875,16:46:17.207050
1.201492,-0.2972412109375,0.0030517578125,-1.98486328125,0.0152587890625,16:46:17.211129
1.2054839999999998,-0.2960205078125,0.0030517578125,-1.9842529296875,0.0146484375,16:46:17.214966
1.2094719999999999,-0.2972412109375,0.003662109375,-1.983642578125,0.015869140625,16:46:17.219298
1.2134559999999999,-0.296630859375,0.003662109375,-1.98486328125,0.0164794921875,16:46:17.223017
1.2174439999999995,-0.296630859375,0.0018310546875,-1.98486328125,0.0146484375,16:46:17.227259
1.221432,-0.2960205078125,0.003662109375,-1.9842529296875,0.015869140625,16:46:17.231515
1.2254199999999997,-0.2960205078125,0.0048828125,-1.9842529296875,0.0177001953125,16:46:17.235736
1.2294039999999997,-0.2972412109375,0.0054931640625,-1.9854736328125,0.0177001953125,16:46:17.239777
1.2333920000000003,-0.2960205078125,0.0048828125,-1.98486328125,0.0177001953125,16:46:17.242783
1.23738,-0.2978515625,0.0048828125,-1.9842529296875,0.0140380859375,16:46:17.247950
1.241364,-0.2960205078125,0.006103515625,-1.98486328125,0.015869140625,16:46:17.251023
1.2453719999999997,-0.296630859375,0.0042724609375,-1.983642578125,0.01708984375,16:46:17.252020
1.249364,-0.2972412109375,0.00244140625,-1.9854736328125,0.0146484375,16:46:17.256196
1.253348,-0.2960205078125,0.0030517578125,-1.98486328125,0.0177001953125,16:46:17.260188
1.2573359999999996,-0.2972412109375,0.003662109375,-1.98486328125,0.01708984375,16:46:17.264201
1.2613159999999999,-0.2972412109375,0.001220703125,-1.9854736328125,0.0152587890625,16:46:17.268322
1.2653119999999998,-0.296630859375,0.0030517578125,-1.98486328125,0.0177001953125,16:46:17.272351
1.269292,-0.2972412109375,0.0042724609375,-1.983642578125,0.01708984375,16:46:17.276520
1.273288,-0.2972412109375,0.003662109375,-1.9830322265625,0.0146484375,16:46:17.280769
1.2772679999999994,-0.2960205078125,0.0042724609375,-1.983642578125,0.0146484375,16:46:17.284807
1.2812640000000002,-0.2978515625,0.0054931640625,-1.9842529296875,0.0164794921875,16:46:17.288928
1.2852480000000002,-0.2972412109375,0.0048828125,-1.983642578125,0.0164794921875,16:46:17.292413
1.289224,-0.2972412109375,0.0054931640625,-1.9842529296875,0.0164794921875,16:46:17.297207
1.2932119999999996,-0.296630859375,0.0042724609375,-1.98486328125,0.01708984375,16:46:17.301227
1.2972000000000001,-0.2972412109375,0.0042724609375,-1.98486328125,0.0146484375,16:46:17.304918
1.3011840000000001,-0.2972412109375,0.006103515625,-1.983642578125,0.0146484375,16:46:17.309472
1.3052000000000001,-0.2972412109375,0.0054931640625,-1.983642578125,0.015869140625,16:46:17.313201
1.3091799999999996,-0.2972412109375,0.006103515625,-1.983642578125,0.0152587890625,16:46:17.317656
1.31318,-0.296630859375,0.0048828125,-1.98486328125,0.0146484375,16:46:17.321119
1.3171720000000002,-0.2978515625,0.008544921875,-1.9854736328125,0.0140380859375,16:46:17.325607
1.3211719999999998,-0.296630859375,0.0079345703125,-1.983642578125,0.01708984375,16:46:17.329921
1.3251799999999996,-0.2972412109375,0.0030517578125,-1.9854736328125,0.015869140625,16:46:17.333677
1.3291759999999995,-0.2972412109375,0.0030517578125,-1.98486328125,0.0152587890625,16:46:17.338087
1.3331679999999997,-0.2978515625,0.0030517578125,-1.98486328125,0.0152587890625,16:46:17.341832
1.337148,-0.2960205078125,0.003662109375,-1.98486328125,0.0140380859375,16:46:17.346307
1.3411400000000002,-0.2972412109375,0.0018310546875,-1.9842529296875,0.0146484375,16:46:17.350271
1.3451199999999996,-0.2972412109375,0.0018310546875,-1.98486328125,0.0140380859375,16:46:17.354311
1.3491080000000002,-0.2972412109375,0.0042724609375,-1.986083984375,0.013427734375,16:46:17.358570
1.3530920000000002,-0.2960205078125,0.0054931640625,-1.98486328125,0.01708984375,16:46:17.362322
1.3570799999999998,-0.2978515625,0.0054931640625,-1.9854736328125,0.0177001953125,16:46:17.366745
1.3610679999999995,-0.2972412109375,0.0067138671875,-1.982421875,0.0177001953125,16:46:17.370744
1.3650760000000002,-0.2978515625,0.0054931640625,-1.9854736328125,0.0177001953125,16:46:17.374915
1.3690600000000002,-0.2972412109375,0.0054931640625,-1.98486328125,0.0164794921875,16:46:17.378983
1.3730479999999998,-0.296630859375,0.0042724609375,-1.98486328125,0.0189208984375,16:46:17.382257
1.3770359999999995,-0.296630859375,0.0042724609375,-1.98486328125,0.0152587890625,16:46:17.387023
1.3810279999999997,-0.2972412109375,0.0042724609375,-1.986083984375,0.0164794921875,16:46:17.391288
1.385008,-0.2972412109375,0.003662109375,-1.98486328125,0.0164794921875,16:46:17.395410
1.3889959999999997,-0.2978515625,0.0048828125,-1.98486328125,0.01708984375,16:46:17.398594
1.3929799999999997,-0.296630859375,0.006103515625,-1.98486328125,0.0164794921875,16:46:17.403411
1.3969839999999998,-0.2972412109375,0.0042724609375,-1.986083984375,0.0164794921875,16:46:17.407732
1.4009679999999998,-0.296630859375,0.006103515625,-1.9854736328125,0.0152587890625,16:46:17.411555
1.4049719999999999,-0.2972412109375,0.0030517578125,-1.9842529296875,0.0146484375,16:46:17.415888
1.4089599999999995,-0.296630859375,0.003662109375,-1.983642578125,0.01708984375,16:46:17.415888
1.4129399999999999,-0.2978515625,0.0018310546875,-1.98486328125,0.0146484375,16:46:17.420065
1.4169239999999999,-0.296630859375,0.0030517578125,-1.983642578125,0.015869140625,16:46:17.424232
1.4209119999999995,-0.2960205078125,-0.0006103515625,-1.98486328125,0.0164794921875,16:46:17.428290
1.424912,-0.296630859375,0.0018310546875,-1.9842529296875,0.01708984375,16:46:17.432144
1.428896,-0.296630859375,0.0018310546875,-1.9842529296875,0.0164794921875,16:46:17.436468
1.4328919999999998,-0.299072265625,0.00244140625,-1.9842529296875,0.0152587890625,16:46:17.440517
1.436884,-0.296630859375,0.0042724609375,-1.983642578125,0.015869140625,16:46:17.444221
1.4408719999999997,-0.2972412109375,0.0042724609375,-1.983642578125,0.01708984375,16:46:17.448570
1.4448559999999997,-0.2972412109375,0.003662109375,-1.9842529296875,0.0177001953125,16:46:17.452255
1.448848,-0.296630859375,0.0042724609375,-1.983642578125,0.01708984375,16:46:17.456895
1.452832,-0.296630859375,0.0042724609375,-1.9842529296875,0.015869140625,16:46:17.460317
1.4568199999999996,-0.2978515625,0.0042724609375,-1.9842529296875,0.0152587890625,16:46:17.464904
1.4607999999999999,-0.296630859375,0.0030517578125,-1.9830322265625,0.0152587890625,16:46:17.468991
1.4647879999999995,-0.2972412109375,0.0042724609375,-1.9854736328125,0.013427734375,16:46:17.473068
1.4687719999999995,-0.296630859375,0.003662109375,-1.98486328125,0.0128173828125,16:46:17.477103
1.4727639999999997,-0.2960205078125,0.0048828125,-1.98486328125,0.0152587890625,16:46:17.481196
1.476756,-0.2972412109375,0.0030517578125,-1.98486328125,0.013427734375,16:46:17.485371
1.4807519999999998,-0.296630859375,0.0018310546875,-1.9854736328125,0.0152587890625,16:46:17.489285
1.4847399999999995,-0.2972412109375,0.00244140625,-1.9842529296875,0.0152587890625,16:46:17.493084
1.4887239999999995,-0.2978515625,0.003662109375,-1.983642578125,0.0164794921875,16:46:17.497717
1.4927079999999995,-0.296630859375,0.0030517578125,-1.9842529296875,0.0146484375,16:46:17.502060
1.496696,-0.296630859375,0.003662109375,-1.986083984375,0.0146484375,16:46:17.505746
1.50068,-0.2972412109375,0.0042724609375,-1.98486328125,0.015869140625,16:46:17.510148
1.5046720000000002,-0.2972412109375,0.0042724609375,-1.983642578125,0.018310546875,16:46:17.514024
1.5086680000000001,-0.2972412109375,0.0030517578125,-1.983642578125,0.01708984375,16:46:17.518389
1.5126599999999994,-0.2972412109375,0.0030517578125,-1.98486328125,0.0152587890625,16:46:17.521952
1.5166519999999997,-0.2972412109375,0.0030517578125,-1.9842529296875,0.01708984375,16:46:17.526539
1.5206359999999997,-0.2960205078125,0.0054931640625,-1.983642578125,0.0164794921875,16:46:17.530567
1.5246279999999999,-0.2984619140625,0.0048828125,-1.983642578125,0.015869140625,16:46:17.534707
1.5286159999999995,-0.296630859375,0.006103515625,-1.98486328125,0.015869140625,16:46:17.538770
1.5326399999999998,-0.2972412109375,0.0054931640625,-1.983642578125,0.015869140625,16:46:17.542306
1.5366239999999998,-0.296630859375,0.0054931640625,-1.98486328125,0.0152587890625,16:46:17.546997
1.540604,-0.2972412109375,0.0054931640625,-1.9830322265625,0.0146484375,16:46:17.551024
1.5445919999999997,-0.2972412109375,0.006103515625,-1.986083984375,0.0164794921875,16:46:17.555196
1.5485999999999995,-0.2972412109375,0.0042724609375,-1.98486328125,0.015869140625,16:46:17.559301
1.5525719999999996,-0.296630859375,0.0018310546875,-1.983642578125,0.0146484375,16:46:17.563245
1.5565679999999995,-0.2984619140625,0.003662109375,-1.9830322265625,0.015869140625,16:46:17.567493
1.560556,-0.296630859375,0.0030517578125,-1.9854736328125,0.015869140625,16:46:17.570580
1.5645559999999996,-0.2972412109375,0.003662109375,-1.9842529296875,0.0152587890625,16:46:17.575382
1.5685399999999996,-0.2978515625,0.0042724609375,-1.9854736328125,0.0140380859375,16:46:17.579666
1.5725280000000001,-0.296630859375,0.006103515625,-1.983642578125,0.013427734375,16:46:17.582904
1.5765440000000002,-0.2972412109375,0.0054931640625,-1.98486328125,0.0152587890625,16:46:17.583905
1.5805319999999998,-0.2972412109375,0.0067138671875,-1.9842529296875,0.015869140625,16:46:17.587784
1.5845319999999994,-0.296630859375,0.006103515625,-1.9842529296875,0.015869140625,16:46:17.591736
1.5885359999999995,-0.296630859375,0.003662109375,-1.9830322265625,0.0152587890625,16:46:17.596083
1.592524,-0.296630859375,0.0042724609375,-1.98486328125,0.0164794921875,16:46:17.600120
1.5965119999999997,-0.296630859375,0.0048828125,-1.9830322265625,0.0140380859375,16:46:17.604226
1.6004959999999997,-0.296630859375,0.003662109375,-1.9854736328125,0.0146484375,16:46:17.608398
1.6044919999999996,-0.2972412109375,0.0042724609375,-1.9842529296875,0.0152587890625,16:46:17.611989
1.6084800000000001,-0.296630859375,0.0048828125,-1.983642578125,0.0164794921875,16:46:17.615728
1.6124719999999995,-0.2978515625,0.00244140625,-1.9842529296875,0.0164794921875,16:46:17.620602
1.6164559999999994,-0.2960205078125,0.00244140625,-1.986083984375,0.015869140625,16:46:17.624662
1.620444,-0.296630859375,0.0042724609375,-1.9854736328125,0.01708984375,16:46:17.628787
1.6244319999999997,-0.296630859375,0.0042724609375,-1.9830322265625,0.01708984375,16:46:17.632435
1.6284200000000002,-0.296630859375,0.0054931640625,-1.98486328125,0.015869140625,16:46:17.637082
1.6324119999999995,-0.296630859375,0.0048828125,-1.98486328125,0.015869140625,16:46:17.640794
1.6364039999999997,-0.2972412109375,0.0048828125,-1.9854736328125,0.015869140625,16:46:17.645049
1.6403879999999997,-0.2972412109375,0.0054931640625,-1.9842529296875,0.0140380859375,16:46:17.649290
1.6443719999999997,-0.2978515625,0.0048828125,-1.9866943359375,0.0146484375,16:46:17.653056
1.6483559999999997,-0.2972412109375,0.0054931640625,-1.9842529296875,0.013427734375,16:46:17.657539
1.6523440000000003,-0.2960205078125,0.0054931640625,-1.9842529296875,0.0146484375,16:46:17.661232
1.6563280000000002,-0.296630859375,0.0054931640625,-1.9830322265625,0.0152587890625,16:46:17.665772
1.6603079999999997,-0.2972412109375,0.0054931640625,-1.9842529296875,0.0164794921875,16:46:17.669770
1.6643039999999996,-0.296630859375,0.003662109375,-1.98486328125,0.0152587890625,16:46:17.673774
1.668292,-0.2972412109375,0.00244140625,-1.986083984375,0.01708984375,16:46:17.677563
1.6722799999999998,-0.2972412109375,0.0054931640625,-1.9842529296875,0.015869140625,16:46:17.681778
1.6762679999999994,-0.2978515625,0.0048828125,-1.98486328125,0.01708984375,16:46:17.685967
1.680256,-0.2978515625,0.0042724609375,-1.983642578125,0.01708984375,16:46:17.689929
1.6842439999999996,-0.296630859375,0.0054931640625,-1.9842529296875,0.018310546875,16:46:17.693772
1.6882359999999998,-0.2978515625,0.0048828125,-1.9842529296875,0.0177001953125,16:46:17.698452
1.6922199999999998,-0.296630859375,0.0048828125,-1.9842529296875,0.0152587890625,16:46:17.702043
1.6962039999999998,-0.2972412109375,0.003662109375,-1.9854736328125,0.0164794921875,16:46:17.706691
1.700196,-0.2984619140625,0.0048828125,-1.9854736328125,0.0152587890625,16:46:17.710435
1.7041880000000003,-0.2972412109375,0.0048828125,-1.98486328125,0.0164794921875,16:46:17.714974
1.7081720000000002,-0.2978515625,0.0048828125,-1.9842529296875,0.015869140625,16:46:17.718971
1.7121560000000002,-0.2984619140625,0.003662109375,-1.98486328125,0.015869140625,16:46:17.722978
1.716144,-0.2972412109375,0.0042724609375,-1.986083984375,0.0177001953125,16:46:17.727234
1.7201240000000002,-0.2978515625,0.00244140625,-1.983642578125,0.015869140625,16:46:17.731104
1.7241159999999995,-0.2972412109375,0.003662109375,-1.9842529296875,0.0164794921875,16:46:17.735423
1.7280959999999999,-0.2972412109375,0.003662109375,-1.98486328125,0.015869140625,16:46:17.738661
1.7320839999999995,-0.296630859375,0.0054931640625,-1.9854736328125,0.0146484375,16:46:17.743159
1.736072,-0.2960205078125,0.0054931640625,-1.9842529296875,0.0152587890625,16:46:17.743424
1.7400599999999997,-0.2972412109375,0.006103515625,-1.983642578125,0.0152587890625,16:46:17.747725
1.7440639999999998,-0.2972412109375,0.006103515625,-1.9842529296875,0.015869140625,16:46:17.751662
1.7480760000000002,-0.2978515625,0.006103515625,-1.98486328125,0.0152587890625,16:46:17.755801
