pre_test_note_1,,,,,
weight (g),10.0,,,,
position (cm),10.0,,,,
==================================================================
Time,Strain Ax,Strain Bx,Strain Ay,Strain By,Current Time
0.0,-0.3057861328125,0.0054931640625,-1.9915771484375,0.015869140625,16:46:02.675221
0.0039839999999999876,-0.3070068359375,0.0048828125,-1.9940185546875,0.0140380859375,16:46:02.675221
0.007967999999999975,-0.306396484375,0.0048828125,-1.9927978515625,0.013427734375,16:46:02.676222
0.011947999999999848,-0.303955078125,0.003662109375,-1.9903564453125,0.0146484375,16:46:02.676222
0.015943999999999736,-0.3057861328125,0.0054931640625,-1.9915771484375,0.015869140625,16:46:02.676222
0.019927999999999724,-0.3070068359375,0.0042724609375,-1.990966796875,0.0152587890625,16:46:02.677220
0.023915999999999826,-0.306396484375,0.0042724609375,-1.9921875,0.0140380859375,16:46:02.678216
0.027908000000000044,-0.30517578125,0.0048828125,-1.9903564453125,0.0146484375,16:46:02.678216
0.03189200000000003,-0.3057861328125,0.003662109375,-1.9903564453125,0.0164794921875,16:46:02.678216
0.035892000000000035,-0.3057861328125,0.0042724609375,-1.9921875,0.015869140625,16:46:02.679214
0.03987600000000002,-0.3076171875,0.0042724609375,-1.9921875,0.013427734375,16:46:02.679214
0.04386399999999968,-0.30517578125,0.0054931640625,-1.98974609375,0.0152587890625,16:46:02.680211
0.047851999999999784,-0.30517578125,0.0042724609375,-1.98974609375,0.01708984375,16:46:02.680211
0.05184799999999967,-0.3082275390625,0.006103515625,-1.9921875,0.0152587890625,16:46:02.680211
0.05586399999999969,-0.3076171875,0.0030517578125,-1.9940185546875,0.0140380859375,16:46:02.681208
0.059851999999999794,-0.3057861328125,0.0048828125,-1.990966796875,0.0152587890625,16:46:02.681208
0.06383599999999978,-0.3045654296875,0.0048828125,-1.9903564453125,0.0152587890625,16:46:02.681208
0.06782399999999988,-0.3070068359375,0.006103515625,-1.990966796875,0.01708984375,16:46:02.682205
0.07183199999999967,-0.3094482421875,0.0067138671875,-1.9927978515625,0.013427734375,16:46:02.682205
0.07583999999999991,-0.3070068359375,0.0048828125,-1.990966796875,0.013427734375,16:46:02.682205
0.0798239999999999,-0.30517578125,0.006103515625,-1.990966796875,0.0146484375,16:46:02.683202
0.08384400000000003,-0.3076171875,0.00732421875,-1.9927978515625,0.01708984375,16:46:02.683202
0.08786399999999972,-0.3082275390625,0.0067138671875,-1.99462890625,0.0146484375,16:46:02.683202
0.09187999999999974,-0.3082275390625,0.006103515625,-1.9921875,0.0152587890625,16:46:02.684199
0.09590399999999999,-0.3057861328125,0.00732421875,-1.990966796875,0.018310546875,16:46:02.684199
0.09992399999999968,-0.3076171875,0.0054931640625,-1.9915771484375,0.0164794921875,16:46:02.684199
0.10391199999999978,-0.31005859375,0.0054931640625,-1.9940185546875,0.0177001953125,16:46:02.685196
0.10789599999999977,-0.308837890625,0.0054931640625,-1.9921875,0.015869140625,16:46:02.685196
0.11189199999999966,-0.306396484375,0.0079345703125,-1.990966796875,0.0164794921875,16:46:02.685196
0.11589999999999989,-0.3070068359375,0.008544921875,-1.990966796875,0.015869140625,16:46:02.686194
0.11990799999999968,-0.308837890625,0.0054931640625,-1.9940185546875,0.0140380859375,16:46:02.686194
0.12389599999999978,-0.3094482421875,0.006103515625,-1.9915771484375,0.013427734375,16:46:02.686194
0.1279119999999998,-0.3057861328125,0.0054931640625,-1.990966796875,0.015869140625,16:46:02.687191
0.1318999999999999,-0.306396484375,0.0054931640625,-1.9921875,0.0177001953125,16:46:02.687191
0.135888,-0.3094482421875,0.006103515625,-1.9940185546875,0.0177001953125,16:46:02.687191
0.1399079999999997,-0.31005859375,0.0054931640625,-1.99462890625,0.015869140625,16:46:02.688188
0.14388800000000002,-0.3076171875,0.003662109375,-1.990966796875,0.0164794921875,16:46:02.688188
0.14787599999999967,-0.3070068359375,0.0048828125,-1.9915771484375,0.0189208984375,16:46:02.688188
0.1518679999999999,-0.3094482421875,0.0048828125,-1.993408203125,0.0177001953125,16:46:02.688188
0.15585999999999967,-0.31005859375,0.00244140625,-1.993408203125,0.01708984375,16:46:02.689185
0.15984399999999965,-0.3076171875,0.003662109375,-1.9927978515625,0.0164794921875,16:46:02.689185
0.16383199999999976,-0.3070068359375,0.0048828125,-1.9927978515625,0.0177001953125,16:46:02.689185
0.16781999999999986,-0.3094482421875,0.0079345703125,-1.9921875,0.01708984375,16:46:02.690272
0.17184,-0.31005859375,0.0067138671875,-1.9940185546875,0.015869140625,16:46:02.690272
0.17585999999999968,-0.3076171875,0.0048828125,-1.9915771484375,0.0152587890625,16:46:02.690272
0.17985600000000002,-0.3076171875,0.00732421875,-1.9927978515625,0.015869140625,16:46:02.691304
0.18386799999999992,-0.308837890625,0.0042724609375,-1.99462890625,0.01708984375,16:46:02.691304
0.18785600000000002,-0.3106689453125,0.0030517578125,-1.9952392578125,0.015869140625,16:46:02.691304
0.19184399999999968,-0.3094482421875,0.00244140625,-1.9927978515625,0.015869140625,16:46:02.692302
0.19584000000000001,-0.306396484375,0.0030517578125,-1.9927978515625,0.0177001953125,16:46:02.692302
0.199824,-0.3094482421875,0.0054931640625,-1.99462890625,0.0177001953125,16:46:02.692302
0.203808,-0.3106689453125,0.0054931640625,-1.995849609375,0.01708984375,16:46:02.693300
0.20779599999999965,-0.3094482421875,0.0042724609375,-1.99462890625,0.0152587890625,16:46:02.693300
0.21178799999999987,-0.308837890625,0.006103515625,-1.99462890625,0.0189208984375,16:46:02.693300
0.21580399999999988,-0.3094482421875,0.00732421875,-1.9940185546875,0.0177001953125,16:46:02.694292
0.2198279999999997,-0.311279296875,0.0054931640625,-1.995849609375,0.0164794921875,16:46:02.694292
0.2238159999999998,-0.308837890625,0.0042724609375,-1.99462890625,0.015869140625,16:46:02.694292
0.22779599999999967,-0.3094482421875,0.0030517578125,-1.9927978515625,0.0152587890625,16:46:02.695259
0.23178799999999988,-0.3082275390625,0.006103515625,-1.9940185546875,0.018310546875,16:46:02.695259
0.235792,-0.311279296875,0.0030517578125,-1.99462890625,0.0164794921875,16:46:02.695259
0.23977199999999987,-0.3118896484375,0.003662109375,-1.9940185546875,0.015869140625,16:46:02.696258
0.24377199999999988,-0.3082275390625,0.003662109375,-1.9940185546875,0.0146484375,16:46:02.696258
0.24775599999999987,-0.3076171875,0.0042724609375,-1.9940185546875,0.015869140625,16:46:02.696258
0.25174799999999964,-0.3106689453125,0.0042724609375,-1.99462890625,0.0146484375,16:46:02.697267
0.2557319999999996,-0.3106689453125,0.003662109375,-1.995849609375,0.0128173828125,16:46:02.697267
0.25971999999999973,-0.3094482421875,0.00244140625,-1.993408203125,0.015869140625,16:46:02.698252
0.2637039999999997,-0.3094482421875,0.00244140625,-1.9927978515625,0.0164794921875,16:46:02.698252
0.2676919999999998,-0.31005859375,0.0048828125,-1.9952392578125,0.015869140625,16:46:02.698252
0.2716759999999998,-0.3106689453125,0.003662109375,-1.9952392578125,0.0128173828125,16:46:02.698252
0.275668,-0.31005859375,0.003662109375,-1.99462890625,0.0140380859375,16:46:02.699249
0.2796479999999999,-0.308837890625,0.0048828125,-1.9915771484375,0.0152587890625,16:46:02.699249
0.2836319999999999,-0.3094482421875,0.00732421875,-1.993408203125,0.0128173828125,16:46:02.699249
0.2876479999999999,-0.311279296875,0.0067138671875,-1.995849609375,0.013427734375,16:46:02.700246
0.2916719999999997,-0.3094482421875,0.0042724609375,-1.99462890625,0.0140380859375,16:46:02.700246
0.2956559999999997,-0.308837890625,0.003662109375,-1.9921875,0.015869140625,16:46:02.700246
0.2996479999999999,-0.3094482421875,0.0042724609375,-1.993408203125,0.0152587890625,16:46:02.701243
0.303636,-0.3106689453125,0.0042724609375,-1.9940185546875,0.01220703125,16:46:02.701243
0.3076239999999997,-0.31005859375,0.0048828125,-1.9940185546875,0.0115966796875,16:46:02.701243
0.3115999999999999,-0.3070068359375,0.0048828125,-1.9915771484375,0.01220703125,16:46:02.702240
0.31559199999999965,-0.3076171875,0.0048828125,-1.9915771484375,0.0146484375,16:46:02.702240
0.319588,-0.3094482421875,0.006103515625,-1.99462890625,0.0146484375,16:46:02.702240
0.32359199999999966,-0.31005859375,0.0042724609375,-1.9940185546875,0.013427734375,16:46:02.702240
0.32757999999999976,-0.3070068359375,0.003662109375,-1.990966796875,0.0146484375,16:46:02.703237
0.33156799999999986,-0.3076171875,0.003662109375,-1.9927978515625,0.01708984375,16:46:02.703237
0.33554799999999974,-0.3082275390625,0.003662109375,-1.9940185546875,0.0164794921875,16:46:02.703237
0.33953599999999984,-0.308837890625,0.003662109375,-1.99462890625,0.0177001953125,16:46:02.704234
0.3435199999999998,-0.3070068359375,0.0030517578125,-1.9921875,0.0164794921875,16:46:02.704234
0.34750799999999993,-0.3057861328125,0.0042724609375,-1.990966796875,0.018310546875,16:46:02.704234
0.3515039999999998,-0.308837890625,0.0054931640625,-1.9927978515625,0.0177001953125,16:46:02.705232
0.3554839999999997,-0.3094482421875,0.006103515625,-1.9927978515625,0.0164794921875,16:46:02.705232
0.3594919999999999,-0.3057861328125,0.0042724609375,-1.9915771484375,0.013427734375,16:46:02.705232
0.3634759999999999,-0.306396484375,0.003662109375,-1.990966796875,0.01708984375,16:46:02.706229
0.367464,-0.3070068359375,0.0067138671875,-1.9927978515625,0.015869140625,16:46:02.706229
0.37148000000000003,-0.3076171875,0.00732421875,-1.9927978515625,0.0128173828125,16:46:02.706229
0.37550399999999984,-0.3057861328125,0.00244140625,-1.9915771484375,0.0140380859375,16:46:02.707226
0.37950399999999984,-0.3057861328125,0.0048828125,-1.9903564453125,0.0152587890625,16:46:02.707226
0.38348799999999983,-0.30517578125,0.0067138671875,-1.9915771484375,0.0152587890625,16:46:02.707226
0.38750399999999985,-0.306396484375,0.0067138671875,-1.9927978515625,0.0140380859375,16:46:02.708223
0.39150399999999985,-0.30517578125,0.0054931640625,-1.990966796875,0.015869140625,16:46:02.708223
0.39549199999999995,-0.3057861328125,0.006103515625,-1.9903564453125,0.0152587890625,16:46:02.708223
0.39949599999999963,-0.3070068359375,0.0042724609375,-1.9915771484375,0.0146484375,16:46:02.709220
0.40348799999999985,-0.306396484375,0.003662109375,-1.9915771484375,0.015869140625,16:46:02.709220
0.40747199999999983,-0.30517578125,0.0030517578125,-1.990966796875,0.01708984375,16:46:02.709220
0.4114639999999996,-0.3057861328125,0.0048828125,-1.990966796875,0.01708984375,16:46:02.709220
0.4154439999999999,-0.30517578125,0.006103515625,-1.990966796875,0.0146484375,16:46:02.710217
0.41946799999999973,-0.30517578125,0.0030517578125,-1.990966796875,0.0140380859375,16:46:02.710217
0.4234519999999997,-0.30517578125,0.003662109375,-1.9903564453125,0.015869140625,16:46:02.711215
0.4274399999999998,-0.30517578125,0.00244140625,-1.9903564453125,0.0152587890625,16:46:02.711215
0.4314279999999999,-0.3045654296875,0.0030517578125,-1.9915771484375,0.015869140625,16:46:02.711215
0.4354199999999997,-0.3045654296875,0.0048828125,-1.9903564453125,0.0177001953125,16:46:02.712211
0.4394039999999997,-0.303955078125,0.0048828125,-1.9903564453125,0.0164794921875,16:46:02.712211
0.4433959999999999,-0.302734375,0.0054931640625,-1.9891357421875,0.0146484375,16:46:02.712211
0.447384,-0.3033447265625,0.0048828125,-1.98974609375,0.0164794921875,16:46:02.712211
0.45137199999999966,-0.3033447265625,0.006103515625,-1.9903564453125,0.0146484375,16:46:02.713209
0.4553879999999997,-0.3033447265625,0.0054931640625,-1.988525390625,0.0177001953125,16:46:02.713209
0.4593759999999998,-0.302734375,0.003662109375,-1.9891357421875,0.01708984375,16:46:02.713209
0.46335999999999977,-0.303955078125,0.0048828125,-1.98974609375,0.0164794921875,16:46:02.714206
0.467352,-0.303955078125,0.0048828125,-1.9891357421875,0.0146484375,16:46:02.714206
0.47133999999999965,-0.3033447265625,0.003662109375,-1.9903564453125,0.0177001953125,16:46:02.714206
0.47533199999999987,-0.303955078125,0.0042724609375,-1.9891357421875,0.015869140625,16:46:02.715203
0.47932799999999975,-0.303955078125,0.0048828125,-1.98974609375,0.0152587890625,16:46:02.715203
0.48331599999999986,-0.302734375,0.0048828125,-1.98974609375,0.01708984375,16:46:02.715203
0.48730799999999963,-0.303955078125,0.003662109375,-1.9903564453125,0.0152587890625,16:46:02.715203
0.49128799999999995,-0.3033447265625,0.0030517578125,-1.988525390625,0.015869140625,16:46:02.716200
0.49527199999999993,-0.3033447265625,0.0030517578125,-1.9891357421875,0.0152587890625,16:46:02.716200
0.4992519999999998,-0.3033447265625,0.0042724609375,-1.98974609375,0.0164794921875,16:46:02.716200
0.5032399999999999,-0.303955078125,0.003662109375,-1.9891357421875,0.01708984375,16:46:02.717197
0.5072239999999999,-0.303955078125,0.0042724609375,-1.9891357421875,0.0164794921875,16:46:02.717197
0.511212,-0.3033447265625,0.0042724609375,-1.9891357421875,0.01708984375,16:46:02.717197
0.5152039999999998,-0.303955078125,0.0054931640625,-1.9915771484375,0.0152587890625,16:46:02.717197
0.5191919999999999,-0.3033447265625,0.0067138671875,-1.98974609375,0.015869140625,16:46:02.718194
0.5232079999999999,-0.3033447265625,0.0054931640625,-1.98974609375,0.015869140625,16:46:02.718194
0.5271919999999999,-0.3021240234375,0.0067138671875,-1.9891357421875,0.0146484375,16:46:02.718194
0.5312079999999999,-0.3021240234375,0.003662109375,-1.98974609375,0.0152587890625,16:46:02.719191
0.5351999999999997,-0.303955078125,0.00244140625,-1.9891357421875,0.0152587890625,16:46:02.719191
0.53918,-0.3033447265625,0.0030517578125,-1.98974609375,0.0146484375,16:46:02.719191
0.5431679999999997,-0.3021240234375,0.006103515625,-1.988525390625,0.0164794921875,16:46:02.719191
0.5471679999999997,-0.303955078125,0.006103515625,-1.9891357421875,0.01708984375,16:46:02.720189
0.5511719999999998,-0.302734375,0.0042724609375,-1.9891357421875,0.0146484375,16:46:02.720189
0.5551559999999998,-0.302734375,0.0054931640625,-1.9891357421875,0.0140380859375,16:46:02.720189
0.559148,-0.302734375,0.0030517578125,-1.988525390625,0.0128173828125,16:46:02.721186
0.5631399999999998,-0.3033447265625,0.003662109375,-1.9891357421875,0.015869140625,16:46:02.721186
0.5671279999999999,-0.3021240234375,0.003662109375,-1.98974609375,0.015869140625,16:46:02.721186
0.5711119999999998,-0.3033447265625,0.0048828125,-1.98974609375,0.0152587890625,16:46:02.721186
0.5751,-0.302734375,0.0054931640625,-1.988525390625,0.0152587890625,16:46:02.722183
0.5790799999999998,-0.3021240234375,0.006103515625,-1.98974609375,0.0152587890625,16:46:02.722183
0.5830959999999998,-0.3033447265625,0.0067138671875,-1.98974609375,0.013427734375,16:46:02.722183
0.5870959999999998,-0.303955078125,0.0054931640625,-1.9915771484375,0.013427734375,16:46:02.723180
0.5910839999999999,-0.302734375,0.0048828125,-1.9891357421875,0.015869140625,16:46:02.723180
0.5950759999999997,-0.303955078125,0.0048828125,-1.988525390625,0.015869140625,16:46:02.723180
0.5990599999999997,-0.302734375,0.0048828125,-1.9891357421875,0.0140380859375,16:46:02.723180
0.6030439999999997,-0.301513671875,0.003662109375,-1.9903564453125,0.0140380859375,16:46:02.724177
0.6070319999999998,-0.302734375,0.0042724609375,-1.988525390625,0.0146484375,16:46:02.724177
0.6110159999999998,-0.3033447265625,0.0006103515625,-1.9891357421875,0.0177001953125,16:46:02.724177
0.6150119999999997,-0.3033447265625,0.00244140625,-1.988525390625,0.0164794921875,16:46:02.724177
0.6189959999999997,-0.302734375,0.0030517578125,-1.98974609375,0.0152587890625,16:46:02.725174
0.6229879999999999,-0.302734375,0.001220703125,-1.988525390625,0.015869140625,16:46:02.725174
0.6269799999999996,-0.302734375,0.00244140625,-1.9879150390625,0.01220703125,16:46:02.725174
0.6309559999999999,-0.303955078125,0.003662109375,-1.9891357421875,0.013427734375,16:46:02.726171
0.6349399999999998,-0.3033447265625,0.0042724609375,-1.9891357421875,0.0140380859375,16:46:02.726171
0.6389199999999997,-0.3033447265625,0.00244140625,-1.9879150390625,0.0164794921875,16:46:02.726171
0.6429159999999996,-0.3021240234375,0.0042724609375,-1.988525390625,0.0140380859375,16:46:02.727170
0.6468999999999996,-0.3021240234375,0.0030517578125,-1.9891357421875,0.0140380859375,16:46:02.727170
0.6508919999999998,-0.303955078125,0.00244140625,-1.98974609375,0.0152587890625,16:46:02.727170
0.6548799999999999,-0.302734375,0.003662109375,-1.988525390625,0.0146484375,16:46:02.727170
0.658868,-0.301513671875,0.0042724609375,-1.9891357421875,0.015869140625,16:46:02.728167
0.6628559999999997,-0.302734375,0.0030517578125,-1.9891357421875,0.015869140625,16:46:02.728167
0.6668479999999999,-0.301513671875,0.0042724609375,-1.9891357421875,0.015869140625,16:46:02.728167
0.6708239999999996,-0.3033447265625,0.0054931640625,-1.9891357421875,0.0152587890625,16:46:02.729163
0.6748079999999996,-0.3021240234375,0.0054931640625,-1.988525390625,0.01708984375,16:46:02.729163
0.6787999999999998,-0.3021240234375,0.0048828125,-1.98974609375,0.0152587890625,16:46:02.729163
0.682788,-0.301513671875,0.0054931640625,-1.988525390625,0.0146484375,16:46:02.729163
0.6867759999999996,-0.302734375,0.0054931640625,-1.98974609375,0.0146484375,16:46:02.730160
0.6907719999999999,-0.3021240234375,0.0042724609375,-1.988525390625,0.0152587890625,16:46:02.730160
0.6947599999999996,-0.302734375,0.0048828125,-1.9891357421875,0.0146484375,16:46:02.730160
0.6987519999999998,-0.3021240234375,0.00244140625,-1.988525390625,0.0152587890625,16:46:02.731158
0.7027439999999996,-0.302734375,0.0030517578125,-1.9891357421875,0.0146484375,16:46:02.731158
0.7067319999999997,-0.3021240234375,0.0030517578125,-1.988525390625,0.0146484375,16:46:02.731158
0.7107319999999997,-0.3021240234375,0.003662109375,-1.9879150390625,0.015869140625,16:46:02.731158
0.714712,-0.302734375,0.0042724609375,-1.988525390625,0.0152587890625,16:46:02.732155
0.7187039999999998,-0.301513671875,0.00244140625,-1.9891357421875,0.013427734375,16:46:02.732155
0.7226919999999999,-0.302734375,0.0048828125,-1.988525390625,0.0128173828125,16:46:02.732155
0.72668,-0.3009033203125,0.006103515625,-1.9891357421875,0.013427734375,16:46:02.732155
0.7306759999999999,-0.3021240234375,0.006103515625,-1.98974609375,0.0128173828125,16:46:02.733180
0.734696,-0.302734375,0.006103515625,-1.98974609375,0.013427734375,16:46:02.733180
0.7386999999999997,-0.3033447265625,0.0048828125,-1.988525390625,0.0146484375,16:46:02.733180
0.742696,-0.3021240234375,0.0048828125,-1.9879150390625,0.0146484375,16:46:02.734178
0.7466679999999997,-0.301513671875,0.0042724609375,-1.98974609375,0.0128173828125,16:46:02.734178
0.750664,-0.3021240234375,0.0054931640625,-1.9891357421875,0.013427734375,16:46:02.734178
0.754648,-0.3033447265625,0.0048828125,-1.9879150390625,0.0146484375,16:46:02.734178
0.7586399999999998,-0.301513671875,0.0042724609375,-1.9891357421875,0.015869140625,16:46:02.735177
0.7626199999999996,-0.301513671875,0.00732421875,-1.9891357421875,0.0152587890625,16:46:02.735177
0.7666439999999999,-0.3021240234375,0.0054931640625,-1.9891357421875,0.015869140625,16:46:02.735177
0.770632,-0.3009033203125,0.0054931640625,-1.9879150390625,0.0177001953125,16:46:02.736172
0.774616,-0.3021240234375,0.0048828125,-1.9873046875,0.015869140625,16:46:02.736172
0.7786,-0.302734375,0.00732421875,-1.9873046875,0.0177001953125,16:46:02.736172
0.7826079999999997,-0.3021240234375,0.0054931640625,-1.9879150390625,0.0164794921875,16:46:02.736172
0.7865879999999996,-0.302734375,0.0042724609375,-1.9879150390625,0.01708984375,16:46:02.737170
0.7905759999999997,-0.3021240234375,0.003662109375,-1.988525390625,0.0177001953125,16:46:02.737170
0.7945639999999998,-0.3021240234375,0.0030517578125,-1.9879150390625,0.0177001953125,16:46:02.737170
0.7985599999999997,-0.301513671875,0.00244140625,-1.988525390625,0.0177001953125,16:46:02.738166
0.8025479999999998,-0.301513671875,0.0048828125,-1.9891357421875,0.0164794921875,16:46:02.738166
0.8065399999999996,-0.3009033203125,0.0030517578125,-1.9879150390625,0.015869140625,16:46:02.738166
0.8105239999999996,-0.3009033203125,0.003662109375,-1.988525390625,0.0152587890625,16:46:02.738166
0.8145119999999997,-0.3009033203125,0.0030517578125,-1.9879150390625,0.015869140625,16:46:02.739166
0.8184999999999998,-0.3009033203125,0.0042724609375,-1.9891357421875,0.018310546875,16:46:02.739166
0.822492,-0.301513671875,0.00244140625,-1.988525390625,0.0164794921875,16:46:02.739166
0.8264719999999999,-0.30029296875,0.0042724609375,-1.9879150390625,0.0164794921875,16:46:02.740166
0.8304639999999996,-0.3009033203125,0.0030517578125,-1.9879150390625,0.01708984375,16:46:02.740166
0.8344519999999997,-0.3021240234375,0.0030517578125,-1.9891357421875,0.0152587890625,16:46:02.740166
0.838444,-0.30029296875,0.003662109375,-1.988525390625,0.015869140625,16:46:02.740166
0.842428,-0.301513671875,0.003662109375,-1.9879150390625,0.0152587890625,16:46:02.741161
0.8464159999999996,-0.3009033203125,0.0048828125,-1.9879150390625,0.015869140625,16:46:02.741161
0.8503999999999996,-0.3009033203125,0.0054931640625,-1.98974609375,0.018310546875,16:46:02.741161
0.8543879999999997,-0.3009033203125,0.0042724609375,-1.9879150390625,0.01708984375,16:46:02.742157
0.8583799999999999,-0.3009033203125,0.0054931640625,-1.9879150390625,0.0152587890625,16:46:02.742157
0.8623639999999999,-0.30029296875,0.003662109375,-1.9866943359375,0.0146484375,16:46:02.742157
0.8663479999999999,-0.3009033203125,0.006103515625,-1.9879150390625,0.0152587890625,16:46:02.742157
0.8703639999999999,-0.30029296875,0.006103515625,-1.988525390625,0.0164794921875,16:46:02.743157
0.8743839999999996,-0.301513671875,0.003662109375,-1.9879150390625,0.0164794921875,16:46:02.743157
0.8783719999999997,-0.301513671875,0.0042724609375,-1.9879150390625,0.0164794921875,16:46:02.743157
0.8823599999999998,-0.30029296875,0.003662109375,-1.9891357421875,0.0177001953125,16:46:02.744152
0.8863519999999996,-0.301513671875,0.00244140625,-1.9891357421875,0.0164794921875,16:46:02.744152
0.8903439999999998,-0.301513671875,0.003662109375,-1.9866943359375,0.015869140625,16:46:02.744152
0.8943399999999997,-0.3009033203125,0.0054931640625,-1.988525390625,0.0152587890625,16:46:02.744152
0.8983279999999998,-0.3021240234375,0.0054931640625,-1.988525390625,0.015869140625,16:46:02.745150
0.9023159999999999,-0.301513671875,0.006103515625,-1.9879150390625,0.0146484375,16:46:02.745150
0.9063239999999997,-0.3009033203125,0.006103515625,-1.9873046875,0.0115966796875,16:46:02.745150
0.9103319999999999,-0.3021240234375,0.003662109375,-1.986083984375,0.015869140625,16:46:02.746145
0.9143199999999996,-0.301513671875,0.003662109375,-1.9866943359375,0.0164794921875,16:46:02.746145
0.918304,-0.3009033203125,0.0042724609375,-1.9879150390625,0.0152587890625,16:46:02.746145
0.9222839999999999,-0.301513671875,0.00244140625,-1.9873046875,0.015869140625,16:46:02.746145
0.9262679999999999,-0.3009033203125,0.003662109375,-1.9866943359375,0.0164794921875,16:46:02.747141
0.930256,-0.301513671875,0.0048828125,-1.9873046875,0.015869140625,16:46:02.747141
0.9342439999999996,-0.30029296875,0.0042724609375,-1.9879150390625,0.015869140625,16:46:02.747141
0.93824,-0.30029296875,0.0054931640625,-1.9873046875,0.0164794921875,16:46:02.748137
0.9422119999999996,-0.30029296875,0.0048828125,-1.9873046875,0.0164794921875,16:46:02.748137
0.9461999999999997,-0.30029296875,0.0054931640625,-1.9866943359375,0.018310546875,16:46:02.748137
0.9501839999999997,-0.3009033203125,0.0048828125,-1.988525390625,0.0177001953125,16:46:02.748137
0.9541759999999999,-0.3009033203125,0.003662109375,-1.9873046875,0.0177001953125,16:46:02.749136
0.9581639999999996,-0.3009033203125,0.0042724609375,-1.9866943359375,0.01708984375,16:46:02.749136
0.9621599999999999,-0.3009033203125,0.0048828125,-1.9866943359375,0.0164794921875,16:46:02.749136
0.9661439999999999,-0.3009033203125,0.003662109375,-1.9879150390625,0.0152587890625,16:46:02.750135
0.970132,-0.30029296875,0.0048828125,-1.9873046875,0.0164794921875,16:46:02.750135
0.9741239999999998,-0.2996826171875,0.0048828125,-1.9873046875,0.0152587890625,16:46:02.750135
0.978116,-0.301513671875,0.0030517578125,-1.9873046875,0.0164794921875,16:46:02.750135
0.9821039999999996,-0.301513671875,0.0030517578125,-1.9879150390625,0.015869140625,16:46:02.751132
0.9860879999999996,-0.3009033203125,0.0054931640625,-1.9866943359375,0.015869140625,16:46:02.751132
0.9900759999999997,-0.3009033203125,0.0054931640625,-1.9873046875,0.015869140625,16:46:02.751132
0.9940599999999997,-0.301513671875,0.00244140625,-1.9873046875,0.015869140625,16:46:02.752129
0.9980439999999997,-0.3009033203125,0.0042724609375,-1.9879150390625,0.013427734375,16:46:02.752129
1.0020319999999998,-0.3009033203125,0.0030517578125,-1.9873046875,0.0164794921875,16:46:02.752129
1.00602,-0.3009033203125,0.0042724609375,-1.9866943359375,0.015869140625,16:46:02.752129
1.009992,-0.2996826171875,0.00244140625,-1.986083984375,0.0164794921875,16:46:02.753125
1.0139839999999998,-0.301513671875,0.0018310546875,-1.9879150390625,0.015869140625,16:46:02.753125
1.01796,-0.30029296875,0.0030517578125,-1.9879150390625,0.0164794921875,16:46:02.753125
1.021944,-0.30029296875,0.0030517578125,-1.9879150390625,0.015869140625,16:46:02.754123
1.0259359999999997,-0.299072265625,0.0067138671875,-1.9866943359375,0.015869140625,16:46:02.754123
1.0299399999999999,-0.301513671875,0.006103515625,-1.9879150390625,0.01708984375,16:46:02.754123
1.0339559999999999,-0.301513671875,0.003662109375,-1.986083984375,0.0189208984375,16:46:02.754123
1.0379479999999996,-0.302734375,0.0018310546875,-1.9873046875,0.01708984375,16:46:02.755118
1.0419359999999998,-0.3009033203125,0.0054931640625,-1.986083984375,0.0164794921875,16:46:02.755118
1.0459239999999999,-0.2996826171875,0.0067138671875,-1.988525390625,0.0152587890625,16:46:02.755118
1.0499239999999999,-0.30029296875,0.0054931640625,-1.9879150390625,0.0152587890625,16:46:02.756117
1.0539159999999996,-0.301513671875,0.00732421875,-1.988525390625,0.0146484375,16:46:02.756117
1.0579199999999997,-0.30029296875,0.0067138671875,-1.9866943359375,0.015869140625,16:46:02.756117
1.061928,-0.2996826171875,0.0042724609375,-1.9866943359375,0.015869140625,16:46:02.756117
1.065912,-0.301513671875,0.0048828125,-1.9873046875,0.0152587890625,16:46:02.757113
1.0699039999999997,-0.3009033203125,0.003662109375,-1.9873046875,0.0152587890625,16:46:02.757113
1.0738879999999997,-0.3009033203125,0.0054931640625,-1.9866943359375,0.01708984375,16:46:02.757113
1.07788,-0.3021240234375,0.0030517578125,-1.9879150390625,0.0189208984375,16:46:02.758082
1.0818679999999996,-0.3009033203125,0.0030517578125,-1.9879150390625,0.018310546875,16:46:02.759446
1.0858559999999997,-0.3009033203125,0.0030517578125,-1.9873046875,0.0177001953125,16:46:02.763401
1.0898439999999998,-0.2996826171875,0.0018310546875,-1.9873046875,0.01708984375,16:46:02.767566
1.0938399999999997,-0.301513671875,0.00244140625,-1.9873046875,0.0146484375,16:46:02.771662
1.0978239999999997,-0.301513671875,0.0030517578125,-1.98974609375,0.0140380859375,16:46:02.775797
1.1018079999999997,-0.30029296875,0.0030517578125,-1.9866943359375,0.0140380859375,16:46:02.779984
1.1057959999999998,-0.3009033203125,0.006103515625,-1.9873046875,0.0152587890625,16:46:02.784080
1.109816,-0.2996826171875,0.0067138671875,-1.9866943359375,0.01708984375,16:46:02.788689
1.113832,-0.3009033203125,0.008544921875,-1.9891357421875,0.0152587890625,16:46:02.791680
1.1178559999999997,-0.30029296875,0.006103515625,-1.9873046875,0.01708984375,16:46:02.795669
1.1218759999999994,-0.30029296875,0.003662109375,-1.9873046875,0.015869140625,16:46:02.800173
1.125864,-0.30029296875,0.0048828125,-1.9854736328125,0.0152587890625,16:46:02.803741
1.129848,-0.30029296875,0.0042724609375,-1.9873046875,0.0177001953125,16:46:02.807721
1.1338439999999999,-0.30029296875,0.0030517578125,-1.9866943359375,0.015869140625,16:46:02.811709
1.137836,-0.3009033203125,0.0030517578125,-1.9879150390625,0.0164794921875,16:46:02.816695
1.14182,-0.301513671875,0.003662109375,-1.9866943359375,0.015869140625,16:46:02.820683
1.1458119999999994,-0.30029296875,0.0030517578125,-1.9873046875,0.0152587890625,16:46:02.824672
1.1498080000000002,-0.3009033203125,0.0048828125,-1.986083984375,0.01708984375,16:46:02.828660
1.1537920000000002,-0.30029296875,0.0054931640625,-1.9866943359375,0.0177001953125,16:46:02.832649
1.1577799999999998,-0.30029296875,0.006103515625,-1.986083984375,0.015869140625,16:46:02.836697
1.1617799999999994,-0.30029296875,0.0054931640625,-1.9879150390625,0.015869140625,16:46:02.841293
1.1657719999999996,-0.30029296875,0.0042724609375,-1.9873046875,0.0140380859375,16:46:02.845271
1.1697559999999996,-0.30029296875,0.0030517578125,-1.988525390625,0.0146484375,16:46:02.849549
1.1737479999999998,-0.299072265625,0.0030517578125,-1.9866943359375,0.0140380859375,16:46:02.853474
1.1777319999999998,-0.2996826171875,0.0054931640625,-1.9873046875,0.015869140625,16:46:02.857522
1.1817279999999997,-0.3009033203125,0.0048828125,-1.9866943359375,0.01708984375,16:46:02.861916
1.1857160000000002,-0.30029296875,0.0042724609375,-1.988525390625,0.015869140625,16:46:02.865447
1.1897039999999999,-0.3009033203125,0.003662109375,-1.9866943359375,0.015869140625,16:46:02.870192
1.1936879999999999,-0.2996826171875,0.0048828125,-1.9866943359375,0.01708984375,16:46:02.873928
1.19768,-0.299072265625,0.0042724609375,-1.988525390625,0.0146484375,16:46:02.873928
1.2016679999999997,-0.2984619140625,0.0030517578125,-1.988525390625,0.0152587890625,16:46:02.878328
1.20566,-0.30029296875,0.003662109375,-1.9873046875,0.015869140625,16:46:02.882281
1.2096479999999996,-0.2996826171875,0.0067138671875,-1.9866943359375,0.0152587890625,16:46:02.886564
1.2136519999999997,-0.3009033203125,0.0079345703125,-1.9873046875,0.015869140625,16:46:02.890599
1.2176559999999998,-0.30029296875,0.008544921875,-1.9879150390625,0.015869140625,16:46:02.894390
1.2216639999999996,-0.30029296875,0.00732421875,-1.98486328125,0.0177001953125,16:46:02.898158
1.2256679999999998,-0.30029296875,0.0048828125,-1.9866943359375,0.0189208984375,16:46:02.902720
1.2296559999999994,-0.30029296875,0.0042724609375,-1.9879150390625,0.01708984375,16:46:02.906408
1.233644,-0.299072265625,0.0054931640625,-1.9866943359375,0.01708984375,16:46:02.910648
1.2376360000000002,-0.30029296875,0.0048828125,-1.9873046875,0.0164794921875,16:46:02.914407
1.2416239999999998,-0.2984619140625,0.003662109375,-1.986083984375,0.01708984375,16:46:02.918941
1.2456079999999998,-0.30029296875,0.0048828125,-1.9879150390625,0.015869140625,16:46:02.922861
1.2495919999999998,-0.3009033203125,0.0054931640625,-1.9866943359375,0.01708984375,16:46:02.926752
1.253584,-0.30029296875,0.0054931640625,-1.9873046875,0.015869140625,16:46:02.931450
1.257568,-0.2996826171875,0.0042724609375,-1.9866943359375,0.0146484375,16:46:02.935083
1.261564,-0.30029296875,0.00732421875,-1.9866943359375,0.0164794921875,16:46:02.939711
1.2655759999999994,-0.2996826171875,0.0054931640625,-1.9873046875,0.01708984375,16:46:02.943702
1.269564,-0.30029296875,0.0054931640625,-1.9879150390625,0.01708984375,16:46:02.947922
1.2735560000000001,-0.30029296875,0.0042724609375,-1.9866943359375,0.015869140625,16:46:02.951961
1.2775400000000001,-0.299072265625,0.0054931640625,-1.9866943359375,0.0146484375,16:46:02.955982
1.281524,-0.299072265625,0.0054931640625,-1.9866943359375,0.015869140625,16:46:02.959732
1.2855159999999994,-0.2996826171875,0.0030517578125,-1.9873046875,0.0152587890625,16:46:02.963907
1.2895079999999997,-0.299072265625,0.0018310546875,-1.9866943359375,0.0146484375,16:46:02.967587
1.293488,-0.2996826171875,0.0018310546875,-1.986083984375,0.0152587890625,16:46:02.972377
1.297492,-0.30029296875,0.0018310546875,-1.9873046875,0.0152587890625,16:46:02.976370
1.3014799999999997,-0.2984619140625,0.0018310546875,-1.9879150390625,0.0177001953125,16:46:02.980489
1.3054679999999994,-0.2996826171875,0.00244140625,-1.986083984375,0.0152587890625,16:46:02.984742
1.3094479999999997,-0.2996826171875,0.00244140625,-1.9866943359375,0.01708984375,16:46:02.988745
1.3134359999999994,-0.299072265625,0.003662109375,-1.986083984375,0.0177001953125,16:46:02.992637
1.3174199999999994,-0.2996826171875,0.00244140625,-1.9873046875,0.0146484375,16:46:02.996086
1.321408,-0.30029296875,0.003662109375,-1.9854736328125,0.01708984375,16:46:03.001196
1.3253959999999996,-0.299072265625,0.0030517578125,-1.9854736328125,0.0164794921875,16:46:03.004577
1.3293840000000001,-0.2984619140625,0.003662109375,-1.9854736328125,0.015869140625,16:46:03.009227
1.3333719999999998,-0.2984619140625,0.0048828125,-1.9873046875,0.0140380859375,16:46:03.013435
1.3373599999999994,-0.2984619140625,0.0030517578125,-1.986083984375,0.0152587890625,16:46:03.016502
1.341348,-0.2984619140625,0.003662109375,-1.9866943359375,0.01708984375,16:46:03.020495
1.3453400000000002,-0.299072265625,0.0042724609375,-1.9854736328125,0.0146484375,16:46:03.025478
1.3493279999999999,-0.299072265625,0.0054931640625,-1.986083984375,0.0177001953125,16:46:03.029473
1.3533159999999995,-0.30029296875,0.0067138671875,-1.9854736328125,0.0177001953125,16:46:03.033573
1.3573319999999995,-0.2978515625,0.006103515625,-1.9873046875,0.0146484375,16:46:03.036990
1.3613479999999996,-0.2984619140625,0.00244140625,-1.9854736328125,0.0152587890625,16:46:03.041746
1.3653319999999995,-0.2996826171875,0.0030517578125,-1.986083984375,0.0164794921875,16:46:03.041746
1.36932,-0.2978515625,0.003662109375,-1.9866943359375,0.01708984375,16:46:03.045820
1.3733119999999994,-0.2984619140625,0.003662109375,-1.986083984375,0.01708984375,16:46:03.050074
1.3773,-0.2996826171875,0.0042724609375,-1.9854736328125,0.015869140625,16:46:03.054152
1.3812879999999996,-0.2984619140625,0.006103515625,-1.9866943359375,0.018310546875,16:46:03.057820
1.3853119999999999,-0.299072265625,0.0067138671875,-1.986083984375,0.01953125,16:46:03.062217
1.389328,-0.299072265625,0.0042724609375,-1.986083984375,0.0177001953125,16:46:03.066219
1.3933159999999996,-0.2996826171875,0.0054931640625,-1.986083984375,0.0189208984375,16:46:03.070595
1.397304,-0.299072265625,0.003662109375,-1.9879150390625,0.018310546875,16:46:03.074876
1.4012919999999998,-0.2984619140625,0.006103515625,-1.9866943359375,0.0189208984375,16:46:03.078956
1.4052920000000002,-0.2996826171875,0.0048828125,-1.9873046875,0.018310546875,16:46:03.082756
1.4092839999999995,-0.2996826171875,0.0030517578125,-1.98486328125,0.0164794921875,16:46:03.086959
1.413272,-0.2978515625,0.0054931640625,-1.9873046875,0.0152587890625,16:46:03.091228
1.4172639999999994,-0.2984619140625,0.006103515625,-1.986083984375,0.0146484375,16:46:03.095296
1.4212759999999998,-0.2984619140625,0.006103515625,-1.9854736328125,0.0146484375,16:46:03.099428
1.4252959999999995,-0.2984619140625,0.0054931640625,-1.986083984375,0.0146484375,16:46:03.103462
1.429284,-0.2978515625,0.00244140625,-1.986083984375,0.013427734375,16:46:03.106772
1.433268,-0.299072265625,0.0054931640625,-1.986083984375,0.0164794921875,16:46:03.111687
1.4372559999999996,-0.2984619140625,0.0042724609375,-1.986083984375,0.01708984375,16:46:03.115728
1.4412440000000002,-0.2984619140625,0.0018310546875,-1.9854736328125,0.0164794921875,16:46:03.119982
1.4452280000000002,-0.299072265625,0.0018310546875,-1.98486328125,0.0146484375,16:46:03.123368
1.449224,-0.299072265625,0.00244140625,-1.986083984375,0.0146484375,16:46:03.127677
1.4532119999999997,-0.2984619140625,0.0030517578125,-1.986083984375,0.0140380859375,16:46:03.132222
1.4571959999999997,-0.2984619140625,0.0030517578125,-1.986083984375,0.0146484375,16:46:03.135535
1.4611799999999997,-0.299072265625,0.003662109375,-1.986083984375,0.01708984375,16:46:03.140249
1.4651759999999996,-0.2984619140625,0.0042724609375,-1.9873046875,0.0164794921875,16:46:03.144202
1.4691599999999996,-0.2984619140625,0.0048828125,-1.9866943359375,0.015869140625,16:46:03.148281
1.4731480000000001,-0.299072265625,0.003662109375,-1.986083984375,0.018310546875,16:46:03.152495
1.4771279999999996,-0.2978515625,0.0042724609375,-1.9854736328125,0.0164794921875,16:46:03.156425
1.4811199999999998,-0.299072265625,0.006103515625,-1.9866943359375,0.0177001953125,16:46:03.160387
1.4851199999999993,-0.299072265625,0.006103515625,-1.9854736328125,0.01708984375,16:46:03.164551
1.4891359999999993,-0.2978515625,0.0054931640625,-1.986083984375,0.015869140625,16:46:03.168701
1.493112,-0.299072265625,0.0048828125,-1.986083984375,0.015869140625,16:46:03.172799
1.4971039999999993,-0.2978515625,0.0042724609375,-1.9866943359375,0.0164794921875,16:46:03.176876
1.5010919999999999,-0.2984619140625,0.0054931640625,-1.986083984375,0.0164794921875,16:46:03.180998
1.505084,-0.2984619140625,0.0042724609375,-1.986083984375,0.0164794921875,16:46:03.185108
1.5090719999999997,-0.2984619140625,0.0030517578125,-1.98486328125,0.0164794921875,16:46:03.189173
1.513064,-0.299072265625,0.0030517578125,-1.9866943359375,0.0164794921875,16:46:03.193177
1.5170560000000002,-0.2984619140625,0.003662109375,-1.986083984375,0.01708984375,16:46:03.197253
1.5210479999999995,-0.2984619140625,0.0018310546875,-1.9854736328125,0.0152587890625,16:46:03.201499
1.525036,-0.2972412109375,0.001220703125,-1.9854736328125,0.013427734375,16:46:03.205251
1.5290279999999994,-0.2984619140625,0.00244140625,-1.986083984375,0.0140380859375,16:46:03.209643
1.533016,-0.2978515625,0.0030517578125,-1.9854736328125,0.013427734375,16:46:03.213769
1.537,-0.299072265625,0.0042724609375,-1.9854736328125,0.01220703125,16:46:03.213769
1.5409879999999996,-0.2984619140625,0.0067138671875,-1.98486328125,0.0140380859375,16:46:03.217515
1.5450039999999996,-0.299072265625,0.006103515625,-1.9873046875,0.0146484375,16:46:03.221702
1.5490199999999996,-0.299072265625,0.0054931640625,-1.9866943359375,0.0146484375,16:46:03.225580
1.5530119999999998,-0.2978515625,0.0048828125,-1.9873046875,0.01220703125,16:46:03.230318
1.5569999999999995,-0.299072265625,0.0030517578125,-1.9873046875,0.0140380859375,16:46:03.233821
1.5609919999999997,-0.299072265625,0.0054931640625,-1.9854736328125,0.0140380859375,16:46:03.238229
1.5649759999999997,-0.2996826171875,0.0042724609375,-1.986083984375,0.0152587890625,16:46:03.242567
1.568968,-0.299072265625,0.0054931640625,-1.9873046875,0.013427734375,16:46:03.246097
1.5729559999999996,-0.2996826171875,0.0048828125,-1.986083984375,0.0140380859375,16:46:03.250507
1.5769519999999995,-0.2996826171875,0.0042724609375,-1.9866943359375,0.013427734375,16:46:03.254539
1.5809439999999997,-0.299072265625,0.0048828125,-1.986083984375,0.0164794921875,16:46:03.258962
1.5849319999999993,-0.30029296875,0.0054931640625,-1.9866943359375,0.0146484375,16:46:03.262931
1.5889159999999993,-0.30029296875,0.0054931640625,-1.9873046875,0.013427734375,16:46:03.266484
1.5929039999999999,-0.30029296875,0.0048828125,-1.9879150390625,0.0140380859375,16:46:03.271266
1.5968879999999999,-0.3009033203125,0.0042724609375,-1.988525390625,0.0128173828125,16:46:03.275092
1.6008719999999999,-0.3021240234375,0.0054931640625,-1.988525390625,0.013427734375,16:46:03.279590
1.6048679999999997,-0.301513671875,0.0054931640625,-1.9891357421875,0.013427734375,16:46:03.283818
1.6088399999999998,-0.3021240234375,0.0054931640625,-1.9891357421875,0.0128173828125,16:46:03.287186
1.612832,-0.3033447265625,0.0042724609375,-1.990966796875,0.0128173828125,16:46:03.291827
1.616816,-0.3033447265625,0.0042724609375,-1.9903564453125,0.0152587890625,16:46:03.296090
1.6208079999999994,-0.302734375,0.0048828125,-1.990966796875,0.0152587890625,16:46:03.300030
1.624796,-0.303955078125,0.006103515625,-1.98974609375,0.0177001953125,16:46:03.303865
1.6288159999999996,-0.30517578125,0.0048828125,-1.9915771484375,0.01708984375,16:46:03.308012
1.6327999999999996,-0.30517578125,0.003662109375,-1.9921875,0.015869140625,16:46:03.312210
1.6367880000000001,-0.3076171875,0.0030517578125,-1.993408203125,0.0152587890625,16:46:03.315653
1.6407720000000001,-0.3094482421875,0.003662109375,-1.993408203125,0.01708984375,16:46:03.320568
1.6447639999999994,-0.308837890625,0.003662109375,-1.993408203125,0.0152587890625,16:46:03.324251
1.6487479999999994,-0.31005859375,0.0030517578125,-1.9940185546875,0.0152587890625,16:46:03.328775
1.652736,-0.311279296875,0.0048828125,-1.9952392578125,0.0164794921875,16:46:03.332820
1.6567239999999996,-0.3131103515625,0.0042724609375,-1.995849609375,0.015869140625,16:46:03.335893
1.6607079999999996,-0.31494140625,0.0054931640625,-1.9976806640625,0.0189208984375,16:46:03.341027
1.6646919999999996,-0.318603515625,0.0067138671875,-2.000732421875,0.01708984375,16:46:03.345033
1.6687159999999999,-0.321044921875,0.0048828125,-2.000732421875,0.015869140625,16:46:03.348738
1.6727039999999995,-0.3228759765625,0.0067138671875,-2.001953125,0.0152587890625,16:46:03.352993
1.6767199999999995,-0.32470703125,0.0067138671875,-2.0037841796875,0.0164794921875,16:46:03.356380
1.6807159999999994,-0.3265380859375,0.006103515625,-2.00439453125,0.0164794921875,16:46:03.360958
1.6847399999999997,-0.328369140625,0.003662109375,-2.0068359375,0.0177001953125,16:46:03.365265
1.6887119999999998,-0.32958984375,0.0030517578125,-2.0062255859375,0.01708984375,16:46:03.369548
1.6927079999999997,-0.32958984375,0.0048828125,-2.0074462890625,0.0152587890625,16:46:03.373497
1.696688,-0.3326416015625,0.0048828125,-2.00927734375,0.0164794921875,16:46:03.377499
1.7006839999999999,-0.33447265625,0.0054931640625,-2.0111083984375,0.0164794921875,16:46:03.381817
1.7046719999999995,-0.3363037109375,0.0048828125,-2.0111083984375,0.0177001953125,16:46:03.381817
1.7086639999999997,-0.3369140625,0.006103515625,-2.0123291015625,0.01708984375,16:46:03.385507
1.7126799999999998,-0.33935546875,0.006103515625,-2.0147705078125,0.0152587890625,16:46:03.390222
1.716692,-0.3399658203125,0.0067138671875,-2.0147705078125,0.0146484375,16:46:03.393811
1.7206959999999993,-0.3424072265625,0.00732421875,-2.01416015625,0.0146484375,16:46:03.398358
1.724704,-0.343017578125,0.0048828125,-2.0172119140625,0.0140380859375,16:46:03.402401
1.7287,-0.3448486328125,0.003662109375,-2.0172119140625,0.0140380859375,16:46:03.406351
1.7326920000000001,-0.3460693359375,0.001220703125,-2.0208740234375,0.0146484375,16:46:03.410519
1.736688,-0.3466796875,0.0018310546875,-2.0196533203125,0.013427734375,16:46:03.414454
1.7406759999999997,-0.3472900390625,0.0030517578125,-2.0208740234375,0.013427734375,16:46:03.418603
1.7446599999999997,-0.3497314453125,0.003662109375,-2.0220947265625,0.0152587890625,16:46:03.422745
1.74864,-0.350341796875,0.003662109375,-2.02392578125,0.0164794921875,16:46:03.426974
1.752624,-0.352783203125,0.0042724609375,-2.022705078125,0.015869140625,16:46:03.431095
1.7566119999999996,-0.3533935546875,0.0054931640625,-2.0233154296875,0.0146484375,16:46:03.434993
1.7605959999999996,-0.35400390625,0.003662109375,-2.025146484375,0.015869140625,16:46:03.438940
1.7645840000000002,-0.3558349609375,0.006103515625,-2.025146484375,0.0152587890625,16:46:03.443130
1.7685879999999994,-0.3564453125,0.0054931640625,-2.0263671875,0.0152587890625,16:46:03.446673
1.772576,-0.35888671875,0.0018310546875,-2.025146484375,0.0152587890625,16:46:03.451173
1.77656,-0.35888671875,0.003662109375,-2.027587890625,0.0152587890625,16:46:03.455191
1.7805520000000001,-0.361328125,0.0030517578125,-2.0281982421875,0.01708984375,16:46:03.459756
1.7845399999999998,-0.360107421875,0.00244140625,-2.02880859375,0.01708984375,16:46:03.463572
1.7885279999999995,-0.3619384765625,0.006103515625,-2.0318603515625,0.0177001953125,16:46:03.467510
1.7925439999999995,-0.362548828125,0.003662109375,-2.02880859375,0.01708984375,16:46:03.471534
1.796532,-0.362548828125,0.0042724609375,-2.03125,0.015869140625,16:46:03.475684
1.8005199999999997,-0.3656005859375,0.006103515625,-2.0318603515625,0.0152587890625,16:46:03.480033
1.8045200000000001,-0.3656005859375,0.0030517578125,-2.0306396484375,0.0152587890625,16:46:03.484620
1.8085079999999998,-0.3662109375,0.0030517578125,-2.0330810546875,0.013427734375,16:46:03.488298
1.8125039999999997,-0.367431640625,0.0030517578125,-2.03369140625,0.0164794921875,16:46:03.492216
1.8164919999999993,-0.369873046875,0.0042724609375,-2.034912109375,0.015869140625,16:46:03.496351
1.8204839999999995,-0.3692626953125,0.0042724609375,-2.0355224609375,0.0177001953125,16:46:03.500740
1.824472,-0.3704833984375,0.0042724609375,-2.0361328125,0.0152587890625,16:46:03.504818
1.8284639999999994,-0.3717041015625,0.0054931640625,-2.0367431640625,0.01708984375,16:46:03.508981
1.8324479999999994,-0.3729248046875,0.0042724609375,-2.03857421875,0.0164794921875,16:46:03.512777
1.8364399999999996,-0.374755859375,0.0042724609375,-2.03857421875,0.0177001953125,16:46:03.516394
1.8404280000000002,-0.3765869140625,0.0048828125,-2.039794921875,0.018310546875,16:46:03.521245
1.844424,-0.3765869140625,0.0054931640625,-2.0391845703125,0.01708984375,16:46:03.525323
1.848408,-0.37841796875,0.0054931640625,-2.0428466796875,0.01708984375,16:46:03.529438
1.8523999999999994,-0.379638671875,0.0048828125,-2.0404052734375,0.01708984375,16:46:03.533040
1.8563919999999996,-0.380859375,0.003662109375,-2.04345703125,0.015869140625,16:46:03.536936
1.8603800000000001,-0.3814697265625,0.0030517578125,-2.04345703125,0.015869140625,16:46:03.541389
1.8643679999999998,-0.38330078125,0.0048828125,-2.0465087890625,0.01708984375,16:46:03.545114
1.86836,-0.3826904296875,0.0054931640625,-2.0458984375,0.0164794921875,16:46:03.549805
1.8723479999999997,-0.3851318359375,0.006103515625,-2.0465087890625,0.0164794921875,16:46:03.553644
1.8763439999999996,-0.3857421875,0.0042724609375,-2.0465087890625,0.018310546875,16:46:03.553644
1.8803399999999995,-0.386962890625,0.0054931640625,-2.0477294921875,0.01708984375,16:46:03.557959
1.8843239999999994,-0.3875732421875,0.0030517578125,-2.04833984375,0.0164794921875,16:46:03.562504
1.888324,-0.389404296875,0.00244140625,-2.04833984375,0.015869140625,16:46:03.565463
1.8922999999999996,-0.390625,0.00244140625,-2.0501708984375,0.0152587890625,16:46:03.570258
1.8962919999999999,-0.391845703125,0.0048828125,-2.05078125,0.015869140625,16:46:03.573940
1.9002759999999999,-0.391845703125,0.0042724609375,-2.05078125,0.0140380859375,16:46:03.578159
1.9042639999999995,-0.3924560546875,0.0054931640625,-2.0501708984375,0.01220703125,16:46:03.582569
1.908252,-0.391845703125,0.006103515625,-2.04833984375,0.0140380859375,16:46:03.586800
1.9122719999999997,-0.3924560546875,0.006103515625,-2.0526123046875,0.0146484375,16:46:03.590762
1.9162679999999996,-0.3924560546875,0.0048828125,-2.049560546875,0.015869140625,16:46:03.594754
1.9202639999999995,-0.3936767578125,0.0030517578125,-2.052001953125,0.0152587890625,16:46:03.598860
1.924252,-0.3961181640625,0.0042724609375,-2.05322265625,0.015869140625,16:46:03.602925
1.928248,-0.396728515625,0.0030517578125,-2.052001953125,0.01708984375,16:46:03.606530
1.9322359999999996,-0.3973388671875,0.0042724609375,-2.0538330078125,0.01708984375,16:46:03.610945
1.9362279999999998,-0.3985595703125,0.003662109375,-2.054443359375,0.0152587890625,16:46:03.615068
1.9402119999999998,-0.399169921875,0.0042724609375,-2.0562744140625,0.015869140625,16:46:03.619329
1.9441999999999995,-0.400390625,0.001220703125,-2.0574951171875,0.0140380859375,16:46:03.622741
1.948188,-0.400390625,0.0048828125,-2.0574951171875,0.0146484375,16:46:03.627413
1.9521759999999997,-0.401611328125,0.0042724609375,-2.0562744140625,0.0152587890625,16:46:03.631502
1.9561599999999997,-0.401611328125,0.00244140625,-2.056884765625,0.0146484375,16:46:03.635995
1.960152,-0.40283203125,0.0042724609375,-2.056884765625,0.015869140625,16:46:03.639309
1.9641359999999999,-0.4010009765625,0.0048828125,-2.0587158203125,0.0146484375,16:46:03.643295
1.9681239999999995,-0.40283203125,0.0048828125,-2.0587158203125,0.0152587890625,16:46:03.648005
1.972112,-0.401611328125,0.0048828125,-2.0574951171875,0.0177001953125,16:46:03.652179
1.9760999999999997,-0.4022216796875,0.0054931640625,-2.05810546875,0.0164794921875,16:46:03.658975
1.980092,-0.401611328125,0.0054931640625,-2.0587158203125,0.0164794921875,16:46:03.660183
1.9840840000000002,-0.401611328125,0.006103515625,-2.0574951171875,0.018310546875,16:46:03.664306
1.9880999999999993,-0.4022216796875,0.0079345703125,-2.0574951171875,0.015869140625,16:46:03.668738
1.9921159999999993,-0.401611328125,0.0067138671875,-2.0562744140625,0.0164794921875,16:46:03.671732
1.9961159999999998,-0.4010009765625,0.0042724609375,-2.0599365234375,0.0152587890625,16:46:03.676580
2.0001039999999994,-0.4010009765625,0.006103515625,-2.0562744140625,0.0146484375,16:46:03.680867
2.0041079999999996,-0.4022216796875,0.0054931640625,-2.0574951171875,0.0152587890625,16:46:03.684785
2.008108,-0.401611328125,0.0048828125,-2.05810546875,0.015869140625,16:46:03.689017
2.0120999999999993,-0.4022216796875,0.0042724609375,-2.0587158203125,0.0146484375,16:46:03.693091
2.016088,-0.4034423828125,0.003662109375,-2.0574951171875,0.0152587890625,16:46:03.697034
2.020072,-0.4022216796875,0.003662109375,-2.0587158203125,0.0152587890625,16:46:03.701389
2.024064,-0.40283203125,0.0054931640625,-2.059326171875,0.0146484375,16:46:03.705437
2.028048,-0.40283203125,0.0042724609375,-2.0587158203125,0.015869140625,16:46:03.709602
2.0320359999999997,-0.4034423828125,0.0042724609375,-2.0587158203125,0.0164794921875,16:46:03.713562
2.0360239999999994,-0.40283203125,0.0018310546875,-2.0574951171875,0.015869140625,16:46:03.717479
2.04002,-0.40283203125,0.0030517578125,-2.05810546875,0.0146484375,16:46:03.721555
2.044004,-0.4022216796875,0.0042724609375,-2.0599365234375,0.013427734375,16:46:03.721555
2.047992,-0.40283203125,0.0042724609375,-2.0587158203125,0.0152587890625,16:46:03.725754
2.051984,-0.4046630859375,0.0048828125,-2.059326171875,0.0146484375,16:46:03.729753
2.0559639999999995,-0.4034423828125,0.0048828125,-2.05810546875,0.0152587890625,16:46:03.733799
2.0599479999999994,-0.4034423828125,0.003662109375,-2.05810546875,0.015869140625,16:46:03.738222
2.0639319999999994,-0.4034423828125,0.003662109375,-2.0611572265625,0.0152587890625,16:46:03.742280
2.06792,-0.4034423828125,0.0042724609375,-2.059326171875,0.0146484375,16:46:03.746382
2.071904,-0.4034423828125,0.0048828125,-2.05810546875,0.0164794921875,16:46:03.750748
2.0758919999999996,-0.4022216796875,0.0048828125,-2.05810546875,0.0146484375,16:46:03.754913
2.079884,-0.404052734375,0.0042724609375,-2.059326171875,0.0146484375,16:46:03.758715
2.0838719999999995,-0.4034423828125,0.0042724609375,-2.059326171875,0.013427734375,16:46:03.763180
2.08786,-0.4046630859375,0.0067138671875,-2.0587158203125,0.0146484375,16:46:03.766835
2.0918799999999997,-0.4034423828125,0.0054931640625,-2.059326171875,0.0146484375,16:46:03.770958
2.0958639999999997,-0.4046630859375,0.0054931640625,-2.059326171875,0.013427734375,16:46:03.775074
2.099856,-0.4034423828125,0.006103515625,-2.0587158203125,0.013427734375,16:46:03.779140
2.103872,-0.404052734375,0.0048828125,-2.0599365234375,0.0152587890625,16:46:03.783041
2.1078599999999996,-0.4046630859375,0.00244140625,-2.05810546875,0.015869140625,16:46:03.787088
2.111848,-0.4034423828125,0.003662109375,-2.059326171875,0.0146484375,16:46:03.791432
2.1158399999999995,-0.404052734375,0.00244140625,-2.0599365234375,0.015869140625,16:46:03.795590
2.11982,-0.404052734375,0.0042724609375,-2.0599365234375,0.01708984375,16:46:03.799579
2.1238199999999994,-0.4034423828125,0.0042724609375,-2.059326171875,0.0152587890625,16:46:03.803529
2.1278119999999996,-0.4046630859375,0.0054931640625,-2.0611572265625,0.0177001953125,16:46:03.807940
2.131804,-0.404052734375,0.0048828125,-2.059326171875,0.015869140625,16:46:03.811993
2.135796,-0.404052734375,0.0042724609375,-2.0599365234375,0.0177001953125,16:46:03.816274
2.1397839999999997,-0.404052734375,0.003662109375,-2.059326171875,0.01708984375,16:46:03.820204
2.1437679999999997,-0.4052734375,0.001220703125,-2.0599365234375,0.015869140625,16:46:03.823855
2.1477559999999993,-0.404052734375,0.00244140625,-2.059326171875,0.0164794921875,16:46:03.828356
2.1517399999999993,-0.4052734375,0.00244140625,-2.060546875,0.015869140625,16:46:03.832502
2.1557239999999993,-0.4034423828125,0.003662109375,-2.059326171875,0.0164794921875,16:46:03.836572
2.15972,-0.404052734375,0.0042724609375,-2.059326171875,0.0146484375,16:46:03.840642
2.1637079999999997,-0.404052734375,0.003662109375,-2.060546875,0.013427734375,16:46:03.844831
2.1676959999999994,-0.4046630859375,0.0042724609375,-2.0599365234375,0.015869140625,16:46:03.848887
2.171684,-0.4046630859375,0.0048828125,-2.05810546875,0.015869140625,16:46:03.852155
2.175668,-0.4046630859375,0.003662109375,-2.0587158203125,0.0152587890625,16:46:03.856574
2.1796559999999996,-0.4046630859375,0.0042724609375,-2.0599365234375,0.0152587890625,16:46:03.861132
2.183644,-0.4058837890625,0.0018310546875,-2.059326171875,0.015869140625,16:46:03.865249
2.187628,-0.4052734375,0.0018310546875,-2.05810546875,0.0152587890625,16:46:03.869400
2.191616,-0.404052734375,0.00244140625,-2.059326171875,0.0164794921875,16:46:03.872766
2.1955999999999998,-0.4046630859375,0.0030517578125,-2.061767578125,0.0164794921875,16:46:03.877212
2.1995959999999997,-0.4058837890625,0.0048828125,-2.0611572265625,0.0164794921875,16:46:03.881550
2.203588,-0.404052734375,0.0042724609375,-2.060546875,0.0146484375,16:46:03.885630
2.2075759999999995,-0.406494140625,0.0042724609375,-2.0611572265625,0.013427734375,16:46:03.886256
2.211564,-0.406494140625,0.0048828125,-2.060546875,0.013427734375,16:46:03.889253
2.2155519999999997,-0.406494140625,0.006103515625,-2.060546875,0.0164794921875,16:46:03.893744
2.2195679999999998,-0.4058837890625,0.00732421875,-2.0611572265625,0.015869140625,16:46:03.897886
2.223584,-0.4058837890625,0.0079345703125,-2.060546875,0.01708984375,16:46:03.901923
2.227596,-0.4071044921875,0.0048828125,-2.061767578125,0.018310546875,16:46:03.906054
2.2315879999999995,-0.40771484375,0.0054931640625,-2.0611572265625,0.01708984375,16:46:03.910158
2.2355839999999993,-0.4071044921875,0.0054931640625,-2.06298828125,0.018310546875,16:46:03.914639
2.239584,-0.406494140625,0.0042724609375,-2.060546875,0.0177001953125,16:46:03.918348
2.243576,-0.406494140625,0.0042724609375,-2.061767578125,0.01708984375,16:46:03.922451
2.2475679999999993,-0.4071044921875,0.0048828125,-2.0611572265625,0.0164794921875,16:46:03.926491
2.251556,-0.4083251953125,0.0042724609375,-2.0623779296875,0.0164794921875,16:46:03.930674
2.25554,-0.40771484375,0.0030517578125,-2.0611572265625,0.0152587890625,16:46:03.934898
2.2595279999999995,-0.4071044921875,0.0042724609375,-2.061767578125,0.0146484375,16:46:03.937890
2.2635119999999995,-0.40771484375,0.0042724609375,-2.0623779296875,0.0140380859375,16:46:03.942974
2.2675,-0.4071044921875,0.0048828125,-2.0611572265625,0.0164794921875,16:46:03.947179
2.2714919999999994,-0.4058837890625,0.006103515625,-2.061767578125,0.0164794921875,16:46:03.951442
2.275492,-0.406494140625,0.0042724609375,-2.0623779296875,0.013427734375,16:46:03.955302
2.2794919999999994,-0.40771484375,0.00732421875,-2.0611572265625,0.0140380859375,16:46:03.959435
2.283512,-0.4071044921875,0.003662109375,-2.06298828125,0.0140380859375,16:46:03.963262
2.2875039999999993,-0.40771484375,0.0042724609375,-2.060546875,0.0140380859375,16:46:03.967626
2.2914879999999993,-0.4083251953125,0.0030517578125,-2.061767578125,0.0146484375,16:46:03.971685
2.2954719999999993,-0.4071044921875,0.0048828125,-2.0623779296875,0.01708984375,16:46:03.975800
2.2994519999999996,-0.40771484375,0.0054931640625,-2.06298828125,0.01708984375,16:46:03.980135
2.303444,-0.40771484375,0.0048828125,-2.060546875,0.0177001953125,16:46:03.983472
2.3074319999999995,-0.4083251953125,0.0030517578125,-2.0611572265625,0.015869140625,16:46:03.988106
2.3114239999999997,-0.40771484375,0.0048828125,-2.060546875,0.0164794921875,16:46:03.992123
2.3154079999999997,-0.4071044921875,0.0048828125,-2.0623779296875,0.013427734375,16:46:03.995521
2.319408,-0.40771484375,0.0054931640625,-2.061767578125,0.0140380859375,16:46:04.000024
2.323396,-0.4083251953125,0.0054931640625,-2.0611572265625,0.013427734375,16:46:04.003684
2.3273839999999995,-0.4083251953125,0.003662109375,-2.0623779296875,0.0146484375,16:46:04.008542
2.331372,-0.4071044921875,0.0054931640625,-2.0623779296875,0.0146484375,16:46:04.012380
2.3353599999999997,-0.4071044921875,0.0054931640625,-2.061767578125,0.013427734375,16:46:04.016311
2.3393479999999993,-0.4083251953125,0.0048828125,-2.0611572265625,0.013427734375,16:46:04.020729
2.343336,-0.4071044921875,0.0048828125,-2.0611572265625,0.0115966796875,16:46:04.024694
2.34732,-0.4083251953125,0.0054931640625,-2.0623779296875,0.0115966796875,16:46:04.028231
2.351312,-0.4083251953125,0.00732421875,-2.060546875,0.0140380859375,16:46:04.033026
2.3553159999999993,-0.4071044921875,0.0067138671875,-2.061767578125,0.0146484375,16:46:04.037045
2.3593279999999996,-0.406494140625,0.003662109375,-2.0611572265625,0.015869140625,16:46:04.041141
2.3633159999999993,-0.40771484375,0.0054931640625,-2.060546875,0.0146484375,16:46:04.045473
2.367304,-0.4058837890625,0.0054931640625,-2.0623779296875,0.013427734375,16:46:04.049489
2.371284,-0.40771484375,0.0048828125,-2.060546875,0.0152587890625,16:46:04.053514
2.37528,-0.40771484375,0.0048828125,-2.0611572265625,0.0140380859375,16:46:04.057600
2.379264,-0.4083251953125,0.0054931640625,-2.0623779296875,0.013427734375,16:46:04.057898
2.3832559999999994,-0.40771484375,0.0054931640625,-2.0623779296875,0.0140380859375,16:46:04.061704
2.387244,-0.4083251953125,0.0042724609375,-2.061767578125,0.0140380859375,16:46:04.066140
2.391236,-0.40771484375,0.0030517578125,-2.0623779296875,0.013427734375,16:46:04.069922
2.395232,-0.406494140625,0.0054931640625,-2.061767578125,0.0140380859375,16:46:04.074125
2.399216,-0.4071044921875,0.0042724609375,-2.0623779296875,0.013427734375,16:46:04.078136
2.4032039999999997,-0.4071044921875,0.0042724609375,-2.061767578125,0.0152587890625,16:46:04.082160
2.407184,-0.4083251953125,0.0054931640625,-2.061767578125,0.0128173828125,16:46:04.086274
2.411168,-0.4071044921875,0.0054931640625,-2.060546875,0.0128173828125,16:46:04.090363
2.4151559999999996,-0.406494140625,0.0048828125,-2.0623779296875,0.013427734375,16:46:04.094456
2.4191439999999993,-0.4071044921875,0.0054931640625,-2.0611572265625,0.0146484375,16:46:04.098622
2.4231279999999993,-0.4083251953125,0.0054931640625,-2.061767578125,0.015869140625,16:46:04.102521
2.427116,-0.4071044921875,0.0048828125,-2.0611572265625,0.015869140625,16:46:04.106511
2.431108,-0.40771484375,0.0048828125,-2.0623779296875,0.015869140625,16:46:04.110776
2.435104,-0.4058837890625,0.0042724609375,-2.0587158203125,0.015869140625,16:46:04.114687
2.4390919999999996,-0.406494140625,0.0042724609375,-2.0611572265625,0.0128173828125,16:46:04.119377
2.443084,-0.4046630859375,0.0048828125,-2.0587158203125,0.0140380859375,16:46:04.123291
2.447068,-0.404052734375,0.0054931640625,-2.0599365234375,0.0140380859375,16:46:04.127122
2.4510559999999995,-0.4034423828125,0.006103515625,-2.0574951171875,0.0152587890625,16:46:04.131309
2.4550719999999995,-0.404052734375,0.0048828125,-2.05810546875,0.0146484375,16:46:04.135386
2.45906,-0.4034423828125,0.0018310546875,-2.0574951171875,0.01708984375,16:46:04.139574
2.4630479999999997,-0.40283203125,0.0018310546875,-2.0574951171875,0.0177001953125,16:46:04.142986
2.4670359999999993,-0.40283203125,0.0030517578125,-2.05810546875,0.0177001953125,16:46:04.147762
2.4710279999999996,-0.401611328125,0.00244140625,-2.0574951171875,0.018310546875,16:46:04.151782
2.4750199999999998,-0.4010009765625,0.003662109375,-2.056884765625,0.018310546875,16:46:04.155139
2.4790079999999994,-0.4010009765625,0.0042724609375,-2.0574951171875,0.015869140625,16:46:04.160027
2.4829999999999997,-0.3997802734375,0.0048828125,-2.0556640625,0.015869140625,16:46:04.163793
2.486992,-0.3997802734375,0.0054931640625,-2.056884765625,0.0146484375,16:46:04.168220
2.490984,-0.399169921875,0.00732421875,-2.0538330078125,0.0152587890625,16:46:04.172217
2.495,-0.399169921875,0.0054931640625,-2.0556640625,0.015869140625,16:46:04.176378
2.4989879999999998,-0.3985595703125,0.0042724609375,-2.0556640625,0.0164794921875,16:46:04.180425
2.5029759999999994,-0.39794921875,0.003662109375,-2.0550537109375,0.0152587890625,16:46:04.184204
2.5069679999999996,-0.3973388671875,0.003662109375,-2.05322265625,0.0164794921875,16:46:04.188426
2.510948,-0.3961181640625,0.00244140625,-2.0550537109375,0.01708984375,16:46:04.192459
2.5149279999999994,-0.3961181640625,0.003662109375,-2.0538330078125,0.0128173828125,16:46:04.196621
2.5189199999999996,-0.3961181640625,0.0048828125,-2.0526123046875,0.0140380859375,16:46:04.200945
2.5229039999999996,-0.3955078125,0.0054931640625,-2.0526123046875,0.0152587890625,16:46:04.205034
2.526884,-0.3948974609375,0.0048828125,-2.05322265625,0.0164794921875,16:46:04.209156
2.5308719999999996,-0.3936767578125,0.0054931640625,-2.0526123046875,0.0164794921875,16:46:04.212890
2.53486,-0.391845703125,0.0054931640625,-2.0501708984375,0.01708984375,16:46:04.216879
2.538844,-0.3912353515625,0.0054931640625,-2.0501708984375,0.0164794921875,16:46:04.221152
2.5428319999999998,-0.3912353515625,0.003662109375,-2.0489501953125,0.0177001953125,16:46:04.221152
2.5468159999999997,-0.389404296875,0.0042724609375,-2.049560546875,0.01708984375,16:46:04.225261
2.5508039999999994,-0.3887939453125,0.0030517578125,-2.0477294921875,0.0164794921875,16:46:04.229645
2.554792,-0.38818359375,0.0042724609375,-2.0489501953125,0.018310546875,16:46:04.233686
2.5587799999999996,-0.3863525390625,0.0030517578125,-2.0477294921875,0.0146484375,16:46:04.237862
2.562768,-0.386962890625,0.00244140625,-2.0465087890625,0.015869140625,16:46:04.241900
2.5667599999999995,-0.3875732421875,0.0042724609375,-2.047119140625,0.0146484375,16:46:04.245740
2.5707519999999997,-0.3851318359375,0.00244140625,-2.0458984375,0.015869140625,16:46:04.249823
2.5747399999999994,-0.3839111328125,0.0030517578125,-2.044677734375,0.015869140625,16:46:04.253978
2.5787319999999996,-0.384521484375,0.0042724609375,-2.0458984375,0.0164794921875,16:46:04.258394
2.582724,-0.3839111328125,0.0018310546875,-2.0458984375,0.015869140625,16:46:04.262341
2.586708,-0.382080078125,0.0048828125,-2.044677734375,0.015869140625,16:46:04.266518
2.5907039999999997,-0.38330078125,0.003662109375,-2.04345703125,0.0152587890625,16:46:04.270568
2.594696,-0.3826904296875,0.0048828125,-2.0452880859375,0.0146484375,16:46:04.274775
2.5986839999999995,-0.3826904296875,0.0048828125,-2.0458984375,0.015869140625,16:46:04.278477
2.6026679999999995,-0.3839111328125,0.0048828125,-2.04345703125,0.0146484375,16:46:04.282804
2.606656,-0.382080078125,0.0042724609375,-2.04345703125,0.0152587890625,16:46:04.286962
2.6106479999999994,-0.382080078125,0.003662109375,-2.04345703125,0.0146484375,16:46:04.291031
2.6146279999999997,-0.3826904296875,0.0067138671875,-2.04345703125,0.01708984375,16:46:04.295138
2.6186479999999994,-0.382080078125,0.0054931640625,-2.0428466796875,0.0140380859375,16:46:04.299216
2.622636,-0.380859375,0.0048828125,-2.0428466796875,0.0140380859375,16:46:04.303028
2.6266279999999993,-0.3802490234375,0.0048828125,-2.042236328125,0.0146484375,16:46:04.307501
2.6306119999999993,-0.379638671875,0.0030517578125,-2.0440673828125,0.0152587890625,16:46:04.311521
2.634608,-0.3790283203125,0.0006103515625,-2.0428466796875,0.01708984375,16:46:04.315625
2.6385879999999995,-0.3778076171875,0.00244140625,-2.0416259765625,0.0164794921875,16:46:04.319686
2.6425799999999997,-0.379638671875,0.003662109375,-2.042236328125,0.0177001953125,16:46:04.323487
2.64658,-0.37841796875,0.0042724609375,-2.0416259765625,0.015869140625,16:46:04.327476
2.650568,-0.377197265625,0.0048828125,-2.041015625,0.015869140625,16:46:04.331497
2.654548,-0.377197265625,0.003662109375,-2.039794921875,0.0164794921875,16:46:04.335699
2.658536,-0.377197265625,0.0048828125,-2.03857421875,0.015869140625,16:46:04.340297
2.662528,-0.3753662109375,0.003662109375,-2.0404052734375,0.015869140625,16:46:04.344240
2.6665159999999997,-0.374755859375,0.003662109375,-2.039794921875,0.015869140625,16:46:04.348458
2.6705039999999993,-0.3753662109375,0.006103515625,-2.03857421875,0.0146484375,16:46:04.352531
2.6745279999999996,-0.3741455078125,0.0054931640625,-2.0379638671875,0.015869140625,16:46:04.356381
2.678516,-0.372314453125,0.006103515625,-2.039794921875,0.015869140625,16:46:04.360754
2.6825399999999995,-0.37353515625,0.003662109375,-2.03857421875,0.0164794921875,16:46:04.364821
2.6865359999999994,-0.37353515625,0.003662109375,-2.0379638671875,0.0177001953125,16:46:04.368658
2.690524,-0.372314453125,0.0030517578125,-2.037353515625,0.018310546875,16:46:04.372670
2.6945119999999996,-0.372314453125,0.0018310546875,-2.037353515625,0.01708984375,16:46:04.377172
2.698504,-0.3729248046875,0.0018310546875,-2.0379638671875,0.0152587890625,16:46:04.381195
2.702476,-0.3729248046875,0.0030517578125,-2.03857421875,0.0152587890625,16:46:04.385027
2.7064759999999994,-0.3729248046875,0.0042724609375,-2.0367431640625,0.0164794921875,16:46:04.389158
2.7104679999999997,-0.37109375,0.0054931640625,-2.0379638671875,0.01708984375,16:46:04.389158
2.7144559999999993,-0.3717041015625,0.0054931640625,-2.037353515625,0.01708984375,16:46:04.393342
2.718444,-0.372314453125,0.0067138671875,-2.0391845703125,0.0177001953125,16:46:04.397508
2.722468,-0.372314453125,0.0079345703125,-2.037353515625,0.015869140625,16:46:04.401546
2.726488,-0.372314453125,0.0054931640625,-2.037353515625,0.013427734375,16:46:04.405683
2.730472,-0.372314453125,0.0048828125,-2.037353515625,0.0128173828125,16:46:04.409802
2.734464,-0.37109375,0.0054931640625,-2.0367431640625,0.01220703125,16:46:04.413810
2.7384519999999997,-0.3704833984375,0.0048828125,-2.0355224609375,0.0128173828125,16:46:04.418021
2.742444,-0.3692626953125,0.0042724609375,-2.034912109375,0.013427734375,16:46:04.422045
2.746436,-0.369873046875,0.0048828125,-2.0343017578125,0.015869140625,16:46:04.426233
2.7504159999999995,-0.3692626953125,0.0048828125,-2.0361328125,0.0146484375,16:46:04.429922
2.7544079999999997,-0.3704833984375,0.003662109375,-2.03369140625,0.0146484375,16:46:04.434415
2.7583959999999994,-0.3692626953125,0.0042724609375,-2.0355224609375,0.0146484375,16:46:04.438401
2.7623919999999993,-0.369873046875,0.0042724609375,-2.034912109375,0.0146484375,16:46:04.442653
2.766388,-0.369873046875,0.0054931640625,-2.0355224609375,0.015869140625,16:46:04.446731
2.7703759999999997,-0.3692626953125,0.0048828125,-2.034912109375,0.0140380859375,16:46:04.450321
2.7743599999999997,-0.37109375,0.0054931640625,-2.0355224609375,0.0152587890625,16:46:04.455102
2.7783479999999994,-0.37109375,0.0048828125,-2.0355224609375,0.018310546875,16:46:04.458977
2.782336,-0.3692626953125,0.0030517578125,-2.0367431640625,0.01708984375,16:46:04.462990
2.786328,-0.3692626953125,0.0030517578125,-2.0343017578125,0.0152587890625,16:46:04.467235
2.790312,-0.3692626953125,0.0030517578125,-2.034912109375,0.0164794921875,16:46:04.471238
2.7943039999999995,-0.3704833984375,0.0030517578125,-2.0355224609375,0.01708984375,16:46:04.475692
2.798292,-0.369873046875,0.0042724609375,-2.0367431640625,0.015869140625,16:46:04.479514
2.802288,-0.3704833984375,0.0048828125,-2.0343017578125,0.0152587890625,16:46:04.483295
2.8062759999999995,-0.369873046875,0.003662109375,-2.0361328125,0.013427734375,16:46:04.487727
2.8102679999999998,-0.369873046875,0.0048828125,-2.037353515625,0.0152587890625,16:46:04.490822
2.8142519999999998,-0.369873046875,0.003662109375,-2.0361328125,0.0140380859375,16:46:04.495845
2.818244,-0.369873046875,0.0048828125,-2.0361328125,0.0146484375,16:46:04.499971
2.8222359999999993,-0.3704833984375,0.0030517578125,-2.0355224609375,0.015869140625,16:46:04.504173
2.826224,-0.372314453125,0.0048828125,-2.0367431640625,0.0177001953125,16:46:04.508145
2.8302199999999997,-0.369873046875,0.0048828125,-2.0367431640625,0.01708984375,16:46:04.512197
2.8342,-0.3692626953125,0.0048828125,-2.0367431640625,0.01708984375,16:46:04.516435
2.838184,-0.3704833984375,0.0067138671875,-2.034912109375,0.0177001953125,16:46:04.520400
2.8422039999999997,-0.3704833984375,0.0030517578125,-2.0355224609375,0.01708984375,16:46:04.524501
2.8461919999999994,-0.3704833984375,0.0054931640625,-2.0361328125,0.01708984375,16:46:04.528645
2.8501879999999993,-0.37109375,0.003662109375,-2.0355224609375,0.018310546875,16:46:04.532683
2.8541799999999995,-0.369873046875,0.0048828125,-2.0355224609375,0.0164794921875,16:46:04.536845
2.85816,-0.3692626953125,0.0048828125,-2.0367431640625,0.01708984375,16:46:04.540907
2.862144,-0.37109375,0.0054931640625,-2.0355224609375,0.018310546875,16:46:04.544755
2.8661199999999996,-0.3704833984375,0.0042724609375,-2.0355224609375,0.0177001953125,16:46:04.549078
2.8701159999999994,-0.369873046875,0.0042724609375,-2.0355224609375,0.0146484375,16:46:04.552571
